{"learner":{"attributes":{"scikit_learn":"{\"_estimator_type\": \"regressor\"}"},"feature_names":["pm25_lag_1","pm25_lag_2","pm25_lag_3","weather_temperature_2m_mean","weather_precipitation_sum","weather_wind_speed_10m_max","weather_wind_direction_10m_dominant"],"feature_types":["float","float","float","float","float","float","float"],"gradient_booster":{"model":{"gbtree_model_param":{"num_parallel_tree":"1","num_trees":"100"},"iteration_indptr":[0,1,2,3,4,5,6,7,8,9,10,11,12,13,14,15,16,17,18,19,20,21,22,23,24,25,26,27,28,29,30,31,32,33,34,35,36,37,38,39,40,41,42,43,44,45,46,47,48,49,50,51,52,53,54,55,56,57,58,59,60,61,62,63,64,65,66,67,68,69,70,71,72,73,74,75,76,77,78,79,80,81,82,83,84,85,86,87,88,89,90,91,92,93,94,95,96,97,98,99,100],"tree_info":[0,0,0,0,0,0,0,0,0,0,0,0,0,0,0,0,0,0,0,0,0,0,0,0,0,0,0,0,0,0,0,0,0,0,0,0,0,0,0,0,0,0,0,0,0,0,0,0,0,0,0,0,0,0,0,0,0,0,0,0,0,0,0,0,0,0,0,0,0,0,0,0,0,0,0,0,0,0,0,0,0,0,0,0,0,0,0,0,0,0,0,0,0,0,0,0,0,0,0,0],"trees":[{"base_weights":[-1.176902E-6,-9.327776E0,1.5079902E1,-1.6633392E1,-4.162639E0,9.8134E0,3.0340794E1,-2.1410048E1,-1.5012147E1,-7.3428307E0,-8.179632E-1,1.4148864E1,6.418827E0,2.6949638E1,6.3998386E1,-2.4129862E1,-1.9361313E1,-1.2637456E1,-1.7802439E1,-4.864089E0,-1.0188442E1,2.941807E0,-3.7073584E0,9.604784E0,1.7314842E1,4.3053684E0,1.241769E1,3.3854393E1,2.0049805E1,7.442697E1,1.6831934E1,-5.251259E0,-7.444497E0,-5.0014687E0,-2.0254E1,7.3497486E0,-1.2835007E1,-1.23478E1,-1.9068336E1,-1.0410744E1,-3.2720575E0,-1.7288749E0,-1.0933875E1,-9.501148E-1,5.73714E0,1.0935796E0,-5.557226E0,5.6215343E0,1.2653513E1,2.6389698E1,1.6161596E1,6.976777E0,-7.274714E-1,1.4794257E1,3.331717E0,1.7806078E1,3.7437588E1,2.1957685E1,1.8555843E0,2.3604786E1,6.799665E0,1.0274623E1,-3.6003358E0,-4.300336E0,3.2997484E0,-6.0004315E0,1.4999749E1,-4.5504756E0,-6.313832E0,-3.9640198E0,2.5995805E0,1.9996644E0,-3.9724936E0,-5.7809887E0,-2.70042E0,-3.2864332E0,1.3996644E0,-7.560058E-1,-3.9942222E0,4.70961E-1,-2.0004478E0,-2.718296E0,-3.8097432E0,4.3626857E-1,-1.9104868E0,4.930778E0,1.275131E0,-1.5433248E0,6.924614E-1,-1.9697746E0,-1.9785872E-1,7.529966E-1,3.1106265E0,4.195799E0,-1.3718603E0,8.729522E0,1.8746225E0,5.580844E0,3.2137904E0,2.936169E0,1.5477518E0,-2.7478456E0,2.3723707E-1,6.07268E0,3.2064018E0,8.499664E0,5.95166E-2,-3.7537768E-1,6.103866E0,9.899504E0,1.4635229E1,-1.8040285E-1,6.816308E0,3.0370595E0,-2.3575745E0],"categories":[],"categories_nodes":[],"categories_segments":[],"categories_sizes":[],"default_left":[0,0,0,0,0,0,0,0,0,0,0,0,0,0,0,0,0,0,0,0,0,0,0,0,0,0,0,0,0,0,0,0,0,0,0,0,0,0,0,0,0,0,0,0,0,0,0,0,0,0,0,0,0,0,0,0,0,0,0,0,0,0,0,0,0,0,0,0,0,0,0,0,0,0,0,0,0,0,0,0,0,0,0,0,0,0,0,0,0,0,0,0,0,0,0,0,0,0,0,0,0,0,0,0,0,0,0,0,0,0,0,0,0,0,0],"id":0,"left_children":[1,3,5,7,9,11,13,15,17,19,21,23,25,27,29,31,33,35,37,39,41,43,45,47,49,51,53,55,57,59,61,63,-1,65,67,-1,69,71,73,75,77,79,81,83,85,87,89,91,93,95,97,99,101,103,105,107,109,111,113,-1,-1,-1,-1,-1,-1,-1,-1,-1,-1,-1,-1,-1,-1,-1,-1,-1,-1,-1,-1,-1,-1,-1,-1,-1,-1,-1,-1,-1,-1,-1,-1,-1,-1,-1,-1,-1,-1,-1,-1,-1,-1,-1,-1,-1,-1,-1,-1,-1,-1,-1,-1,-1,-1,-1,-1],"loss_changes":[4.1959456E5,6.947547E4,9.1325766E4,5.587375E3,1.1492277E4,1.2403953E4,3.1603594E4,5.9710156E2,3.5717656E3,3.8581035E3,5.7468145E3,5.185461E3,6.006789E3,1.2041547E4,1.1536117E4,8.785625E2,1.3600508E3,2.6107227E3,1.5667578E3,2.5974087E3,1.6017461E3,2.5076704E3,2.6615269E3,1.811165E3,1.8549922E3,4.77797E3,2.628293E3,6.923953E3,4.6801406E3,2.8424688E3,3.4241016E3,7.480898E2,0E0,7.600117E3,1.1180859E2,0E0,2.652793E3,9.720034E2,2.5278906E2,5.924424E2,1.7260596E3,3.689238E2,6.6518555E2,1.2728945E3,2.0615347E3,6.483276E2,1.0627642E3,9.9318677E2,2.0609424E3,1.072958E3,2.4079258E3,1.1346289E3,1.5946915E3,1.975998E3,2.1094177E3,1.2840762E3,3.7797969E3,2.13175E3,1.2039835E3,0E0,0E0,0E0,0E0,0E0,0E0,0E0,0E0,0E0,0E0,0E0,0E0,0E0,0E0,0E0,0E0,0E0,0E0,0E0,0E0,0E0,0E0,0E0,0E0,0E0,0E0,0E0,0E0,0E0,0E0,0E0,0E0,0E0,0E0,0E0,0E0,0E0,0E0,0E0,0E0,0E0,0E0,0E0,0E0,0E0,0E0,0E0,0E0,0E0,0E0,0E0,0E0,0E0,0E0,0E0,0E0],"parents":[2147483647,0,0,1,1,2,2,3,3,4,4,5,5,6,6,7,7,8,8,9,9,10,10,11,11,12,12,13,13,14,14,15,15,16,16,17,17,18,18,19,19,20,20,21,21,22,22,23,23,24,24,25,25,26,26,27,27,28,28,29,29,30,30,31,31,33,33,34,34,36,36,37,37,38,38,39,39,40,40,41,41,42,42,43,43,44,44,45,45,46,46,47,47,48,48,49,49,50,50,51,51,52,52,53,53,54,54,55,55,56,56,57,57,58,58],"right_children":[2,4,6,8,10,12,14,16,18,20,22,24,26,28,30,32,34,36,38,40,42,44,46,48,50,52,54,56,58,60,62,64,-1,66,68,-1,70,72,74,76,78,80,82,84,86,88,90,92,94,96,98,100,102,104,106,108,110,112,114,-1,-1,-1,-1,-1,-1,-1,-1,-1,-1,-1,-1,-1,-1,-1,-1,-1,-1,-1,-1,-1,-1,-1,-1,-1,-1,-1,-1,-1,-1,-1,-1,-1,-1,-1,-1,-1,-1,-1,-1,-1,-1,-1,-1,-1,-1,-1,-1,-1,-1,-1,-1,-1,-1,-1,-1],"split_conditions":[3.9E1,2.2E1,6.2E1,1.2E1,3E1,1.9605595E2,1.04E2,9E0,2.472814E2,2.3633012E2,2.1277162E2,1.0880372E2,5.3E1,1.94436E2,2.7558228E1,3E0,6E0,5E0,1.8416384E1,8.100652E1,1.481259E1,1.1103458E2,2.0929594E1,4.9E1,3.356333E0,3.0096085E1,2.8000002E0,8.766603E1,3.5188046E1,1.2E2,2.0507315E2,6E0,-7.444497E0,1.7E1,9E0,7.3497486E0,7.5E1,1.1E1,1.8214664E1,1.6777166E1,4.1251034E1,3.070978E2,2.7719907E2,4E1,1.7453337E0,2.4E1,1.6100084E1,8.2497604E1,3.377291E1,5.8E1,1.5E0,2.472814E2,1.9E1,2.4593564E2,2.2E1,1.06675E0,8E1,6.3E1,6.6E1,2.3604786E1,6.799665E0,1.0274623E1,-3.6003358E0,-4.300336E0,3.2997484E0,-6.0004315E0,1.4999749E1,-4.5504756E0,-6.313832E0,-3.9640198E0,2.5995805E0,1.9996644E0,-3.9724936E0,-5.7809887E0,-2.70042E0,-3.2864332E0,1.3996644E0,-7.560058E-1,-3.9942222E0,4.70961E-1,-2.0004478E0,-2.718296E0,-3.8097432E0,4.3626857E-1,-1.9104868E0,4.930778E0,1.275131E0,-1.5433248E0,6.924614E-1,-1.9697746E0,-1.9785872E-1,7.529966E-1,3.1106265E0,4.195799E0,-1.3718603E0,8.729522E0,1.8746225E0,5.580844E0,3.2137904E0,2.936169E0,1.5477518E0,-2.7478456E0,2.3723707E-1,6.07268E0,3.2064018E0,8.499664E0,5.95166E-2,-3.7537768E-1,6.103866E0,9.899504E0,1.4635229E1,-1.8040285E-1,6.816308E0,3.0370595E0,-2.3575745E0],"split_indices":[0,0,0,0,0,6,0,0,6,6,6,6,0,6,5,0,1,2,5,6,5,6,5,0,3,5,4,6,5,1,6,1,0,2,1,0,2,1,3,3,5,6,6,1,3,2,3,6,5,0,4,6,2,6,1,3,0,0,0,0,0,0,0,0,0,0,0,0,0,0,0,0,0,0,0,0,0,0,0,0,0,0,0,0,0,0,0,0,0,0,0,0,0,0,0,0,0,0,0,0,0,0,0,0,0,0,0,0,0,0,0,0,0,0,0],"split_type":[0,0,0,0,0,0,0,0,0,0,0,0,0,0,0,0,0,0,0,0,0,0,0,0,0,0,0,0,0,0,0,0,0,0,0,0,0,0,0,0,0,0,0,0,0,0,0,0,0,0,0,0,0,0,0,0,0,0,0,0,0,0,0,0,0,0,0,0,0,0,0,0,0,0,0,0,0,0,0,0,0,0,0,0,0,0,0,0,0,0,0,0,0,0,0,0,0,0,0,0,0,0,0,0,0,0,0,0,0,0,0,0,0,0,0],"sum_hessian":[2.981E3,1.842E3,1.139E3,7.62E2,1.08E3,8.48E2,2.91E2,1.9E2,5.72E2,5.53E2,5.27E2,3.71E2,4.77E2,2.66E2,2.5E1,7.7E1,1.13E2,3.12E2,2.6E2,2.97E2,2.56E2,2.29E2,2.98E2,1.54E2,2.17E2,3.54E2,1.23E2,1.31E2,1.35E2,2E1,5E0,3E0,7.4E1,7E0,1.06E2,1E0,3.11E2,5.1E1,2.09E2,6.5E1,2.32E2,2.1E1,2.35E2,9.6E1,1.33E2,8.3E1,2.15E2,6.8E1,8.6E1,2.2E1,1.95E2,2.31E2,1.23E2,9.7E1,2.6E1,2.5E1,1.06E2,1.22E2,1.3E1,1.8E1,2E0,3E0,2E0,2E0,1E0,6E0,1E0,1.7E1,8.9E1,3.06E2,5E0,2E0,4.9E1,2.04E2,5E0,6.3E1,2E0,2.17E2,1.5E1,1.3E1,8E0,1.17E2,1.18E2,6.7E1,2.9E1,1.5E1,1.18E2,1.3E1,7E1,1.78E2,3.7E1,4.2E1,2.6E1,8E1,6E0,1.9E1,3E0,1.33E2,6.2E1,8.9E1,1.42E2,1.8E1,1.05E2,4E1,5.7E1,2E0,2.4E1,3E0,2.2E1,7.9E1,2.7E1,4E0,1.18E2,7E0,6E0],"tree_param":{"num_deleted":"0","num_feature":"7","num_nodes":"115","size_leaf_vector":"1"}},{"base_weights":[3.111713E-2,-7.6999116E0,9.170336E0,-1.2818957E1,-4.8905396E0,5.81741E0,2.149423E1,-1.644103E1,-1.1959771E1,-2.8299232E0,-7.291571E0,3.4867954E0,9.747432E0,1.900549E1,4.6224976E1,-3.9260283E0,-1.676429E1,1.2391684E1,-1.2197428E1,-6.501021E0,-1.2692825E0,-8.816779E0,-4.921663E0,6.9393835E0,1.3174614E0,1.1010742E1,3.4175832E0,2.4099606E1,1.4212259E1,5.3546715E1,1.2894733E1,-3.440269E0,2.8047862E0,-1.7026573E1,-5.950553E0,1.2749786E1,-5.7600384E0,-1.0546897E1,-1.3816455E1,-1.0157859E1,-4.8201957E0,1.8955929E0,-3.3042052E0,-4.8955297E0,-1.00311575E1,-2.4118779E0,-6.8694205E0,3.8731773E0,1.1048012E1,4.766566E0,-1.1718831E0,1.2692434E1,6.399072E0,1.8001476E1,2.4675345E0,1.7434673E1,2.9372911E1,1.8637932E1,9.388192E0,2.0540804E1,4.119473E1,2.6542772E1,-2.8802688E0,-1.9375695E0,-5.152449E0,-2.7835774E0,-5.2450293E-1,-3.1038907E0,1.1998129E0,-4.288328E0,-2.5816576E0,-4.494512E0,-3.1252072E0,-3.0835366E0,-6.011187E-1,-1.6951416E0,8.746774E-1,1.2973678E0,-1.2575877E0,-1.4322993E0,-2.7579399E-2,2.2715275E0,-1.6099908E0,-2.2982473E0,-3.3217075E0,1.4056641E0,-1.3578207E0,-2.2289855E0,6.598745E-1,7.020392E-1,2.9196193E0,4.5800343E0,2.162284E0,3.10578E-1,1.7922673E0,4.0812907E-1,-1.4057314E0,9.1787213E-1,4.1647134E0,-5.733022E-1,2.5855656E0,1.611925E0,6.1259747E0,-1.5282043E0,1.4513639E0,1.0159365E0,5.6018167E0,1.0201638E1,3.483818E0,3.8360837E0,6.443429E0,4.133398E0,1.0688086E0,1.3470964E1,6.209314E0,9.144739E0,2.2085547E0],"categories":[],"categories_nodes":[],"categories_segments":[],"categories_sizes":[],"default_left":[0,0,0,0,0,0,0,0,0,0,0,0,0,0,0,0,0,0,0,0,0,0,0,0,0,0,0,0,0,0,0,0,0,0,0,0,0,0,0,0,0,0,0,0,0,0,0,0,0,0,0,0,0,0,0,0,0,0,0,0,0,0,0,0,0,0,0,0,0,0,0,0,0,0,0,0,0,0,0,0,0,0,0,0,0,0,0,0,0,0,0,0,0,0,0,0,0,0,0,0,0,0,0,0,0,0,0,0,0,0,0,0,0,0,0,0,0],"id":1,"left_children":[1,3,5,7,9,11,13,15,17,19,21,23,25,27,29,31,33,35,37,39,41,43,45,47,49,51,53,55,57,59,61,-1,-1,63,65,-1,67,69,71,73,75,77,79,81,83,85,87,89,91,93,95,97,99,101,103,105,107,109,111,-1,113,115,-1,-1,-1,-1,-1,-1,-1,-1,-1,-1,-1,-1,-1,-1,-1,-1,-1,-1,-1,-1,-1,-1,-1,-1,-1,-1,-1,-1,-1,-1,-1,-1,-1,-1,-1,-1,-1,-1,-1,-1,-1,-1,-1,-1,-1,-1,-1,-1,-1,-1,-1,-1,-1,-1,-1],"loss_changes":[2.1076548E5,2.3177492E4,5.636089E4,1.5834531E3,5.1496133E3,9.821496E3,1.709361E4,3.670586E2,2.8480156E3,3.2230537E3,1.6988457E3,5.061464E3,3.1609922E3,6.1768984E3,5.6544453E3,5.0767853E2,1.936543E2,2.9773218E3,1.0888672E3,9.836499E2,2.5630535E3,1.3413613E3,9.1712646E2,3.2452607E3,3.5859514E3,2.501336E3,8.977485E2,3.9866172E3,2.8139863E3,1.0502305E3,2.0969614E3,0E0,0E0,4.7322266E1,3.9718292E1,0E0,2.2041576E2,1.5721426E3,7.5491406E2,3.053955E1,7.679463E2,2.3248157E3,1.1423928E3,4.5764758E2,4.630703E2,1.2966584E3,5.6027246E2,1.3334998E3,1.6883564E3,7.823899E2,2.168653E3,2.7429297E3,1.6948789E3,1.2445923E1,1.1896704E3,9.6291797E2,5.3643438E3,9.2183984E2,1.7154346E3,0E0,1.3478711E2,7.786035E1,0E0,0E0,0E0,0E0,0E0,0E0,0E0,0E0,0E0,0E0,0E0,0E0,0E0,0E0,0E0,0E0,0E0,0E0,0E0,0E0,0E0,0E0,0E0,0E0,0E0,0E0,0E0,0E0,0E0,0E0,0E0,0E0,0E0,0E0,0E0,0E0,0E0,0E0,0E0,0E0,0E0,0E0,0E0,0E0,0E0,0E0,0E0,0E0,0E0,0E0,0E0,0E0,0E0,0E0,0E0],"parents":[2147483647,0,0,1,1,2,2,3,3,4,4,5,5,6,6,7,7,8,8,9,9,10,10,11,11,12,12,13,13,14,14,15,15,16,16,17,17,18,18,19,19,20,20,21,21,22,22,23,23,24,24,25,25,26,26,27,27,28,28,29,29,30,30,33,33,34,34,36,36,37,37,38,38,39,39,40,40,41,41,42,42,43,43,44,44,45,45,46,46,47,47,48,48,49,49,50,50,51,51,52,52,53,53,54,54,55,55,56,56,57,57,58,58,60,60,61,61],"right_children":[2,4,6,8,10,12,14,16,18,20,22,24,26,28,30,32,34,36,38,40,42,44,46,48,50,52,54,56,58,60,62,-1,-1,64,66,-1,68,70,72,74,76,78,80,82,84,86,88,90,92,94,96,98,100,102,104,106,108,110,112,-1,114,116,-1,-1,-1,-1,-1,-1,-1,-1,-1,-1,-1,-1,-1,-1,-1,-1,-1,-1,-1,-1,-1,-1,-1,-1,-1,-1,-1,-1,-1,-1,-1,-1,-1,-1,-1,-1,-1,-1,-1,-1,-1,-1,-1,-1,-1,-1,-1,-1,-1,-1,-1,-1,-1,-1,-1],"split_conditions":[3.5E1,1.9E1,6.2E1,1E1,2.3633012E2,4.9E1,1.04E2,3E0,6E0,1.01332535E2,2.8E1,1.9605595E2,3.2750107E1,1.9144383E2,2.7558228E1,6E0,1.5720917E1,1.1E1,2.4452504E2,2.4E1,8.595918E0,1.9201874E1,2E-1,1.33618E2,2.4031178E1,2.4875948E2,2.2E1,1.25347534E2,2.4826952E1,5.9E1,2.0507315E2,-3.440269E0,2.8047862E0,1.24811535E1,7E0,1.2749786E1,6E0,1.2249737E2,1.7E1,3.9575443E1,1.7706331E1,3.244996E1,3.3E1,1.5E1,2.6137134E2,2.8E1,6.3E1,1.9000001E0,1.0870915E1,3.2E1,2.5518759E2,6.057263E1,3.6E1,5.2E1,3.2E1,1.06675E0,1.7000002E0,6.8E1,1.2E0,2.0540804E1,1.16E2,1.19E2,-2.8802688E0,-1.9375695E0,-5.152449E0,-2.7835774E0,-5.2450293E-1,-3.1038907E0,1.1998129E0,-4.288328E0,-2.5816576E0,-4.494512E0,-3.1252072E0,-3.0835366E0,-6.011187E-1,-1.6951416E0,8.746774E-1,1.2973678E0,-1.2575877E0,-1.4322993E0,-2.7579399E-2,2.2715275E0,-1.6099908E0,-2.2982473E0,-3.3217075E0,1.4056641E0,-1.3578207E0,-2.2289855E0,6.598745E-1,7.020392E-1,2.9196193E0,4.5800343E0,2.162284E0,3.10578E-1,1.7922673E0,4.0812907E-1,-1.4057314E0,9.1787213E-1,4.1647134E0,-5.733022E-1,2.5855656E0,1.611925E0,6.1259747E0,-1.5282043E0,1.4513639E0,1.0159365E0,5.6018167E0,1.0201638E1,3.483818E0,3.8360837E0,6.443429E0,4.133398E0,1.0688086E0,1.3470964E1,6.209314E0,9.144739E0,2.2085547E0],"split_indices":[0,0,0,0,6,0,0,0,1,6,0,6,5,6,5,1,3,0,6,0,3,5,4,6,5,6,1,6,5,2,6,0,0,5,0,0,2,6,0,5,3,5,2,1,6,1,2,4,3,1,6,6,2,0,2,3,4,0,4,0,1,0,0,0,0,0,0,0,0,0,0,0,0,0,0,0,0,0,0,0,0,0,0,0,0,0,0,0,0,0,0,0,0,0,0,0,0,0,0,0,0,0,0,0,0,0,0,0,0,0,0,0,0,0,0,0,0],"split_type":[0,0,0,0,0,0,0,0,0,0,0,0,0,0,0,0,0,0,0,0,0,0,0,0,0,0,0,0,0,0,0,0,0,0,0,0,0,0,0,0,0,0,0,0,0,0,0,0,0,0,0,0,0,0,0,0,0,0,0,0,0,0,0,0,0,0,0,0,0,0,0,0,0,0,0,0,0,0,0,0,0,0,0,0,0,0,0,0,0,0,0,0,0,0,0,0,0,0,0,0,0,0,0,0,0,0,0,0,0,0,0,0,0,0,0,0,0],"sum_hessian":[2.981E3,1.615E3,1.366E3,5.71E2,1.044E3,1.075E3,2.91E2,1.06E2,4.65E2,5.63E2,4.81E2,6.76E2,3.99E2,2.66E2,2.5E1,3E0,1.03E2,4E0,4.61E2,1.67E2,3.96E2,2.91E2,1.9E2,2.6E2,4.16E2,3.32E2,6.7E1,1.27E2,1.39E2,2E1,5E0,2E0,1E0,1E2,3E0,1E0,3E0,2.32E2,2.29E2,5.1E1,1.16E2,1.55E2,2.41E2,7E1,2.21E2,8.4E1,1.06E2,1.5E2,1.1E2,1.74E2,2.42E2,2.42E2,9E1,3E0,6.4E1,5.8E1,6.9E1,7.1E1,6.8E1,7E0,1.3E1,3E0,2E0,2E0,9.8E1,1E0,2E0,2E0,1E0,7.7E1,1.55E2,1.68E2,6.1E1,5E1,1E0,1.05E2,1.1E1,1.11E2,4.4E1,1.65E2,7.6E1,2E0,6.8E1,7E1,1.51E2,1.9E1,6.5E1,1E2,6E0,1.2E2,3E1,5.1E1,5.9E1,4.3E1,1.31E2,1.41E2,1.01E2,2.7E1,2.15E2,1.9E1,7.1E1,1E0,2E0,1.5E1,4.9E1,5E0,5.3E1,5.4E1,1.5E1,2.5E1,4.6E1,3.8E1,3E1,1E1,3E0,2E0,1E0],"tree_param":{"num_deleted":"0","num_feature":"7","num_nodes":"117","size_leaf_vector":"1"}},{"base_weights":[4.982406E-2,-4.6413274E0,7.633808E0,-8.308337E0,-2.048756E0,5.460946E0,1.7818956E1,-9.877274E0,-6.829355E0,-4.235569E0,-6.5825707E-1,3.8865106E0,9.089528E0,1.52788725E1,3.423033E1,-8.792437E0,-1.2736148E1,1.0096002E1,-7.071613E0,-2.550818E0,-5.272998E0,1.2425399E0,-2.266012E0,2.9884133E0,9.177464E0,1.0982363E1,4.3733597E0,1.6847761E1,2.2775946E0,3.9397987E1,1.0438484E1,-1.2538574E1,-7.615518E0,-9.490101E0,-1.3945366E1,6.4895205E0,-1.0797997E0,-7.3413014E0,1.3348181E0,-2.8075428E0,5.817286E0,-4.6064105E0,-8.03579E0,9.313566E-1,9.446662E0,-1.1312505E0,-6.8530545E0,4.3537135E0,3.6204806E-1,7.055008E0,1.3331725E1,1.2414708E1,8.089918E-1,3.1461773E0,1.2119812E1,1.714324E1,-4.342708E0,-7.4125214E0,6.0018015E0,5.049614E1,9.072613E0,2.1418264E1,-2.3042154E0,-3.9438088E0,-2.5415637E0,-1.4766405E0,-2.991099E0,-3.22376E0,-8.0281883E-1,-4.4346104E0,-3.0593197E0,1.1091961E0,-1.1713839E0,-1.6189196E0,-2.5185776E0,-2.6057357E-1,2.6907E0,-1.6440008E0,-2.963327E-1,-1.0525659E0,-2.1745632E0,-3.922326E0,-1.9725717E0,9.509341E-1,-1.0992101E-1,9.198673E0,3.975516E-1,-5.099314E-1,1.7537358E0,-2.7052174E0,-9.621607E-1,1.5952933E0,1.9938579E-1,-1.2569522E0,6.0442454E-1,2.2309582E0,-2.604329E0,5.430878E-1,4.219165E0,3.9610014E0,-1.1320236E0,-8.8679355E-1,5.163919E0,1.4813106E0,-1.6506661E0,4.1413882E-1,3.9167101E0,6.373919E0,4.081237E0,5.902085E-1,-3.778291E0,5.507354E-1,6.6161823E0,4.3279095E0,1.6076418E1,9.0868435E0,2.5094101E0],"categories":[],"categories_nodes":[],"categories_segments":[],"categories_sizes":[],"default_left":[0,0,0,0,0,0,0,0,0,0,0,0,0,0,0,0,0,0,0,0,0,0,0,0,0,0,0,0,0,0,0,0,0,0,0,0,0,0,0,0,0,0,0,0,0,0,0,0,0,0,0,0,0,0,0,0,0,0,0,0,0,0,0,0,0,0,0,0,0,0,0,0,0,0,0,0,0,0,0,0,0,0,0,0,0,0,0,0,0,0,0,0,0,0,0,0,0,0,0,0,0,0,0,0,0,0,0,0,0,0,0,0,0,0,0,0,0],"id":2,"left_children":[1,3,5,7,9,11,13,15,17,19,21,23,25,27,29,31,33,35,37,39,41,43,45,47,49,51,53,55,57,59,61,63,65,67,69,-1,71,73,75,77,-1,79,81,83,85,87,89,91,93,95,97,99,101,103,105,107,-1,109,111,113,-1,115,-1,-1,-1,-1,-1,-1,-1,-1,-1,-1,-1,-1,-1,-1,-1,-1,-1,-1,-1,-1,-1,-1,-1,-1,-1,-1,-1,-1,-1,-1,-1,-1,-1,-1,-1,-1,-1,-1,-1,-1,-1,-1,-1,-1,-1,-1,-1,-1,-1,-1,-1,-1,-1,-1,-1],"loss_changes":[1.0612789E5,1.7504355E4,2.5131945E4,1.7030312E3,3.284274E3,5.340576E3,7.81425E3,1.0293359E3,1.6951152E3,7.206294E2,2.0258977E3,3.099253E3,2.4872168E3,3.5312031E3,2.7853945E3,1.0949141E3,2.5624902E2,7.968843E2,8.962422E2,9.6698706E2,4.3996924E2,7.673093E2,1.8609141E3,2.0208022E3,7.4358105E2,2.933455E3,7.508928E2,1.692E3,7.6624835E2,6.067871E2,1.3581766E3,4.425879E1,1.2701465E3,2.2794824E2,6.874414E1,0E0,6.841448E1,7.3158594E2,2.2646498E2,7.775709E2,0E0,5.866128E2,2.7463208E2,8.5521277E2,1.8546907E3,1.1562809E3,5.3132983E2,1.3157529E3,1.4678854E3,4.5479248E2,2.3604102E2,2.3094824E3,1.6566632E3,1.1582168E3,9.2536255E1,1.9618047E3,0E0,3.1640457E2,9.626159E2,1.19115234E2,0E0,2.0984155E2,0E0,0E0,0E0,0E0,0E0,0E0,0E0,0E0,0E0,0E0,0E0,0E0,0E0,0E0,0E0,0E0,0E0,0E0,0E0,0E0,0E0,0E0,0E0,0E0,0E0,0E0,0E0,0E0,0E0,0E0,0E0,0E0,0E0,0E0,0E0,0E0,0E0,0E0,0E0,0E0,0E0,0E0,0E0,0E0,0E0,0E0,0E0,0E0,0E0,0E0,0E0,0E0,0E0,0E0,0E0],"parents":[2147483647,0,0,1,1,2,2,3,3,4,4,5,5,6,6,7,7,8,8,9,9,10,10,11,11,12,12,13,13,14,14,15,15,16,16,17,17,18,18,19,19,20,20,21,21,22,22,23,23,24,24,25,25,26,26,27,27,28,28,29,29,30,30,31,31,32,32,33,33,34,34,36,36,37,37,38,38,39,39,41,41,42,42,43,43,44,44,45,45,46,46,47,47,48,48,49,49,50,50,51,51,52,52,53,53,54,54,55,55,57,57,58,58,59,59,61,61],"right_children":[2,4,6,8,10,12,14,16,18,20,22,24,26,28,30,32,34,36,38,40,42,44,46,48,50,52,54,56,58,60,62,64,66,68,70,-1,72,74,76,78,-1,80,82,84,86,88,90,92,94,96,98,100,102,104,106,108,-1,110,112,114,-1,116,-1,-1,-1,-1,-1,-1,-1,-1,-1,-1,-1,-1,-1,-1,-1,-1,-1,-1,-1,-1,-1,-1,-1,-1,-1,-1,-1,-1,-1,-1,-1,-1,-1,-1,-1,-1,-1,-1,-1,-1,-1,-1,-1,-1,-1,-1,-1,-1,-1,-1,-1,-1,-1,-1,-1],"split_conditions":[3.9E1,2.2E1,6.8E1,1.6E1,2.8E1,5.5E1,1.04E2,2.7510208E2,6E0,1.9256622E2,2.3670511E1,1.865425E1,2.4218062E2,3.1427404E1,2.7558228E1,1.1103458E2,2.2828087E1,1.5709167E0,6.2E1,7.3E1,3.8E1,6.1000004E0,2.7719907E2,2.4782431E2,2.1197998E1,3.377291E1,1.9973E1,3.5497397E2,3.4E1,5.9E1,2.0507315E2,1.5797999E1,7.907833E0,1.5E1,2.4E1,6.4895205E0,3E0,2.0144087E2,3.7998337E1,8.8554596E1,5.817286E0,2.8749182E2,4.132833E0,7.462584E0,1.9023814E2,1.7706331E1,9.672999E0,5.5E1,3.7E1,5.4E1,3.2E1,8E1,4.7000003E0,1.5000001E0,1.1236671E1,1E-1,-4.342708E0,4.9E1,8.5E1,1E-1,9.072613E0,1.16E2,-2.3042154E0,-3.9438088E0,-2.5415637E0,-1.4766405E0,-2.991099E0,-3.22376E0,-8.0281883E-1,-4.4346104E0,-3.0593197E0,1.1091961E0,-1.1713839E0,-1.6189196E0,-2.5185776E0,-2.6057357E-1,2.6907E0,-1.6440008E0,-2.963327E-1,-1.0525659E0,-2.1745632E0,-3.922326E0,-1.9725717E0,9.509341E-1,-1.0992101E-1,9.198673E0,3.975516E-1,-5.099314E-1,1.7537358E0,-2.7052174E0,-9.621607E-1,1.5952933E0,1.9938579E-1,-1.2569522E0,6.0442454E-1,2.2309582E0,-2.604329E0,5.430878E-1,4.219165E0,3.9610014E0,-1.1320236E0,-8.8679355E-1,5.163919E0,1.4813106E0,-1.6506661E0,4.1413882E-1,3.9167101E0,6.373919E0,4.081237E0,5.902085E-1,-3.778291E0,5.507354E-1,6.6161823E0,4.3279095E0,1.6076418E1,9.0868435E0,2.5094101E0],"split_indices":[0,0,0,0,0,0,0,6,2,6,5,3,6,5,5,6,5,3,2,2,1,4,6,6,3,5,3,6,2,2,6,3,3,0,2,0,1,6,5,6,0,6,3,3,6,3,3,1,1,0,1,1,4,4,5,4,0,1,0,4,0,0,0,0,0,0,0,0,0,0,0,0,0,0,0,0,0,0,0,0,0,0,0,0,0,0,0,0,0,0,0,0,0,0,0,0,0,0,0,0,0,0,0,0,0,0,0,0,0,0,0,0,0,0,0,0,0],"split_type":[0,0,0,0,0,0,0,0,0,0,0,0,0,0,0,0,0,0,0,0,0,0,0,0,0,0,0,0,0,0,0,0,0,0,0,0,0,0,0,0,0,0,0,0,0,0,0,0,0,0,0,0,0,0,0,0,0,0,0,0,0,0,0,0,0,0,0,0,0,0,0,0,0,0,0,0,0,0,0,0,0,0,0,0,0,0,0,0,0,0,0,0,0,0,0,0,0,0,0,0,0,0,0,0,0,0,0,0,0,0,0,0,0,0,0,0,0],"sum_hessian":[2.981E3,1.842E3,1.139E3,7.62E2,1.08E3,9.4E2,1.99E2,3.67E2,3.95E2,4.19E2,6.61E2,6.57E2,2.83E2,1.74E2,2.5E1,2.69E2,9.8E1,5E0,3.9E2,1.61E2,2.58E2,3.03E2,3.58E2,5.63E2,9.4E1,2.01E2,8.2E1,1.55E2,1.9E1,2E1,5E0,6.2E1,2.07E2,2.9E1,6.9E1,2E0,3E0,3.78E2,1.2E1,1.6E2,1E0,2.1E2,4.8E1,2.93E2,1E1,2.88E2,7E1,3.7E2,1.93E2,6.4E1,3E1,1.76E2,2.5E1,7.2E1,1E1,1.54E2,1E0,5E0,1.4E1,7E0,1.3E1,3E0,2E0,5.2E1,1E1,9.8E1,1.09E2,2.4E1,5E0,5.4E1,1.5E1,1E0,2E0,1.35E2,2.43E2,1E1,2E0,6.4E1,9.6E1,1.5E2,6E1,9E0,3.9E1,1.07E2,1.86E2,2E0,8E0,2.67E2,2.1E1,4.3E1,2.7E1,2.93E2,7.7E1,5.1E1,1.42E2,6.3E1,1E0,2E0,2.8E1,1.68E2,8E0,2.1E1,4E0,6E1,1.2E1,1E0,9E0,6.9E1,8.5E1,2E0,3E0,1.2E1,2E0,1E0,6E0,1E0,2E0],"tree_param":{"num_deleted":"0","num_feature":"7","num_nodes":"117","size_leaf_vector":"1"}},{"base_weights":[5.186969E-2,-3.7158058E0,4.8569818E0,-6.2128043E0,-2.1807945E0,3.9569376E0,1.795695E1,-5.9560046E0,-1.1032413E1,-1.6498096E-1,-3.0165958E0,2.4194489E0,7.13349E0,2.4974466E1,1.1320112E1,-5.2684155E0,-8.125433E0,-6.4373505E-1,-3.3771324E0,-4.8380327E-1,1.3476855E1,-2.50974E0,-5.9910173E0,3.2706115E0,-6.030734E-1,8.726011E0,3.2536843E0,3.777904E1,1.9446972E1,5.5965567E0,2.8502323E1,-7.8675704E0,-4.47464E0,-6.5239577E0,-9.919237E0,-6.5069026E-1,1.1986786E1,1.0554335E1,3.9959595E0,-3.8878107E0,-1.1964296E0,-9.835314E0,-5.0384088E0,3.7255116E0,-3.205788E0,4.5884094E0,-2.1820145E0,1.1457372E-1,9.784901E0,5.6663976E0,-9.32842E-1,8.681305E-1,1.2293458E1,1.3731265E1,8.851579E0,8.025984E0,-6.897799E0,-1.9548936E0,3.265582E1,-1.456319E0,-2.5904446E0,1.9607739E-1,-1.6601039E0,-2.1511075E0,-1.0591828E0,-3.9699147E0,-2.7047622E0,-4.239703E-1,3.0090076E-1,4.4472256E0,5.212332E-1,-1.3003025E0,2.773409E0,-1.222303E0,4.8930254E0,-2.4928391E-1,-1.9238579E0,-4.0398848E-1,-3.3762312E0,-2.800485E0,-1.2040932E0,1.0254837E0,3.0527883E0,-2.564163E0,1.0092622E0,1.3486311E-1,2.6708872E0,-2.8202288E0,-1.8626916E-1,-6.4858437E-1,3.8520539E0,3.73921E0,1.7746234E0,1.0405183E0,4.0664277E0,-2.0253952E0,1.2591575E0,2.30456E0,5.5597105E0,-2.341494E0,3.3395073E0,2.7986023E0,1.0263362E1],"categories":[],"categories_nodes":[],"categories_segments":[],"categories_sizes":[],"default_left":[0,0,0,0,0,0,0,0,0,0,0,0,0,0,0,0,0,0,0,0,0,0,0,0,0,0,0,0,0,0,0,0,0,0,0,0,0,0,0,0,0,0,0,0,0,0,0,0,0,0,0,0,0,0,0,0,0,0,0,0,0,0,0,0,0,0,0,0,0,0,0,0,0,0,0,0,0,0,0,0,0,0,0,0,0,0,0,0,0,0,0,0,0,0,0,0,0,0,0,0,0,0,0],"id":3,"left_children":[1,3,5,7,9,11,13,15,17,19,21,23,25,27,29,31,33,-1,-1,35,37,39,41,43,45,47,49,51,53,55,57,59,61,63,65,67,69,-1,71,73,75,77,79,81,83,85,87,89,91,93,95,-1,-1,97,-1,99,-1,-1,101,-1,-1,-1,-1,-1,-1,-1,-1,-1,-1,-1,-1,-1,-1,-1,-1,-1,-1,-1,-1,-1,-1,-1,-1,-1,-1,-1,-1,-1,-1,-1,-1,-1,-1,-1,-1,-1,-1,-1,-1,-1,-1,-1,-1],"loss_changes":[5.400448E4,6.3950957E3,1.5386352E4,7.214531E2,1.7466597E3,5.9801855E3,3.6295137E3,8.611465E2,3.7744873E1,1.3330631E3,1.0900371E3,2.1347056E3,2.4430781E3,2.0964023E3,4.2659355E3,9.200322E2,3.4896094E2,0E0,0E0,6.3007227E2,1.2998485E3,1.1319246E3,3.386289E2,1.9180791E3,1.5100713E3,2.5794297E3,1.1971906E3,1.1090527E3,1.3195615E3,2.6154785E3,1.8127432E3,2.054497E2,1.9424844E3,1.2754175E2,7.8268555E1,3.746775E2,9.0565796E1,0E0,3.02411E2,1.2193271E3,6.104766E2,2.2571826E2,3.455891E2,1.1641973E3,1.5377584E3,7.638631E2,1.5831362E3,9.548035E2,2.5387227E3,1.2533848E3,1.3416913E3,0E0,0E0,4.6755615E2,0E0,1.7093718E3,0E0,0E0,4.3680664E1,0E0,0E0,0E0,0E0,0E0,0E0,0E0,0E0,0E0,0E0,0E0,0E0,0E0,0E0,0E0,0E0,0E0,0E0,0E0,0E0,0E0,0E0,0E0,0E0,0E0,0E0,0E0,0E0,0E0,0E0,0E0,0E0,0E0,0E0,0E0,0E0,0E0,0E0,0E0,0E0,0E0,0E0,0E0,0E0],"parents":[2147483647,0,0,1,1,2,2,3,3,4,4,5,5,6,6,7,7,8,8,9,9,10,10,11,11,12,12,13,13,14,14,15,15,16,16,19,19,20,20,21,21,22,22,23,23,24,24,25,25,26,26,27,27,28,28,29,29,30,30,31,31,32,32,33,33,34,34,35,35,36,36,38,38,39,39,40,40,41,41,42,42,43,43,44,44,45,45,46,46,47,47,48,48,49,49,50,50,53,53,55,55,58,58],"right_children":[2,4,6,8,10,12,14,16,18,20,22,24,26,28,30,32,34,-1,-1,36,38,40,42,44,46,48,50,52,54,56,58,60,62,64,66,68,70,-1,72,74,76,78,80,82,84,86,88,90,92,94,96,-1,-1,98,-1,100,-1,-1,102,-1,-1,-1,-1,-1,-1,-1,-1,-1,-1,-1,-1,-1,-1,-1,-1,-1,-1,-1,-1,-1,-1,-1,-1,-1,-1,-1,-1,-1,-1,-1,-1,-1,-1,-1,-1,-1,-1,-1,-1,-1,-1,-1,-1],"split_conditions":[3.6E1,2E1,8.1E1,9.400001E0,2.0211363E1,5.5E1,1.8462894E2,2.8196155E2,7E0,7.5E0,4.4E1,3.167386E1,2.4110652E2,6.7E1,3.0827615E2,1.1103458E2,2.5812277E1,-6.4373505E-1,-3.3771324E0,7.6E1,9.400001E0,2.7E1,2.6E1,6.5E1,2.0672841E2,6.866827E1,2.5959969E1,2.6E1,1.5165846E2,3.001305E2,1.3063333E0,1.7731598E1,1.674181E2,1.655425E1,1.1E1,3.1E1,3.4E1,1.0554335E1,2.4E1,7.3E1,9.599999E0,2.1E1,2.2065973E1,2.1512583E1,2.2932877E1,3.5188046E1,2.4E1,8.745915E0,5.9E1,6.3E1,2.9951483E1,8.681305E-1,1.2293458E1,8.9E1,8.851579E0,2.8E1,-6.897799E0,-1.9548936E0,8.9E1,-1.456319E0,-2.5904446E0,1.9607739E-1,-1.6601039E0,-2.1511075E0,-1.0591828E0,-3.9699147E0,-2.7047622E0,-4.239703E-1,3.0090076E-1,4.4472256E0,5.212332E-1,-1.3003025E0,2.773409E0,-1.222303E0,4.8930254E0,-2.4928391E-1,-1.9238579E0,-4.0398848E-1,-3.3762312E0,-2.800485E0,-1.2040932E0,1.0254837E0,3.0527883E0,-2.564163E0,1.0092622E0,1.3486311E-1,2.6708872E0,-2.8202288E0,-1.8626916E-1,-6.4858437E-1,3.8520539E0,3.73921E0,1.7746234E0,1.0405183E0,4.0664277E0,-2.0253952E0,1.2591575E0,2.30456E0,5.5597105E0,-2.341494E0,3.3395073E0,2.7986023E0,1.0263362E1],"split_indices":[0,0,0,4,5,0,6,6,2,4,1,5,6,1,6,6,5,0,0,2,4,0,0,1,6,6,5,2,6,6,3,5,6,3,2,0,0,0,2,2,4,0,5,3,5,5,2,3,1,2,5,0,0,0,0,2,0,0,0,0,0,0,0,0,0,0,0,0,0,0,0,0,0,0,0,0,0,0,0,0,0,0,0,0,0,0,0,0,0,0,0,0,0,0,0,0,0,0,0,0,0,0,0],"split_type":[0,0,0,0,0,0,0,0,0,0,0,0,0,0,0,0,0,0,0,0,0,0,0,0,0,0,0,0,0,0,0,0,0,0,0,0,0,0,0,0,0,0,0,0,0,0,0,0,0,0,0,0,0,0,0,0,0,0,0,0,0,0,0,0,0,0,0,0,0,0,0,0,0,0,0,0,0,0,0,0,0,0,0,0,0,0,0,0,0,0,0,0,0,0,0,0,0,0,0,0,0,0,0],"sum_hessian":[2.981E3,1.671E3,1.31E3,6.35E2,1.036E3,1.227E3,8.3E1,6.05E2,3E1,3.04E2,7.32E2,8.28E2,3.99E2,3.9E1,4.4E1,4.62E2,1.43E2,1E0,2.9E1,2.98E2,6E0,6.27E2,1.05E2,6.46E2,1.82E2,2.82E2,1.17E2,1E1,2.9E1,3.4E1,1E1,1.06E2,3.56E2,7.8E1,6.5E1,2.95E2,3E0,1E0,5E0,3.05E2,3.22E2,1.9E1,8.6E1,6.04E2,4.2E1,4.2E1,1.4E2,3.1E1,2.51E2,7.4E1,4.3E1,1E0,9E0,2E1,9E0,3.2E1,2E0,1E0,9E0,2.3E1,8.3E1,6.1E1,2.95E2,6.3E1,1.5E1,1.1E1,5.4E1,2.02E2,9.3E1,2E0,1E0,2E0,3E0,3.03E2,2E0,3.02E2,2E1,3E0,1.6E1,1.5E1,7.1E1,5.78E2,2.6E1,2.3E1,1.9E1,2.2E1,2E1,2.4E1,1.16E2,2.7E1,4E0,1.47E2,1.04E2,5.9E1,1.5E1,2E1,2.3E1,1E1,1E1,5E0,2.7E1,1E0,8E0],"tree_param":{"num_deleted":"0","num_feature":"7","num_nodes":"103","size_leaf_vector":"1"}},{"base_weights":[5.0271045E-2,-2.18484E0,4.1169424E0,-3.690013E0,-4.8432457E-1,2.8443217E0,9.5622635E0,-4.767119E0,-2.609907E0,4.6264154E-1,-1.7879279E0,3.2041118E0,-2.372027E0,8.164748E0,1.8600838E1,-4.869533E0,4.6472297E0,-1.6081902E0,-4.2572618E0,-4.512406E0,9.2712075E-1,1.37914205E-2,-3.2707486E0,4.0918427E0,1.2090013E0,2.6109986E0,-5.212902E0,-4.467849E0,8.796656E0,2.3227663E1,7.280426E0,-7.5785975E0,-4.5351105E0,-2.1084886E0,8.387994E0,1.3458341E1,-1.74527E0,-2.110292E0,-5.9631414E0,-4.1585013E-1,-8.079565E0,1.211178E0,-5.054399E0,1.9217457E0,-1.7265822E0,-8.361501E0,-2.4695847E0,-8.4628063E-1,4.646605E0,4.6052238E-1,7.346105E0,1.0991555E1,-6.948974E-1,-7.306857E0,4.5058923E0,5.394872E-1,-1.0861891E1,1.1718604E1,5.975111E0,2.667973E1,8.916349E0,9.190938E-1,5.909018E0,1.6907245E-1,-2.42058E0,7.3018336E-1,-1.4143384E0,3.2647052E0,-2.3841478E-1,5.0498414E0,1.0064124E0,-3.580275E-1,-1.6029799E0,-8.9493626E-1,9.2627686E-1,-1.5680948E0,-2.8658948E0,5.374456E-1,-1.1409832E0,-5.787493E-1,-2.8789668E0,1.5263454E0,2.1460295E-1,-2.2816868E0,4.4970736E-1,1.1634656E0,-1.0052146E0,2.4042015E-1,-1.3335423E0,-3.92265E0,-1.7466378E0,-3.9846203E-1,-1.3366559E0,4.9627805E0,-6.3560224E-1,-1.8262631E0,1.456728E0,-2.0218956E0,2.815023E-1,2.5223548E0,2.978579E-1,4.5722055E0,4.9865916E-1,2.1731083E0,-1.4885597E0,-2.6744246E0,7.546644E-1,4.259393E-1,2.4442258E0,-6.681175E-1,1.2145157E0,1.9283696E-1,-4.473315E0,4.095903E0,1.6498499E-1,-1.1621162E0,2.235471E0,8.464296E0,1.0095057E0,3.1187527E0,4.497574E-1,1.9716128E0,-1.4890885E0],"categories":[],"categories_nodes":[],"categories_segments":[],"categories_sizes":[],"default_left":[0,0,0,0,0,0,0,0,0,0,0,0,0,0,0,0,0,0,0,0,0,0,0,0,0,0,0,0,0,0,0,0,0,0,0,0,0,0,0,0,0,0,0,0,0,0,0,0,0,0,0,0,0,0,0,0,0,0,0,0,0,0,0,0,0,0,0,0,0,0,0,0,0,0,0,0,0,0,0,0,0,0,0,0,0,0,0,0,0,0,0,0,0,0,0,0,0,0,0,0,0,0,0,0,0,0,0,0,0,0,0,0,0,0,0,0,0,0,0,0,0,0,0],"id":4,"left_children":[1,3,5,7,9,11,13,15,17,19,21,23,25,27,29,31,33,35,37,39,41,43,45,47,49,51,53,55,57,59,61,63,65,-1,67,69,71,73,75,77,79,81,83,85,87,89,91,93,95,97,99,101,103,105,107,109,111,113,115,117,119,121,-1,-1,-1,-1,-1,-1,-1,-1,-1,-1,-1,-1,-1,-1,-1,-1,-1,-1,-1,-1,-1,-1,-1,-1,-1,-1,-1,-1,-1,-1,-1,-1,-1,-1,-1,-1,-1,-1,-1,-1,-1,-1,-1,-1,-1,-1,-1,-1,-1,-1,-1,-1,-1,-1,-1,-1,-1,-1,-1,-1,-1],"loss_changes":[2.7113771E4,4.925384E3,7.3045605E3,1.1753789E3,1.1180208E3,1.6197632E3,2.3744375E3,5.143506E2,8.3804736E2,1.2173567E3,1.01793494E3,1.4190352E3,8.063554E2,1.4362637E3,1.192709E3,4.2314648E2,3.2100555E2,6.843903E2,6.9427295E2,6.542279E2,8.2338586E2,5.7777374E2,8.317627E2,1.5270859E3,1.1403967E3,5.8944824E2,7.655499E2,2.9401392E2,1.3067969E3,6.513799E2,6.927548E2,2.1998999E2,5.7643066E2,0E0,1.2317313E2,4.5813904E1,6.2502386E2,4.039175E2,2.3283496E2,1.7131165E2,2.054093E2,8.8056E2,3.7922437E2,8.691753E2,6.2895703E2,2.5904968E2,4.0662195E2,1.2962018E3,1.1521084E3,7.735283E2,1.7378137E2,2.1251685E2,5.7792163E2,4.962262E2,6.7099E1,6.7261154E1,1.9592166E2,1.7424707E3,1.2939666E3,4.05958E2,3.9282776E1,2.6540424E2,0E0,0E0,0E0,0E0,0E0,0E0,0E0,0E0,0E0,0E0,0E0,0E0,0E0,0E0,0E0,0E0,0E0,0E0,0E0,0E0,0E0,0E0,0E0,0E0,0E0,0E0,0E0,0E0,0E0,0E0,0E0,0E0,0E0,0E0,0E0,0E0,0E0,0E0,0E0,0E0,0E0,0E0,0E0,0E0,0E0,0E0,0E0,0E0,0E0,0E0,0E0,0E0,0E0,0E0,0E0,0E0,0E0,0E0,0E0,0E0,0E0],"parents":[2147483647,0,0,1,1,2,2,3,3,4,4,5,5,6,6,7,7,8,8,9,9,10,10,11,11,12,12,13,13,14,14,15,15,16,16,17,17,18,18,19,19,20,20,21,21,22,22,23,23,24,24,25,25,26,26,27,27,28,28,29,29,30,30,31,31,32,32,34,34,35,35,36,36,37,37,38,38,39,39,40,40,41,41,42,42,43,43,44,44,45,45,46,46,47,47,48,48,49,49,50,50,51,51,52,52,53,53,54,54,55,55,56,56,57,57,58,58,59,59,60,60,61,61],"right_children":[2,4,6,8,10,12,14,16,18,20,22,24,26,28,30,32,34,36,38,40,42,44,46,48,50,52,54,56,58,60,62,64,66,-1,68,70,72,74,76,78,80,82,84,86,88,90,92,94,96,98,100,102,104,106,108,110,112,114,116,118,120,122,-1,-1,-1,-1,-1,-1,-1,-1,-1,-1,-1,-1,-1,-1,-1,-1,-1,-1,-1,-1,-1,-1,-1,-1,-1,-1,-1,-1,-1,-1,-1,-1,-1,-1,-1,-1,-1,-1,-1,-1,-1,-1,-1,-1,-1,-1,-1,-1,-1,-1,-1,-1,-1,-1,-1,-1,-1,-1,-1,-1,-1],"split_conditions":[4.1E1,2.6E1,6.8E1,1.8E1,2.4019646E2,7.0999994E0,1.04E2,7.8E1,9.000001E-1,4.9887104E1,2E-1,2.4875948E2,1.7862224E2,2.2E1,1.12E2,8E0,1.1E1,6E0,2.8277763E1,1.9201874E1,6E1,2.9505463E2,2E1,7.156497E1,1.9270916E1,7.7479997E0,1.748133E1,2.1E1,6.6E1,1.3645917E1,1.7E0,3E0,6E0,-2.1084886E0,4.6E1,2E1,3.1219125E2,2.6901417E1,2.5E1,4.2E1,-3.0165837E0,2.048E0,2.8E0,1.2745915E1,2.167786E1,2.5139551E2,3.3549606E1,2.7E1,1.1236671E1,1.6604999E0,6.1E1,1.52982E2,2.000512E1,2.6344513E2,5E1,9.000001E-1,3.4E1,2.5E0,9.1942345E1,3.4679794E1,1.03E2,1.25347534E2,5.909018E0,1.6907245E-1,-2.42058E0,7.3018336E-1,-1.4143384E0,3.2647052E0,-2.3841478E-1,5.0498414E0,1.0064124E0,-3.580275E-1,-1.6029799E0,-8.9493626E-1,9.2627686E-1,-1.5680948E0,-2.8658948E0,5.374456E-1,-1.1409832E0,-5.787493E-1,-2.8789668E0,1.5263454E0,2.1460295E-1,-2.2816868E0,4.4970736E-1,1.1634656E0,-1.0052146E0,2.4042015E-1,-1.3335423E0,-3.92265E0,-1.7466378E0,-3.9846203E-1,-1.3366559E0,4.9627805E0,-6.3560224E-1,-1.8262631E0,1.456728E0,-2.0218956E0,2.815023E-1,2.5223548E0,2.978579E-1,4.5722055E0,4.9865916E-1,2.1731083E0,-1.4885597E0,-2.6744246E0,7.546644E-1,4.259393E-1,2.4442258E0,-6.681175E-1,1.2145157E0,1.9283696E-1,-4.473315E0,4.095903E0,1.6498499E-1,-1.1621162E0,2.235471E0,8.464296E0,1.0095057E0,3.1187527E0,4.497574E-1,1.9716128E0,-1.4890885E0],"split_indices":[0,0,0,0,6,4,0,2,4,6,4,6,6,2,1,0,0,2,5,5,1,6,2,6,3,3,3,2,1,3,4,0,1,0,1,0,6,5,0,2,3,3,4,3,5,6,5,1,5,3,0,6,5,6,0,4,1,4,6,5,1,6,0,0,0,0,0,0,0,0,0,0,0,0,0,0,0,0,0,0,0,0,0,0,0,0,0,0,0,0,0,0,0,0,0,0,0,0,0,0,0,0,0,0,0,0,0,0,0,0,0,0,0,0,0,0,0,0,0,0,0,0,0],"split_type":[0,0,0,0,0,0,0,0,0,0,0,0,0,0,0,0,0,0,0,0,0,0,0,0,0,0,0,0,0,0,0,0,0,0,0,0,0,0,0,0,0,0,0,0,0,0,0,0,0,0,0,0,0,0,0,0,0,0,0,0,0,0,0,0,0,0,0,0,0,0,0,0,0,0,0,0,0,0,0,0,0,0,0,0,0,0,0,0,0,0,0,0,0,0,0,0,0,0,0,0,0,0,0,0,0,0,0,0,0,0,0,0,0,0,0,0,0,0,0,0,0,0,0],"sum_hessian":[2.981E3,1.924E3,1.057E3,1.02E3,9.04E2,8.58E2,1.99E2,5.09E2,5.11E2,5.24E2,3.8E2,8.03E2,5.5E1,1.74E2,2.5E1,5.04E2,5E0,3.19E2,1.92E2,4.4E1,4.8E2,1.72E2,2.08E2,5.55E2,2.48E2,2E1,3.5E1,8E0,1.66E2,1.7E1,8E0,5.3E1,4.51E2,1E0,4E0,2E0,3.17E2,8.6E1,1.06E2,2.1E1,2.3E1,4.59E2,2.1E1,8.2E1,9E1,2.7E1,1.81E2,5.6E1,4.99E2,2.22E2,2.6E1,5E0,1.5E1,2.9E1,6E0,5E0,3E0,8E1,8.6E1,1.3E1,4E0,6E0,2E0,3E0,5E1,1.1E1,4.4E2,3E0,1E0,1E0,1E0,2.76E2,4.1E1,7.4E1,1.2E1,9E1,1.6E1,1.3E1,8E0,5E0,1.8E1,5.1E1,4.08E2,1.5E1,6E0,6E1,2.2E1,4.7E1,4.3E1,8E0,1.9E1,1.16E2,6.5E1,3E0,5.3E1,9E0,4.9E2,1.3E1,2.09E2,2.2E1,4E0,3E0,2E0,5E0,1E1,2.5E1,4E0,4E0,2E0,3E0,2E0,1E0,2E0,6.8E1,1.2E1,1.1E1,7.5E1,1.2E1,1E0,3E0,1E0,3E0,3E0],"tree_param":{"num_deleted":"0","num_feature":"7","num_nodes":"123","size_leaf_vector":"1"}},{"base_weights":[4.121283E-2,-1.2157435E0,3.906469E0,-2.516172E0,3.812672E-2,3.1347628E0,9.822313E0,-2.0695076E0,-4.0674534E0,-2.578408E0,6.136682E-1,7.183609E0,2.6640809E0,1.4862434E1,5.1239324E0,-9.6604866E-1,-3.0047767E0,-6.5562453E0,-3.3665597E0,-1.1124933E0,-5.1435847E0,9.551937E-1,-2.882076E0,8.773772E0,1.566603E0,-3.3253908E0,2.9950204E0,2.3734585E1,1.1521017E1,1.4216667E0,1.6438057E1,-3.659609E0,5.6743514E-2,-3.3305817E0,1.8304133E0,-1.8663656E0,-7.2293496E0,-2.9934497E0,-7.949868E0,-1.831203E0,8.993196E0,3.9099016E0,-5.575117E0,1.7822629E0,-4.1343972E-1,-1.6366719E0,-8.501823E0,2.0894446E0,1.1427164E1,7.3394184E0,-3.7388556E0,-9.894673E0,2.6666462E0,4.026553E0,7.9922616E-1,1.2352524E-1,2.628026E1,6.7231736E0,9.077727E0,3.3718815E0,-6.151376E0,-1.9969798E0,1.9413183E1,-1.4832565E0,-5.1683444E-1,1.7332988E0,-2.7488223E-1,-1.0220066E0,2.636917E0,1.4117868E0,-2.4616936E-2,-2.0122776E0,1.3955278E0,-1.4585483E0,-2.49899E0,-6.472784E-1,-1.5793546E0,-2.530765E0,-2.4475165E-1,1.2495513E0,-7.514538E-1,8.00455E-1,8.938994E0,-1.5781478E0,2.616059E0,-3.3969562E0,-1.3058863E0,9.930837E-1,1.3808487E-1,1.084043E0,-3.380596E-1,-6.6702276E-1,2.580104E0,-3.7779646E0,6.5988123E-1,2.419853E0,-4.081621E-1,5.0871296E0,1.7636594E0,-1.0449234E0,2.8149216E0,-3.6577272E0,1.254673E-1,6.888771E-1,-3.5840511E0,1.237494E0,-3.100005E0,2.7566501E-1,1.483491E0,-1.0821952E-1,1.8308421E0,3.936541E0,9.2017565E0,-1.6791047E0,3.142676E0,2.2980337E0,-3.344085E-1,7.7315865E0,3.2636027E0],"categories":[],"categories_nodes":[],"categories_segments":[],"categories_sizes":[],"default_left":[0,0,0,0,0,0,0,0,0,0,0,0,0,0,0,0,0,0,0,0,0,0,0,0,0,0,0,0,0,0,0,0,0,0,0,0,0,0,0,0,0,0,0,0,0,0,0,0,0,0,0,0,0,0,0,0,0,0,0,0,0,0,0,0,0,0,0,0,0,0,0,0,0,0,0,0,0,0,0,0,0,0,0,0,0,0,0,0,0,0,0,0,0,0,0,0,0,0,0,0,0,0,0,0,0,0,0,0,0,0,0,0,0,0,0,0,0,0,0],"id":5,"left_children":[1,3,5,7,9,11,13,15,17,19,21,23,25,27,29,31,33,35,37,39,41,43,45,47,49,51,53,55,57,59,61,63,65,67,69,71,73,75,77,79,81,83,85,87,89,91,93,95,97,99,101,103,105,107,109,-1,111,-1,113,115,-1,-1,117,-1,-1,-1,-1,-1,-1,-1,-1,-1,-1,-1,-1,-1,-1,-1,-1,-1,-1,-1,-1,-1,-1,-1,-1,-1,-1,-1,-1,-1,-1,-1,-1,-1,-1,-1,-1,-1,-1,-1,-1,-1,-1,-1,-1,-1,-1,-1,-1,-1,-1,-1,-1,-1,-1,-1,-1],"loss_changes":[1.4492673E4,3.6705059E3,3.311005E3,7.5723975E2,1.7288774E3,1.2176729E3,1.9130005E3,8.8464404E2,4.0704517E2,7.72666E2,1.1261993E3,5.8469604E2,1.1655552E3,9.12376E2,1.8615858E3,1.0911688E3,7.38624E2,1.5381665E2,3.0795752E2,9.8245483E2,3.1481396E2,9.7195386E2,5.739892E2,8.984026E2,5.174799E2,1.2466506E3,1.2493457E3,5.8290283E2,6.2135986E2,1.5657706E3,8.8503E2,2.6267517E2,1.6084614E3,4.3212646E2,1.6536783E2,2.8364783E2,7.936499E1,3.3223035E2,4.165912E1,5.1536E2,1.1047358E3,2.2232175E2,4.5651636E2,1.07918E3,9.348931E2,4.3957297E2,6.8445605E2,3.408885E2,1.0355356E3,2.0962149E2,3.213786E2,4.026996E2,3.6491656E2,1.0686108E3,1.0972451E3,0E0,1.1767969E2,0E0,6.124895E2,6.434413E2,0E0,0E0,2.623252E2,0E0,0E0,0E0,0E0,0E0,0E0,0E0,0E0,0E0,0E0,0E0,0E0,0E0,0E0,0E0,0E0,0E0,0E0,0E0,0E0,0E0,0E0,0E0,0E0,0E0,0E0,0E0,0E0,0E0,0E0,0E0,0E0,0E0,0E0,0E0,0E0,0E0,0E0,0E0,0E0,0E0,0E0,0E0,0E0,0E0,0E0,0E0,0E0,0E0,0E0,0E0,0E0,0E0,0E0,0E0,0E0],"parents":[2147483647,0,0,1,1,2,2,3,3,4,4,5,5,6,6,7,7,8,8,9,9,10,10,11,11,12,12,13,13,14,14,15,15,16,16,17,17,18,18,19,19,20,20,21,21,22,22,23,23,24,24,25,25,26,26,27,27,28,28,29,29,30,30,31,31,32,32,33,33,34,34,35,35,36,36,37,37,38,38,39,39,40,40,41,41,42,42,43,43,44,44,45,45,46,46,47,47,48,48,49,49,50,50,51,51,52,52,53,53,54,54,56,56,58,58,59,59,62,62],"right_children":[2,4,6,8,10,12,14,16,18,20,22,24,26,28,30,32,34,36,38,40,42,44,46,48,50,52,54,56,58,60,62,64,66,68,70,72,74,76,78,80,82,84,86,88,90,92,94,96,98,100,102,104,106,108,110,-1,112,-1,114,116,-1,-1,118,-1,-1,-1,-1,-1,-1,-1,-1,-1,-1,-1,-1,-1,-1,-1,-1,-1,-1,-1,-1,-1,-1,-1,-1,-1,-1,-1,-1,-1,-1,-1,-1,-1,-1,-1,-1,-1,-1,-1,-1,-1,-1,-1,-1,-1,-1,-1,-1,-1,-1,-1,-1,-1,-1,-1,-1],"split_conditions":[4.8E1,2.7E1,8.1E1,3.377291E1,2.3E1,1.5546833E1,1.8462894E2,9.022418E0,1.3E1,2.8E1,5.8E1,6.1E1,6.1699326E1,6.6E1,3.0827615E2,9.9883514E1,1.9089666E1,6E0,3.08887E2,7.3E0,1.3493999E1,2.4782431E2,3.399475E1,3.3E1,6.2E1,5.14175E0,2.4401385E2,2.6E1,1.6595179E1,3.001305E2,1.3063333E0,2E-1,1.4822366E2,7.6E1,2.1E1,5E0,3.60072E1,5.7999997E0,2.1E0,9E0,2.7E1,3.3E1,1.8947083E1,1.0695915E1,1.7057314E1,8.3E1,4.0121838E1,2.1E1,8.137E0,4.9E1,6.6E1,4.3E1,6.9E1,2.0447239E1,1.8503666E1,1.2352524E-1,4.5E1,6.7231736E0,1.7610588E1,4E-1,-6.151376E0,-1.9969798E0,4.8E1,-1.4832565E0,-5.1683444E-1,1.7332988E0,-2.7488223E-1,-1.0220066E0,2.636917E0,1.4117868E0,-2.4616936E-2,-2.0122776E0,1.3955278E0,-1.4585483E0,-2.49899E0,-6.472784E-1,-1.5793546E0,-2.530765E0,-2.4475165E-1,1.2495513E0,-7.514538E-1,8.00455E-1,8.938994E0,-1.5781478E0,2.616059E0,-3.3969562E0,-1.3058863E0,9.930837E-1,1.3808487E-1,1.084043E0,-3.380596E-1,-6.6702276E-1,2.580104E0,-3.7779646E0,6.5988123E-1,2.419853E0,-4.081621E-1,5.0871296E0,1.7636594E0,-1.0449234E0,2.8149216E0,-3.6577272E0,1.254673E-1,6.888771E-1,-3.5840511E0,1.237494E0,-3.100005E0,2.7566501E-1,1.483491E0,-1.0821952E-1,1.8308421E0,3.936541E0,9.2017565E0,-1.6791047E0,3.142676E0,2.2980337E0,-3.344085E-1,7.7315865E0,3.2636027E0],"split_indices":[0,0,0,5,2,5,6,3,2,1,1,2,6,1,6,6,3,2,6,4,5,6,5,2,1,3,6,2,5,6,3,4,6,2,2,2,5,4,4,2,1,0,5,3,5,1,5,2,3,0,1,1,0,5,3,0,2,0,5,4,0,0,2,0,0,0,0,0,0,0,0,0,0,0,0,0,0,0,0,0,0,0,0,0,0,0,0,0,0,0,0,0,0,0,0,0,0,0,0,0,0,0,0,0,0,0,0,0,0,0,0,0,0,0,0,0,0,0,0],"split_type":[0,0,0,0,0,0,0,0,0,0,0,0,0,0,0,0,0,0,0,0,0,0,0,0,0,0,0,0,0,0,0,0,0,0,0,0,0,0,0,0,0,0,0,0,0,0,0,0,0,0,0,0,0,0,0,0,0,0,0,0,0,0,0,0,0,0,0,0,0,0,0,0,0,0,0,0,0,0,0,0,0,0,0,0,0,0,0,0,0,0,0,0,0,0,0,0,0,0,0,0,0,0,0,0,0,0,0,0,0,0,0,0,0,0,0,0,0,0,0],"sum_hessian":[2.981E3,2.25E3,7.31E2,1.104E3,1.146E3,6.48E2,8.3E1,8.59E2,2.45E2,2.06E2,9.4E2,6.6E1,5.82E2,3.9E1,4.4E1,3.95E2,4.64E2,5.2E1,1.93E2,1.32E2,7.4E1,8.57E2,8.3E1,5.1E1,1.5E1,3E1,5.52E2,9E0,3E1,3.4E1,1E1,1.08E2,2.87E2,4.35E2,2.9E1,7E0,4.5E1,1.8E2,1.3E1,1.24E2,8E0,3E0,7.1E1,5.34E2,3.23E2,6.9E1,1.4E1,1.5E1,3.6E1,7E0,8E0,1.4E1,1.6E1,3.75E2,1.77E2,1E0,8E0,4E0,2.6E1,3.2E1,2E0,1E0,9E0,6.4E1,4.4E1,4.1E1,2.46E2,4.33E2,2E0,1.1E1,1.8E1,4E0,3E0,1.6E1,2.9E1,1.33E2,4.7E1,1.2E1,1E0,1.2E1,1.12E2,7E0,1E0,1E0,2E0,1.1E1,6E1,2.47E2,2.87E2,4.8E1,2.75E2,6.6E1,3E0,1E1,4E0,5E0,1E1,1.7E1,1.9E1,1E0,6E0,2E0,6E0,2E0,1.2E1,1.5E1,1E0,8.6E1,2.89E2,1.46E2,3.1E1,3E0,5E0,2E0,2.4E1,1.6E1,1.6E1,4E0,5E0],"tree_param":{"num_deleted":"0","num_feature":"7","num_nodes":"119","size_leaf_vector":"1"}},{"base_weights":[3.9651196E-2,-1.3888388E0,1.8614633E0,-2.673291E0,-9.2082375E-1,1.4447865E0,6.948003E0,-1.8587351E0,-3.5016131E0,-1.09427646E-1,-1.4882E0,1.9753597E0,-9.3257076E-1,4.6019554E0,1.1297741E1,-2.0973315E0,1.1967348E1,-1.339866E0,-4.679616E0,-2.0212877E0,1.3564909E0,-2.1912852E-1,-2.0660045E0,-2.0121734E0,2.2849438E0,-6.80295E-1,-1.1745281E1,1.189942E1,2.9261098E0,1.2458758E1,-5.245762E-1,-3.4948447E0,-3.915328E-1,5.635598E-1,4.4112325E0,2.0724098E1,-2.4834974E0,-4.8851385E0,1.9287331E0,-2.354707E0,2.3769798E0,3.1069489E0,3.141954E-1,1.2753408E0,-1.907088E0,5.5865545E0,-2.1869748E0,2.5075796E0,-5.4907084E0,2.4909585E0,-3.1628733E0,-4.1929457E-2,-4.8392315E0,-4.239872E0,-3.2921734E-1,1.40099325E1,-1.697433E0,4.6145225E0,-2.8837252E0,8.370576E0,1.8234165E1,-2.9747773E-2,-1.8999863E-1,3.0363833E-3,-1.1727481E0,4.22217E0,-2.4647413E-1,7.9661614E-1,1.1239534E1,-4.4276375E-1,-1.6944824E0,-1.8044691E0,-1.0901093E0,8.321261E-1,1.3224049E-1,-2.5035167E-1,-1.09037E0,3.6419675E0,-9.4930035E-1,1.5704783E0,-2.2128083E-1,3.3473313E-1,-1.177702E0,-1.0138135E0,6.364789E-1,1.2319283E0,-7.303523E-1,2.026366E0,-3.8841537E-1,-9.6450335E-1,-4.064981E-1,2.0262582E0,-1.0304388E0,5.6876326E-1,-2.2882297E0,1.1450188E0,3.9272502E-1,-1.9330445E-1,-3.8355408E0,2.5222632E-1,-9.517072E-1,-2.1262407E0,4.2350292E-2,1.0774704E0,5.240362E0,9.4603306E-1,4.52641E0,-3.2847059E0,1.0577134E0,2.8527522E-1,3.4447522E0,6.1063604E0,1.5264649E0],"categories":[],"categories_nodes":[],"categories_segments":[],"categories_sizes":[],"default_left":[0,0,0,0,0,0,0,0,0,0,0,0,0,0,0,0,0,0,0,0,0,0,0,0,0,0,0,0,0,0,0,0,0,0,0,0,0,0,0,0,0,0,0,0,0,0,0,0,0,0,0,0,0,0,0,0,0,0,0,0,0,0,0,0,0,0,0,0,0,0,0,0,0,0,0,0,0,0,0,0,0,0,0,0,0,0,0,0,0,0,0,0,0,0,0,0,0,0,0,0,0,0,0,0,0,0,0,0,0,0,0,0,0],"id":6,"left_children":[1,3,5,7,9,11,13,15,17,19,21,23,25,27,29,31,33,35,37,39,41,43,45,47,49,51,53,55,57,59,61,63,65,-1,-1,67,69,71,73,75,77,79,81,83,85,87,89,91,93,95,97,99,101,-1,-1,103,-1,105,107,109,111,-1,-1,-1,-1,-1,-1,-1,-1,-1,-1,-1,-1,-1,-1,-1,-1,-1,-1,-1,-1,-1,-1,-1,-1,-1,-1,-1,-1,-1,-1,-1,-1,-1,-1,-1,-1,-1,-1,-1,-1,-1,-1,-1,-1,-1,-1,-1,-1,-1,-1,-1,-1],"loss_changes":[7.7630625E3,1.0026489E3,2.7685508E3,2.944143E2,5.647074E2,1.5318743E3,9.58272E2,7.739393E2,5.539697E2,1.420873E3,5.289719E2,1.2291987E3,5.9757806E2,7.723231E2,4.732168E2,5.3262E2,8.2820496E1,2.0448785E3,2.022815E2,3.282201E2,5.2265356E2,5.7506323E2,4.713806E2,1.145761E3,1.041544E3,5.7856995E2,1.1160651E2,5.2393445E2,5.52824E2,5.793081E2,1.2226033E-1,1.786554E2,6.460869E2,0E0,0E0,1.11047E3,2.3401929E2,1.7325171E2,5.0639877E0,3.9582397E2,9.040045E2,8.792418E2,6.1952686E2,4.8379858E2,3.493634E2,7.304378E1,4.1388892E2,8.307185E2,6.615674E2,1.3864062E3,8.1571466E2,5.2767096E2,3.257171E2,0E0,0E0,3.335498E2,0E0,6.104337E2,7.1062494E2,4.5087036E2,2.309231E2,0E0,0E0,0E0,0E0,0E0,0E0,0E0,0E0,0E0,0E0,0E0,0E0,0E0,0E0,0E0,0E0,0E0,0E0,0E0,0E0,0E0,0E0,0E0,0E0,0E0,0E0,0E0,0E0,0E0,0E0,0E0,0E0,0E0,0E0,0E0,0E0,0E0,0E0,0E0,0E0,0E0,0E0,0E0,0E0,0E0,0E0,0E0,0E0,0E0,0E0,0E0,0E0],"parents":[2147483647,0,0,1,1,2,2,3,3,4,4,5,5,6,6,7,7,8,8,9,9,10,10,11,11,12,12,13,13,14,14,15,15,16,16,17,17,18,18,19,19,20,20,21,21,22,22,23,23,24,24,25,25,26,26,27,27,28,28,29,29,30,30,31,31,32,32,35,35,36,36,37,37,38,38,39,39,40,40,41,41,42,42,43,43,44,44,45,45,46,46,47,47,48,48,49,49,50,50,51,51,52,52,55,55,57,57,58,58,59,59,60,60],"right_children":[2,4,6,8,10,12,14,16,18,20,22,24,26,28,30,32,34,36,38,40,42,44,46,48,50,52,54,56,58,60,62,64,66,-1,-1,68,70,72,74,76,78,80,82,84,86,88,90,92,94,96,98,100,102,-1,-1,104,-1,106,108,110,112,-1,-1,-1,-1,-1,-1,-1,-1,-1,-1,-1,-1,-1,-1,-1,-1,-1,-1,-1,-1,-1,-1,-1,-1,-1,-1,-1,-1,-1,-1,-1,-1,-1,-1,-1,-1,-1,-1,-1,-1,-1,-1,-1,-1,-1,-1,-1,-1,-1,-1,-1,-1],"split_conditions":[3.6E1,1.7E1,7.8E1,2.4452504E2,2.106587E2,3.255363E1,8.314666E0,2.4299232E2,2.5501621E1,1.12536835E2,1E-1,2E1,3.3361865E2,1.9313331E0,1.2E2,7.0000005E-1,5E0,8E0,1.6331331E1,6.1E1,7.310501E0,2.9505463E2,1.3608762E1,1E-1,8E1,7.5E0,7E-1,2.791927E2,7.4E1,7.1E1,1.03E2,8E0,8E-1,5.635598E-1,4.4112325E0,1.6E1,2.7E1,1.5E1,1.5E1,2.5E1,6.7E1,1.3E0,3.8E1,2.2701399E2,1.6E1,2.4E1,2.6E1,1.7E1,1.2E1,1.0981334E1,2.8496744E2,5.7E1,4.3832863E1,-4.239872E0,-3.2921734E-1,5.1E1,-1.697433E0,7.2E1,8.3E1,1.956377E1,1.09E2,-2.9747773E-2,-1.8999863E-1,3.0363833E-3,-1.1727481E0,4.22217E0,-2.4647413E-1,7.9661614E-1,1.1239534E1,-4.4276375E-1,-1.6944824E0,-1.8044691E0,-1.0901093E0,8.321261E-1,1.3224049E-1,-2.5035167E-1,-1.09037E0,3.6419675E0,-9.4930035E-1,1.5704783E0,-2.2128083E-1,3.3473313E-1,-1.177702E0,-1.0138135E0,6.364789E-1,1.2319283E0,-7.303523E-1,2.026366E0,-3.8841537E-1,-9.6450335E-1,-4.064981E-1,2.0262582E0,-1.0304388E0,5.6876326E-1,-2.2882297E0,1.1450188E0,3.9272502E-1,-1.9330445E-1,-3.8355408E0,2.5222632E-1,-9.517072E-1,-2.1262407E0,4.2350292E-2,1.0774704E0,5.240362E0,9.4603306E-1,4.52641E0,-3.2847059E0,1.0577134E0,2.8527522E-1,3.4447522E0,6.1063604E0,1.5264649E0],"split_indices":[0,0,0,6,6,5,3,6,5,6,4,2,6,3,1,4,0,1,3,2,3,6,5,4,1,4,4,6,2,2,0,1,4,0,0,2,2,1,0,1,2,4,1,6,1,1,1,2,2,3,6,0,5,0,0,1,0,2,2,5,0,0,0,0,0,0,0,0,0,0,0,0,0,0,0,0,0,0,0,0,0,0,0,0,0,0,0,0,0,0,0,0,0,0,0,0,0,0,0,0,0,0,0,0,0,0,0,0,0,0,0,0,0],"split_type":[0,0,0,0,0,0,0,0,0,0,0,0,0,0,0,0,0,0,0,0,0,0,0,0,0,0,0,0,0,0,0,0,0,0,0,0,0,0,0,0,0,0,0,0,0,0,0,0,0,0,0,0,0,0,0,0,0,0,0,0,0,0,0,0,0,0,0,0,0,0,0,0,0,0,0,0,0,0,0,0,0,0,0,0,0,0,0,0,0,0,0,0,0,0,0,0,0,0,0,0,0,0,0,0,0,0,0,0,0,0,0,0,0],"sum_hessian":[2.981E3,1.671E3,1.31E3,4.45E2,1.226E3,1.212E3,9.8E1,2.26E2,2.19E2,5.05E2,7.21E2,9.91E2,2.21E2,6.5E1,3.3E1,2.23E2,3E0,7.8E1,1.41E2,2.19E2,2.86E2,2.26E2,4.95E2,7.1E1,9.2E2,2.17E2,4E0,1.1E1,5.4E1,3E1,3E0,1.22E2,1.01E2,1E0,2E0,3E0,7.5E1,1.37E2,4E0,2.04E2,1.5E1,1.06E2,1.8E2,1.2E2,1.06E2,7E0,4.88E2,3.1E1,4E1,8.87E2,3.3E1,1.89E2,2.8E1,3E0,1E0,1E1,1E0,4.2E1,1.2E1,1.9E1,1.1E1,1E0,2E0,1.3E1,1.09E2,2E0,9.9E1,2E0,1E0,5.8E1,1.7E1,7E1,6.7E1,2E0,2E0,9.4E1,1.1E2,5E0,1E1,6.8E1,3.8E1,1.52E2,2.8E1,1.8E1,1.02E2,8E0,9.8E1,6E0,1E0,2.17E2,2.71E2,1.8E1,1.3E1,9E0,3.1E1,4.17E2,4.7E2,2.7E1,6E0,1.48E2,4.1E1,1.9E1,9E0,3E0,7E0,3.8E1,4E0,5E0,7E0,6E0,1.3E1,9E0,2E0],"tree_param":{"num_deleted":"0","num_feature":"7","num_nodes":"113","size_leaf_vector":"1"}},{"base_weights":[3.66222E-2,-6.3145745E-1,2.252544E0,-7.6488596E-1,3.3781288E0,1.6187543E0,4.4157405E0,-1.5438672E0,-2.6892006E-1,-1.6286789E0,3.5731423E0,1.9428483E0,-6.4217825E0,6.8991547E0,1.9078671E0,-1.6114076E0,8.371728E0,1.924034E1,-3.1191552E-1,3.7741275E0,-7.123667E-1,2.613553E0,-3.1667563E-1,-8.623565E0,5.0916805E0,9.891481E0,3.6532001E0,1.1508981E1,1.1036164E0,-8.5927343E-1,-2.3408182E0,6.2123364E-1,3.6275E0,-8.95452E-1,9.553605E0,-2.048814E0,-9.238022E-2,2.8986428E0,5.861681E0,2.247398E0,1.0218642E1,8.54649E0,-1.1195391E0,-1.0087723E1,2.0597992E0,-1.8542576E-1,2.1602895E0,-2.5168908E0,1.1736017E1,2.0706794E-1,7.2698097E0,-2.38206E0,7.8582125E0,-7.0167785E0,2.3359292E0,-7.4470925E-1,4.0146247E-2,-1.2057974E-1,-1.1321957E0,-4.405403E-2,3.2360917E-1,-1.0606004E0,2.3837931E-1,4.8936328E-1,-1.6510153E-1,-7.567796E-1,1.0981802E0,2.67147E0,3.458273E-1,8.839036E-1,-4.4025394E-1,2.0477712E0,5.3023753E0,4.1133785E0,-2.4225197E0,-3.8643885E0,-2.1228405E-2,-1.9890379E0,-3.814966E0,2.0934632E0,-1.1665535E0,-2.1784856E0,1.394513E0,5.4857354E0,2.6296473E0,3.0410821E0,-4.115115E-1,2.4642367E0,-1.4591715E0,-1.4400563E0,7.308483E-1,-6.725254E-1,-2.9479516E0,-1.7825586E0,1.0312257E0],"categories":[],"categories_nodes":[],"categories_segments":[],"categories_sizes":[],"default_left":[0,0,0,0,0,0,0,0,0,0,0,0,0,0,0,0,0,0,0,0,0,0,0,0,0,0,0,0,0,0,0,0,0,0,0,0,0,0,0,0,0,0,0,0,0,0,0,0,0,0,0,0,0,0,0,0,0,0,0,0,0,0,0,0,0,0,0,0,0,0,0,0,0,0,0,0,0,0,0,0,0,0,0,0,0,0,0,0,0,0,0,0,0,0,0],"id":7,"left_children":[1,3,5,7,9,11,13,15,17,-1,19,21,23,25,27,29,31,33,35,37,-1,39,41,43,45,47,49,51,53,55,57,59,-1,-1,-1,61,63,65,67,69,71,73,75,77,79,-1,-1,81,83,85,87,89,-1,91,93,-1,-1,-1,-1,-1,-1,-1,-1,-1,-1,-1,-1,-1,-1,-1,-1,-1,-1,-1,-1,-1,-1,-1,-1,-1,-1,-1,-1,-1,-1,-1,-1,-1,-1,-1,-1,-1,-1,-1,-1],"loss_changes":[4.416011E3,1.2287882E3,9.4022095E2,8.568915E2,1.4649298E2,1.4092336E3,9.584192E2,5.9144434E2,1.1442661E3,0E0,9.6226135E1,7.8281177E2,5.7626105E2,7.214746E2,5.9731287E2,4.6869995E2,1.6547641E2,9.35499E2,5.164866E2,1.1277008E2,0E0,1.085323E3,8.563617E2,3.0233704E2,5.2624886E1,9.450459E2,4.845639E2,1.2863403E3,7.5689886E2,6.8377014E2,1.2072385E3,1.2125098E0,0E0,0E0,0E0,6.4528107E2,9.512542E2,2.2403354E2,2.763405E2,9.9360095E2,3.3468408E2,9.6918494E2,1.3559899E3,6.111853E1,1.14903564E2,0E0,0E0,2.377382E2,5.206846E2,3.4312216E2,2.5765503E2,5.8298317E1,0E0,1.1213666E2,6.1308813E2,0E0,0E0,0E0,0E0,0E0,0E0,0E0,0E0,0E0,0E0,0E0,0E0,0E0,0E0,0E0,0E0,0E0,0E0,0E0,0E0,0E0,0E0,0E0,0E0,0E0,0E0,0E0,0E0,0E0,0E0,0E0,0E0,0E0,0E0,0E0,0E0,0E0,0E0,0E0,0E0],"parents":[2147483647,0,0,1,1,2,2,3,3,4,4,5,5,6,6,7,7,8,8,10,10,11,11,12,12,13,13,14,14,15,15,16,16,17,17,18,18,19,19,21,21,22,22,23,23,24,24,25,25,26,26,27,27,28,28,29,29,30,30,31,31,35,35,36,36,37,37,38,38,39,39,40,40,41,41,42,42,43,43,44,44,47,47,48,48,49,49,50,50,51,51,53,53,54,54],"right_children":[2,4,6,8,10,12,14,16,18,-1,20,22,24,26,28,30,32,34,36,38,-1,40,42,44,46,48,50,52,54,56,58,60,-1,-1,-1,62,64,66,68,70,72,74,76,78,80,-1,-1,82,84,86,88,90,-1,92,94,-1,-1,-1,-1,-1,-1,-1,-1,-1,-1,-1,-1,-1,-1,-1,-1,-1,-1,-1,-1,-1,-1,-1,-1,-1,-1,-1,-1,-1,-1,-1,-1,-1,-1,-1,-1,-1,-1,-1,-1],"split_conditions":[4.9E1,1.977925E1,7.2E1,2.5E1,1.4E1,8E1,1.9256622E2,4.8E1,6E0,-1.6286789E0,3.1981293E1,1.9000002E0,1.34E2,7.3E1,3.8E1,2.3018558E2,1.8462894E2,6E0,8.2497604E1,2.4464113E1,-7.123667E-1,7.6E1,2.7E1,1.5383414E1,6.1E1,3.4E1,8.9E1,2.4590923E1,3.4E1,1.12536835E2,2.5501621E1,1.3E1,3.6275E0,-8.95452E-1,9.553605E0,4E-1,1.7135619E2,2.4E1,2E-1,6.2E1,2.8894344E1,5.7E1,3.8E1,2.6250393E1,6.4E1,-1.8542576E-1,2.1602895E0,7.5E1,7.6E1,4.4E1,5.5E0,8.1E1,7.8582125E0,2.2202621E2,7.4E1,-7.4470925E-1,4.0146247E-2,-1.2057974E-1,-1.1321957E0,-4.405403E-2,3.2360917E-1,-1.0606004E0,2.3837931E-1,4.8936328E-1,-1.6510153E-1,-7.567796E-1,1.0981802E0,2.67147E0,3.458273E-1,8.839036E-1,-4.4025394E-1,2.0477712E0,5.3023753E0,4.1133785E0,-2.4225197E0,-3.8643885E0,-2.1228405E-2,-1.9890379E0,-3.814966E0,2.0934632E0,-1.1665535E0,-2.1784856E0,1.394513E0,5.4857354E0,2.6296473E0,3.0410821E0,-4.115115E-1,2.4642367E0,-1.4591715E0,-1.4400563E0,7.308483E-1,-6.725254E-1,-2.9479516E0,-1.7825586E0,1.0312257E0],"split_indices":[0,3,0,2,2,1,6,0,1,0,5,4,2,1,1,6,6,0,6,5,0,2,1,3,0,1,0,5,2,6,5,1,0,0,0,4,6,2,4,1,5,0,1,5,0,0,0,0,0,2,4,0,0,6,0,0,0,0,0,0,0,0,0,0,0,0,0,0,0,0,0,0,0,0,0,0,0,0,0,0,0,0,0,0,0,0,0,0,0,0,0,0,0,0,0],"split_type":[0,0,0,0,0,0,0,0,0,0,0,0,0,0,0,0,0,0,0,0,0,0,0,0,0,0,0,0,0,0,0,0,0,0,0,0,0,0,0,0,0,0,0,0,0,0,0,0,0,0,0,0,0,0,0,0,0,0,0,0,0,0,0,0,0,0,0,0,0,0,0,0,0,0,0,0,0,0,0,0,0,0,0,0,0,0,0,0,0,0,0,0,0,0,0],"sum_hessian":[2.981E3,2.291E3,6.9E2,2.218E3,7.3E1,5.35E2,1.55E2,8.62E2,1.356E3,1E0,7.2E1,5.15E2,2E1,7.7E1,7.8E1,8.57E2,5E0,2E0,1.354E3,7E1,2E0,3.97E2,1.18E2,1.7E1,3E0,3.9E1,3.8E1,5E0,7.3E1,4.23E2,4.34E2,2E0,3E0,1E0,1E0,1.51E2,1.203E3,5.1E1,1.9E1,3.8E2,1.7E1,9E0,1.09E2,1.5E1,2E0,1E0,2E0,5E0,3.4E1,2E1,1.8E1,3E0,2E0,9E0,6.4E1,1.6E2,2.63E2,1.85E2,2.49E2,1E0,1E0,9.9E1,5.2E1,2.52E2,9.51E2,6E0,4.5E1,1.1E1,8E0,3.2E2,6E1,1.3E1,4E0,7E0,2E0,8E0,1.01E2,8E0,7E0,1E0,1E0,3E0,2E0,9E0,2.5E1,2E0,1.8E1,1.7E1,1E0,2E0,1E0,4E0,5E0,7E0,5.7E1],"tree_param":{"num_deleted":"0","num_feature":"7","num_nodes":"95","size_leaf_vector":"1"}},{"base_weights":[3.4880094E-2,-2.512633E-1,2.6717875E0,-4.563562E-1,2.1008723E0,3.9806201E0,3.029084E-1,-9.8950125E-2,-1.3869246E0,7.5118183E-3,3.1475003E0,-5.436093E0,4.596552E0,-4.6345174E-1,6.893936E0,2.6408738E-1,-1.8957174E0,-2.4037209E0,-8.563858E-1,-3.1839828E0,8.877947E-1,2.654973E0,8.344053E0,2.9095335E0,-8.54125E0,4.8752403E0,-3.9577386E0,7.948053E0,-1.2228675E0,-9.4315946E-1,1.1507013E1,-1.7152193E0,8.1990284E-1,-7.657005E-1,-3.879181E0,-4.9546486E-1,-3.2605557E0,2.5265124E0,-1.1544933E0,2.903014E0,-4.260912E0,1.885567E0,-1.1022512E0,4.437167E0,1.4924233E0,5.7801204E0,5.5995007E0,2.1153374E-1,1.0227909E0,-1.0473048E1,-1.1866379E0,6.7603283E0,2.4989269E0,6.2865696E0,1.1978849E-1,-4.5948324E0,1.682829E0,9.1973364E-1,-8.1355166E-1,9.48523E-1,3.7112806E0,4.183651E-1,-7.257801E-1,9.9353534E-1,3.8317602E-2,-4.723491E-1,6.2768966E-1,-1.5451602E0,-8.0173963E-1,4.7283024E-1,-8.1776947E-1,-1.483356E0,-8.003723E-1,-2.0500269E-2,1.7809559E0,-3.8918054E-1,1.6386354E0,1.2359185E0,7.043782E-2,4.3760434E-1,-1.4439261E0,7.3945445E-1,-1.1398064E0,8.445547E-1,-5.877486E-1,2.179631E0,1.0221152E0,1.466766E-1,1.8994949E0,5.2008706E-1,2.0497506E0,-8.961365E-1,-3.8609984E0,-4.316597E-2,-4.908211E-1,3.0335438E0,7.988387E-1,-2.0928772E-1,1.5994644E0,1.890711E0,-1.3641284E0,-2.6903462E0,-2.3477665E-1,4.233996E0,6.96082E-2],"categories":[],"categories_nodes":[],"categories_segments":[],"categories_sizes":[],"default_left":[0,0,0,0,0,0,0,0,0,0,0,0,0,0,0,0,0,0,0,0,0,0,0,0,0,0,0,0,0,0,0,0,0,0,0,0,0,0,0,0,0,0,0,0,0,0,0,0,0,0,0,0,0,0,0,0,0,0,0,0,0,0,0,0,0,0,0,0,0,0,0,0,0,0,0,0,0,0,0,0,0,0,0,0,0,0,0,0,0,0,0,0,0,0,0,0,0,0,0,0,0,0,0,0,0],"id":8,"left_children":[1,3,5,7,9,11,13,15,17,19,21,23,25,27,29,31,33,35,37,39,41,43,45,47,49,51,-1,53,55,57,59,61,63,65,67,69,71,73,75,77,79,81,83,85,87,-1,89,-1,-1,91,93,95,97,-1,99,101,103,-1,-1,-1,-1,-1,-1,-1,-1,-1,-1,-1,-1,-1,-1,-1,-1,-1,-1,-1,-1,-1,-1,-1,-1,-1,-1,-1,-1,-1,-1,-1,-1,-1,-1,-1,-1,-1,-1,-1,-1,-1,-1,-1,-1,-1,-1,-1,-1],"loss_changes":[2.2506907E3,1.299114E3,9.041301E2,8.2335754E2,4.7322577E2,1.1153975E3,5.335606E2,1.1681067E3,3.685437E2,2.0791425E2,3.4640686E2,3.3582483E2,9.418103E2,6.165632E2,4.0853735E2,1.6405989E3,6.716753E2,3.826234E2,4.5975262E2,1.1725371E2,1.172439E2,2.689391E2,2.5185956E2,2.0028648E0,1.1544092E2,7.670293E2,0E0,8.1207886E2,8.699482E2,4.3766525E1,1.1353882E1,7.1931604E2,2.0072723E3,4.4942148E2,1.5345886E2,3.4621243E2,1.4848438E2,3.2779816E2,4.0102032E2,8.772108E0,5.123578E1,1.3779837E2,7.265321E1,1.26745544E2,3.9511026E2,0E0,4.058792E1,0E0,0E0,8.71593E1,1.1705298E0,1.3051577E3,7.1903455E2,0E0,2.0177777E2,6.764885E2,8.6236584E2,0E0,0E0,0E0,0E0,0E0,0E0,0E0,0E0,0E0,0E0,0E0,0E0,0E0,0E0,0E0,0E0,0E0,0E0,0E0,0E0,0E0,0E0,0E0,0E0,0E0,0E0,0E0,0E0,0E0,0E0,0E0,0E0,0E0,0E0,0E0,0E0,0E0,0E0,0E0,0E0,0E0,0E0,0E0,0E0,0E0,0E0,0E0,0E0],"parents":[2147483647,0,0,1,1,2,2,3,3,4,4,5,5,6,6,7,7,8,8,9,9,10,10,11,11,12,12,13,13,14,14,15,15,16,16,17,17,18,18,19,19,20,20,21,21,22,22,23,23,24,24,25,25,27,27,28,28,29,29,30,30,31,31,32,32,33,33,34,34,35,35,36,36,37,37,38,38,39,39,40,40,41,41,42,42,43,43,44,44,46,46,49,49,50,50,51,51,52,52,54,54,55,55,56,56],"right_children":[2,4,6,8,10,12,14,16,18,20,22,24,26,28,30,32,34,36,38,40,42,44,46,48,50,52,-1,54,56,58,60,62,64,66,68,70,72,74,76,78,80,82,84,86,88,-1,90,-1,-1,92,94,96,98,-1,100,102,104,-1,-1,-1,-1,-1,-1,-1,-1,-1,-1,-1,-1,-1,-1,-1,-1,-1,-1,-1,-1,-1,-1,-1,-1,-1,-1,-1,-1,-1,-1,-1,-1,-1,-1,-1,-1,-1,-1,-1,-1,-1,-1,-1,-1,-1,-1,-1,-1],"split_conditions":[6.2E1,1.865425E1,2.6081993E1,1.4262584E1,3.5E1,2.2E1,1.698075E1,2.90293E2,2.4E1,1.5484185E1,4.9E0,1.835647E1,3.5497397E2,3.8E1,2.7661497E1,1.0880372E2,2.8165257E1,1E-1,7.9783775E1,9.9883514E1,3E1,4.2E1,3.6E1,6.6E1,7.1E1,6.6E1,-3.9577386E0,2.6901417E1,2.9495842E1,5.8E1,4.1E1,1.6299694E1,1.7273315E2,1.0429252E1,3.377291E1,2.3E1,2.2218153E1,1.6777166E1,3.3692236E2,2.8E1,2.1E1,3.1981293E1,1.8526888E1,1.897508E1,5.9E1,5.7801204E0,4.6E1,2.1153374E-1,1.0227909E0,1E-1,7.5E1,2E-1,6.5E1,6.2865696E0,1E-1,6.383417E0,2.1084168E0,9.1973364E-1,-8.1355166E-1,9.48523E-1,3.7112806E0,4.183651E-1,-7.257801E-1,9.9353534E-1,3.8317602E-2,-4.723491E-1,6.2768966E-1,-1.5451602E0,-8.0173963E-1,4.7283024E-1,-8.1776947E-1,-1.483356E0,-8.003723E-1,-2.0500269E-2,1.7809559E0,-3.8918054E-1,1.6386354E0,1.2359185E0,7.043782E-2,4.3760434E-1,-1.4439261E0,7.3945445E-1,-1.1398064E0,8.445547E-1,-5.877486E-1,2.179631E0,1.0221152E0,1.466766E-1,1.8994949E0,5.2008706E-1,2.0497506E0,-8.961365E-1,-3.8609984E0,-4.316597E-2,-4.908211E-1,3.0335438E0,7.988387E-1,-2.0928772E-1,1.5994644E0,1.890711E0,-1.3641284E0,-2.6903462E0,-2.3477665E-1,4.233996E0,6.96082E-2],"split_indices":[0,3,5,3,0,2,3,6,0,5,4,5,6,1,5,6,5,4,6,6,2,1,0,0,0,1,0,5,5,1,1,5,6,3,5,2,5,3,6,0,1,5,5,3,0,0,0,0,0,4,0,4,2,0,4,3,3,0,0,0,0,0,0,0,0,0,0,0,0,0,0,0,0,0,0,0,0,0,0,0,0,0,0,0,0,0,0,0,0,0,0,0,0,0,0,0,0,0,0,0,0,0,0,0,0],"split_type":[0,0,0,0,0,0,0,0,0,0,0,0,0,0,0,0,0,0,0,0,0,0,0,0,0,0,0,0,0,0,0,0,0,0,0,0,0,0,0,0,0,0,0,0,0,0,0,0,0,0,0,0,0,0,0,0,0,0,0,0,0,0,0,0,0,0,0,0,0,0,0,0,0,0,0,0,0,0,0,0,0,0,0,0,0,0,0,0,0,0,0,0,0,0,0,0,0,0,0,0,0,0,0,0,0],"sum_hessian":[2.981E3,2.69E3,2.91E2,2.475E3,2.15E2,1.87E2,1.04E2,1.789E3,6.86E2,7.2E1,1.43E2,1.1E1,1.76E2,9.4E1,1E1,1.489E3,3E2,2.34E2,4.52E2,1.5E1,5.7E1,1.32E2,1.1E1,3E0,8E0,1.74E2,2E0,7E0,8.7E1,4E0,6E0,3.26E2,1.163E3,1.92E2,1.08E2,7.3E1,1.61E2,3.6E1,4.16E2,2E0,1.3E1,3.8E1,1.9E1,5.1E1,8.1E1,1E0,1E1,1E0,2E0,6E0,2E0,9.6E1,7.8E1,2E0,5E0,4E1,4.7E1,1E0,3E0,1E0,5E0,6E1,2.66E2,2.52E2,9.11E2,1.5E2,4.2E1,5.1E1,5.7E1,3.8E1,3.5E1,4E1,1.21E2,2.1E1,1.5E1,4.08E2,8E0,1E0,1E0,1E0,1.2E1,3.5E1,3E0,3E0,1.6E1,1.2E1,3.9E1,6.8E1,1.3E1,3E0,7E0,2E0,4E0,1E0,1E0,5.2E1,4.4E1,3.7E1,4.1E1,2E0,3E0,1.8E1,2.2E1,4E0,4.3E1],"tree_param":{"num_deleted":"0","num_feature":"7","num_nodes":"105","size_leaf_vector":"1"}},{"base_weights":[3.2073423E-2,-6.802342E-1,6.386867E-1,-5.19745E-1,-3.4101586E0,5.05367E-1,3.751923E0,-3.1435366E0,-4.4448647E-1,-2.2950218E0,-5.2398567E0,-9.2359436E-1,7.712659E-1,3.1876934E0,6.06403E0,3.2802136E0,-4.2854385E0,-4.518209E-2,-9.6634656E-1,-2.7540298E0,5.6611094E0,-3.835716E0,-4.167647E0,8.68409E0,-1.245365E0,-1.6036869E0,9.8274225E-1,2.4237833E0,8.3275795E0,1.8542279E0,-1.6805853E0,-2.2405624E0,-7.336446E0,4.7366092E-1,-1.4738011E0,-1.4726826E0,-1.404409E-1,-3.1981566E0,8.138644E-1,2.1216683E0,4.2583096E-1,-4.904599E0,1.1117401E0,4.6248236E0,-1.9019184E0,-6.526796E-1,-6.007336E0,-7.2434406E0,-6.054289E-1,2.2504942E0,4.54724E-1,2.9681952E0,-2.7891521E0,1.1309373E1,2.518443E0,-6.0128117E-1,-1.549822E-1,9.726626E-2,-1.4513304E0,-2.5632355E0,-2.5961688E-1,3.4322217E-1,-3.415158E-1,5.6446147E-1,-6.2581885E-1,-6.1323874E-2,-5.5717665E-1,2.0792697E-1,-5.75212E-1,-6.70444E-1,-2.5817246E0,6.2893486E-1,-8.3985907E-1,-8.903437E-1,-2.0242972E0,9.401047E-1,-1.8204041E-1,-6.4342886E-1,-1.7600785E-1,4.4867718E-1,-5.8491516E-1,-6.414955E-1,-2.9135604E0,7.39169E-1,-2.6418586E0,2.6657164E0,-3.413457E-1,1.1097698E0,-1.85159E-1,1.4858347E0,9.863173E-2,5.8837384E-1,1.6899537E0,-1.399534E0,-2.0546809E-1,3.8378928E0,8.062443E-1,1.5304184E-1,9.053494E-1],"categories":[],"categories_nodes":[],"categories_segments":[],"categories_sizes":[],"default_left":[0,0,0,0,0,0,0,0,0,0,0,0,0,0,0,0,0,0,0,0,0,0,0,0,0,0,0,0,0,0,0,0,0,0,0,0,0,0,0,0,0,0,0,0,0,0,0,0,0,0,0,0,0,0,0,0,0,0,0,0,0,0,0,0,0,0,0,0,0,0,0,0,0,0,0,0,0,0,0,0,0,0,0,0,0,0,0,0,0,0,0,0,0,0,0,0,0,0,0],"id":9,"left_children":[1,3,5,7,9,11,13,15,17,19,21,23,25,27,-1,29,31,33,35,37,39,-1,41,43,45,47,49,51,53,-1,55,57,59,61,63,65,67,69,71,-1,-1,73,75,-1,77,79,81,83,85,87,89,91,93,95,97,-1,-1,-1,-1,-1,-1,-1,-1,-1,-1,-1,-1,-1,-1,-1,-1,-1,-1,-1,-1,-1,-1,-1,-1,-1,-1,-1,-1,-1,-1,-1,-1,-1,-1,-1,-1,-1,-1,-1,-1,-1,-1,-1,-1],"loss_changes":[1.2889424E3,5.9933276E2,6.6675885E2,2.5471182E2,1.4304211E2,5.8812946E2,5.485788E2,2.7812775E2,2.6293317E2,1.9453528E2,1.7325458E2,7.6204236E2,6.565053E2,2.3503247E2,0E0,9.672143E1,1.7696912E2,5.31418E2,2.2854083E2,7.707895E1,7.917938E0,0E0,1.0660971E2,5.9943915E2,6.621538E2,5.980171E2,8.0091345E2,1.7288184E2,1.1009119E2,0E0,9.486675E-2,1.3479388E2,8.638501E1,5.6977014E2,3.96305E2,1.6496484E2,3.108846E2,1.9956119E2,3.3675983E1,0E0,0E0,6.2075256E1,1.5800688E1,0E0,1.9263268E-2,5.908436E2,3.5188843E2,2.6442065E2,4.7498578E2,1.4646787E3,4.7822906E2,1.3117764E2,2.0489933E1,2.9576416E1,2.4721775E0,0E0,0E0,0E0,0E0,0E0,0E0,0E0,0E0,0E0,0E0,0E0,0E0,0E0,0E0,0E0,0E0,0E0,0E0,0E0,0E0,0E0,0E0,0E0,0E0,0E0,0E0,0E0,0E0,0E0,0E0,0E0,0E0,0E0,0E0,0E0,0E0,0E0,0E0,0E0,0E0,0E0,0E0,0E0,0E0],"parents":[2147483647,0,0,1,1,2,2,3,3,4,4,5,5,6,6,7,7,8,8,9,9,10,10,11,11,12,12,13,13,15,15,16,16,17,17,18,18,19,19,20,20,22,22,23,23,24,24,25,25,26,26,27,27,28,28,30,30,31,31,32,32,33,33,34,34,35,35,36,36,37,37,38,38,41,41,42,42,44,44,45,45,46,46,47,47,48,48,49,49,50,50,51,51,52,52,53,53,54,54],"right_children":[2,4,6,8,10,12,14,16,18,20,22,24,26,28,-1,30,32,34,36,38,40,-1,42,44,46,48,50,52,54,-1,56,58,60,62,64,66,68,70,72,-1,-1,74,76,-1,78,80,82,84,86,88,90,92,94,96,98,-1,-1,-1,-1,-1,-1,-1,-1,-1,-1,-1,-1,-1,-1,-1,-1,-1,-1,-1,-1,-1,-1,-1,-1,-1,-1,-1,-1,-1,-1,-1,-1,-1,-1,-1,-1,-1,-1,-1,-1,-1,-1,-1,-1],"split_conditions":[3.1E1,8.7E0,2.1197998E1,2.4034279E1,2.9E1,2.5E1,7.9E1,2.0841666E-1,1.1066749E1,3.8E1,3E1,8E0,7.156497E1,2.7558228E1,6.06403E0,3.4E1,1.956377E1,2.7510208E2,2.4E1,1.865425E1,2.7E1,-3.835716E0,3E1,5.2625833E0,4.8E1,-6.770001E-1,1.7273315E2,2.4946726E1,4.3E1,1.8542279E0,1.1E1,1.8E1,2.6E1,1.8000001E0,1.7418196E1,1.8462894E2,1.721675E1,2.5E1,2.5E1,2.1216683E0,4.2583096E-1,2.4E1,3.1E1,4.6248236E0,1.4E1,1E-1,5.6521664E0,3.3E1,3.030751E0,1.4172999E1,5.438333E-1,2E-1,5.4E1,6.1E1,4.9E1,-6.0128117E-1,-1.549822E-1,9.726626E-2,-1.4513304E0,-2.5632355E0,-2.5961688E-1,3.4322217E-1,-3.415158E-1,5.6446147E-1,-6.2581885E-1,-6.1323874E-2,-5.5717665E-1,2.0792697E-1,-5.75212E-1,-6.70444E-1,-2.5817246E0,6.2893486E-1,-8.3985907E-1,-8.903437E-1,-2.0242972E0,9.401047E-1,-1.8204041E-1,-6.4342886E-1,-1.7600785E-1,4.4867718E-1,-5.8491516E-1,-6.414955E-1,-2.9135604E0,7.39169E-1,-2.6418586E0,2.6657164E0,-3.413457E-1,1.1097698E0,-1.85159E-1,1.4858347E0,9.863173E-2,5.8837384E-1,1.6899537E0,-1.399534E0,-2.0546809E-1,3.8378928E0,8.062443E-1,1.5304184E-1,9.053494E-1],"split_indices":[0,4,3,6,1,2,0,3,3,2,1,2,6,5,0,2,5,6,0,3,0,0,0,3,1,3,6,5,2,0,0,0,2,4,5,6,3,2,0,0,0,0,1,0,1,4,3,0,6,3,3,4,1,0,0,0,0,0,0,0,0,0,0,0,0,0,0,0,0,0,0,0,0,0,0,0,0,0,0,0,0,0,0,0,0,0,0,0,0,0,0,0,0,0,0,0,0,0,0],"split_type":[0,0,0,0,0,0,0,0,0,0,0,0,0,0,0,0,0,0,0,0,0,0,0,0,0,0,0,0,0,0,0,0,0,0,0,0,0,0,0,0,0,0,0,0,0,0,0,0,0,0,0,0,0,0,0,0,0,0,0,0,0,0,0,0,0,0,0,0,0,0,0,0,0,0,0,0,0,0,0,0,0,0,0,0,0,0,0,0,0,0,0,0,0,0,0,0,0,0,0],"sum_hessian":[2.981E3,1.371E3,1.61E3,1.296E3,7.5E1,1.545E3,6.5E1,3.5E1,1.261E3,4.8E1,2.7E1,2.42E2,1.303E3,6.4E1,1E0,5E0,3E1,7.15E2,5.46E2,4.6E1,2E0,2E0,2.5E1,7E0,2.35E2,1.06E2,1.197E3,5.7E1,7E0,3E0,2E0,1.9E1,1.1E1,5.25E2,1.9E2,3.38E2,2.08E2,4.1E1,5E0,1E0,1E0,2.2E1,3E0,4E0,3E0,2.1E2,2.5E1,1.5E1,9.1E1,3.51E2,8.46E2,5.2E1,5E0,4E0,3E0,1E0,1E0,1E1,9E0,9E0,2E0,3.71E2,1.54E2,2.9E1,1.61E2,7.9E1,2.59E2,1.42E2,6.6E1,3.6E1,5E0,4E0,1E0,1.2E1,1E1,1E0,2E0,2E0,1E0,7.9E1,1.31E2,1.3E1,1.2E1,2E0,1.3E1,4E0,8.7E1,2.33E2,1.18E2,2.2E1,8.24E2,3.9E1,1.3E1,2E0,3E0,3E0,1E0,1E0,2E0],"tree_param":{"num_deleted":"0","num_feature":"7","num_nodes":"99","size_leaf_vector":"1"}},{"base_weights":[2.3944125E-2,-2.5837556E-1,9.603447E-1,-1.3678582E-1,-2.1122959E0,2.2058368E0,3.4626588E-1,-1.693758E-1,6.8609276E0,-2.4452555E0,3.042809E0,2.739725E0,-4.5818186E0,-5.309671E0,6.3979596E-1,-4.8804846E-1,3.726613E-1,1.20714655E1,-3.9727454E0,-2.9422667E0,1.6607164E0,-1.6676682E0,6.294566E0,-7.5357515E-1,3.908898E0,6.339385E0,-8.429834E0,-9.630619E0,-2.8173423E0,3.0824607E-2,3.1602955E0,-2.7418497E-1,-2.7823722E0,7.965587E-1,-9.697822E-1,7.974381E-1,3.9592004E0,7.2684807E-1,-2.0736637E0,-4.658399E0,-1.5866613E0,-1.0671564E0,3.597871E0,6.9532485E0,3.513708E-1,-1.732807E0,4.9412913E0,7.686227E0,2.780731E0,1.9966497E0,3.5565493E0,-1.1831253E1,-6.213131E-1,-3.2929192E0,-3.152733E-2,-4.051103E0,2.353361E0,7.3320496E-1,-2.6199017E0,1.9243106E-1,5.293309E0,-1.0043721E-1,2.7211916E0,6.8567914E-1,-1.1816679E0,6.2007524E-2,7.424017E-1,-4.2962608E-1,1.6411186E0,-1.102617E0,-2.8816586E0,9.671667E-1,-7.125349E-1,-7.146649E-1,4.4409868E-1,1.8213254E0,1.2152505E-1,2.2514246E0,6.293627E-1,1.8872085E0,-1.137883E0,-1.3163731E0,3.2255943E0,-1.2229038E0,1.1503015E0,-2.8367558E-1,9.87777E-1,-4.1126876E0,4.7855875E-1,-1.2065173E0,8.9586073E-1,-2.4564712E0,-5.4069173E-1,-2.3001383E-1,7.589244E-1,-2.7472637E0,-5.436718E-1,1.1549319E0,-1.0425116E0,3.239712E0,1.0940703E0],"categories":[],"categories_nodes":[],"categories_segments":[],"categories_sizes":[],"default_left":[0,0,0,0,0,0,0,0,0,0,0,0,0,0,0,0,0,0,0,0,0,0,0,0,0,0,0,0,0,0,0,0,0,0,0,0,0,0,0,0,0,0,0,0,0,0,0,0,0,0,0,0,0,0,0,0,0,0,0,0,0,0,0,0,0,0,0,0,0,0,0,0,0,0,0,0,0,0,0,0,0,0,0,0,0,0,0,0,0,0,0,0,0,0,0,0,0,0,0,0,0],"id":10,"left_children":[1,3,5,7,9,11,13,15,17,19,21,23,25,27,29,31,33,35,37,39,41,-1,43,45,47,49,51,53,55,57,59,61,63,65,67,-1,-1,-1,-1,69,71,73,75,77,-1,79,-1,81,83,85,-1,87,89,-1,-1,91,-1,93,95,97,99,-1,-1,-1,-1,-1,-1,-1,-1,-1,-1,-1,-1,-1,-1,-1,-1,-1,-1,-1,-1,-1,-1,-1,-1,-1,-1,-1,-1,-1,-1,-1,-1,-1,-1,-1,-1,-1,-1,-1,-1],"loss_changes":[7.8858246E2,5.163684E2,5.27734E2,4.9193732E2,2.494588E2,8.3879065E2,7.7372406E2,3.703474E2,6.124496E2,2.7630115E2,2.8672662E2,8.688114E2,7.6786426E2,2.2055945E2,6.7833374E2,6.6164453E2,4.526048E2,3.9107056E1,9.194536E1,2.6945007E2,8.3104164E1,0E0,1.5478638E1,9.393496E2,6.561987E2,9.609723E1,3.3792987E2,1.0140039E2,2.4224637E2,6.6658997E2,5.434042E2,7.030449E2,6.8304205E2,5.973662E2,5.765029E2,0E0,0E0,0E0,0E0,2.1757593E2,2.6557446E2,2.697713E1,6.860872E1,3.223877E-1,0E0,8.8339453E2,0E0,1.3797666E3,9.1148865E2,1.8365261E1,0E0,2.4876672E2,7.334486E1,0E0,0E0,1.2479593E2,0E0,7.645303E2,3.7942004E2,5.0966617E2,4.1385107E2,0E0,0E0,0E0,0E0,0E0,0E0,0E0,0E0,0E0,0E0,0E0,0E0,0E0,0E0,0E0,0E0,0E0,0E0,0E0,0E0,0E0,0E0,0E0,0E0,0E0,0E0,0E0,0E0,0E0,0E0,0E0,0E0,0E0,0E0,0E0,0E0,0E0,0E0,0E0,0E0],"parents":[2147483647,0,0,1,1,2,2,3,3,4,4,5,5,6,6,7,7,8,8,9,9,10,10,11,11,12,12,13,13,14,14,15,15,16,16,17,17,18,18,19,19,20,20,22,22,23,23,24,24,25,25,26,26,27,27,28,28,29,29,30,30,31,31,32,32,33,33,34,34,39,39,40,40,41,41,42,42,43,43,45,45,47,47,48,48,49,49,51,51,52,52,55,55,57,57,58,58,59,59,60,60],"right_children":[2,4,6,8,10,12,14,16,18,20,22,24,26,28,30,32,34,36,38,40,42,-1,44,46,48,50,52,54,56,58,60,62,64,66,68,-1,-1,-1,-1,70,72,74,76,78,-1,80,-1,82,84,86,-1,88,90,-1,-1,92,-1,94,96,98,100,-1,-1,-1,-1,-1,-1,-1,-1,-1,-1,-1,-1,-1,-1,-1,-1,-1,-1,-1,-1,-1,-1,-1,-1,-1,-1,-1,-1,-1,-1,-1,-1,-1,-1,-1,-1,-1,-1,-1,-1],"split_conditions":[4.9E1,5.5E1,4.8E1,8.7E1,4.8E1,3.9067875E1,2.7E1,3.3E1,2.3088965E2,1.655425E1,1.8416384E1,3.3E1,2.5E1,5.2E1,7.9E1,3.8E1,2.2E0,1.3E1,3.8188336E0,6.1E1,1E-1,-1.6676682E0,9.7E1,3.7467678E1,4.6563334E0,5.3E1,3.1000001E0,1.4262584E1,3.62243E1,2.5E0,5.457834E0,4.8E1,1.8218275E1,6E-1,6.4E1,7.974381E-1,3.9592004E0,7.2684807E-1,-2.0736637E0,6E1,4.7E1,2.1767351E1,7E-1,7.1563325E0,3.513708E-1,1.5E1,4.9412913E0,-3.796668E-1,6.383417E0,1.6E1,3.5565493E0,4.6E1,4.345276E1,-3.2929192E0,-3.152733E-2,1E-1,2.353361E0,2E-1,2.0304926E1,2.668833E0,6.7E1,-1.0043721E-1,2.7211916E0,6.8567914E-1,-1.1816679E0,6.2007524E-2,7.424017E-1,-4.2962608E-1,1.6411186E0,-1.102617E0,-2.8816586E0,9.671667E-1,-7.125349E-1,-7.146649E-1,4.4409868E-1,1.8213254E0,1.2152505E-1,2.2514246E0,6.293627E-1,1.8872085E0,-1.137883E0,-1.3163731E0,3.2255943E0,-1.2229038E0,1.1503015E0,-2.8367558E-1,9.87777E-1,-4.1126876E0,4.7855875E-1,-1.2065173E0,8.9586073E-1,-2.4564712E0,-5.4069173E-1,-2.3001383E-1,7.589244E-1,-2.7472637E0,-5.436718E-1,1.1549319E0,-1.0425116E0,3.239712E0,1.0940703E0],"split_indices":[0,1,1,2,0,5,2,2,6,3,5,1,1,1,0,1,4,0,3,1,4,0,2,5,3,0,4,3,5,4,3,0,5,4,2,0,0,0,0,1,2,5,4,3,0,2,0,3,3,1,0,1,5,0,0,4,0,4,5,3,1,0,0,0,0,0,0,0,0,0,0,0,0,0,0,0,0,0,0,0,0,0,0,0,0,0,0,0,0,0,0,0,0,0,0,0,0,0,0,0,0],"split_type":[0,0,0,0,0,0,0,0,0,0,0,0,0,0,0,0,0,0,0,0,0,0,0,0,0,0,0,0,0,0,0,0,0,0,0,0,0,0,0,0,0,0,0,0,0,0,0,0,0,0,0,0,0,0,0,0,0,0,0,0,0,0,0,0,0,0,0,0,0,0,0,0,0,0,0,0,0,0,0,0,0,0,0,0,0,0,0,0,0,0,0,0,0,0,0,0,0,0,0,0,0],"sum_hessian":[2.981E3,2.291E3,6.9E2,2.151E3,1.4E2,2.27E2,4.63E2,2.142E3,9E0,1.32E2,8E0,2.11E2,1.6E1,2.2E1,4.41E2,1.349E3,7.93E2,6E0,3E0,1.18E2,1.4E1,2E0,6E0,5.3E1,1.58E2,4E0,1.2E1,7E0,1.5E1,3.56E2,8.5E1,1.235E3,1.14E2,6.03E2,1.9E2,1E0,5E0,1E0,2E0,5.1E1,6.7E1,6E0,8E0,5E0,1E0,5.1E1,2E0,3.5E1,1.23E2,3E0,1E0,8E0,4E0,6E0,1E0,1.4E1,1E0,2.82E2,7.4E1,3.6E1,4.9E1,1.228E3,7E0,2.1E1,9.3E1,4.47E2,1.56E2,1.78E2,1.2E1,4.4E1,7E0,9E0,5.8E1,4E0,2E0,4E0,4E0,4E0,1E0,1E1,4.1E1,7E0,2.8E1,1.6E1,1.07E2,1E0,2E0,7E0,1E0,2E0,2E0,4E0,1E1,1.54E2,1.28E2,7E0,6.7E1,1.8E1,1.8E1,1E1,3.9E1],"tree_param":{"num_deleted":"0","num_feature":"7","num_nodes":"101","size_leaf_vector":"1"}},{"base_weights":[2.0991785E-2,-7.0778176E-2,2.229464E0,-1.7837831E-1,1.2295904E0,1.8908179E0,4.4080515E0,-2.8783783E-2,-1.4839247E0,5.8538904E0,7.3542017E-1,1.6588355E0,4.3201175E0,-4.034812E-1,4.4767544E-1,-2.376944E0,1.3965672E0,6.7470646E-1,8.395288E0,-1.2225161E0,1.9042985E0,1.5476492E-1,2.4484153E0,-2.942427E-1,-2.2804475E0,1.0293853E0,-1.360027E-1,-6.1954427E0,-1.6731651E0,3.3336422E0,-1.6372625E0,4.2856593E0,-2.0316303E0,1.0201487E1,1.329422E0,-4.493027E0,1.4541483E0,8.491105E0,7.168814E-1,2.3915224E0,-1.6997203E0,3.273979E0,-2.6862526E-2,-4.6766493E-2,-4.193964E-1,-5.707295E-1,-2.1122932E0,7.323416E-1,4.085105E-2,-1.5764829E0,-1.6527335E-3,5.628563E-1,-2.2246618E0,-5.9435225E-1,2.230586E0,2.0140743E0,4.37284E-1,1.0700596E-1,-2.5029624E0,2.2793847E-1,1.7575928E0,5.4602053E-2,3.3555703E0,5.282036E-1,5.347824E-3,-3.8016078E-1,-2.7032502E0,9.112875E-1,-6.935658E-1,3.505407E0,-8.363604E-1,-2.154311E0,3.2799464E-1,1.5827134E0,1.9636038E-1,-1.5053881E0,3.716307E-1,1.4424852E-1,1.2516586E0,-2.4229299E-1,1.4000329E0],"categories":[],"categories_nodes":[],"categories_segments":[],"categories_sizes":[],"default_left":[0,0,0,0,0,0,0,0,0,0,0,0,0,0,0,0,0,0,0,0,0,0,0,0,0,0,0,0,0,0,0,0,0,0,0,0,0,0,0,0,0,0,0,0,0,0,0,0,0,0,0,0,0,0,0,0,0,0,0,0,0,0,0,0,0,0,0,0,0,0,0,0,0,0,0,0,0,0,0,0,0],"id":11,"left_children":[1,3,5,7,9,11,-1,13,15,17,19,21,-1,23,25,27,29,31,33,35,37,39,41,43,45,47,49,51,53,55,57,59,-1,61,63,65,67,69,71,73,75,77,79,-1,-1,-1,-1,-1,-1,-1,-1,-1,-1,-1,-1,-1,-1,-1,-1,-1,-1,-1,-1,-1,-1,-1,-1,-1,-1,-1,-1,-1,-1,-1,-1,-1,-1,-1,-1,-1,-1],"loss_changes":[6.045239E2,4.0094974E2,4.7450415E2,5.167279E2,4.9615186E2,3.156462E2,0E0,4.241847E2,7.029948E2,2.7074548E2,4.577573E2,1.3738077E2,0E0,2.7202814E2,3.552898E2,5.486089E2,3.874472E2,2.4414348E2,1.6511078E2,6.63088E2,9.7157385E2,1.741343E2,1.5539389E2,1.918887E2,1.17972595E2,6.604312E2,3.4932922E2,3.2905432E2,5.1130148E2,2.438487E2,3.5063E2,2.8825386E1,0E0,1.0638733E2,2.2311516E0,4.8408563E2,2.5748654E2,7.169618E2,3.2596698E2,9.173308E1,2.3048016E2,1.4099847E2,7.706314E1,0E0,0E0,0E0,0E0,0E0,0E0,0E0,0E0,0E0,0E0,0E0,0E0,0E0,0E0,0E0,0E0,0E0,0E0,0E0,0E0,0E0,0E0,0E0,0E0,0E0,0E0,0E0,0E0,0E0,0E0,0E0,0E0,0E0,0E0,0E0,0E0,0E0,0E0],"parents":[2147483647,0,0,1,1,2,2,3,3,4,4,5,5,7,7,8,8,9,9,10,10,11,11,13,13,14,14,15,15,16,16,17,17,18,18,19,19,20,20,21,21,22,22,23,23,24,24,25,25,26,26,27,27,28,28,29,29,30,30,31,31,33,33,34,34,35,35,36,36,37,37,38,38,39,39,40,40,41,41,42,42],"right_children":[2,4,6,8,10,12,-1,14,16,18,20,22,-1,24,26,28,30,32,34,36,38,40,42,44,46,48,50,52,54,56,58,60,-1,62,64,66,68,70,72,74,76,78,80,-1,-1,-1,-1,-1,-1,-1,-1,-1,-1,-1,-1,-1,-1,-1,-1,-1,-1,-1,-1,-1,-1,-1,-1,-1,-1,-1,-1,-1,-1,-1,-1,-1,-1,-1,-1,-1,-1],"split_conditions":[2.0247417E1,6.6E1,7.2E1,5.6E1,1.5256526E1,7.9E1,4.4080515E0,3.1E1,7.1E1,1.4997108E2,5.212583E0,1.2683278E2,4.3201175E0,8.7E0,2.4031178E1,1.0880372E2,1.4000001E0,7.3E1,1E-1,5E-1,6.068833E0,9.4040436E1,5.4E1,1.721675E1,4.7E1,8.595918E0,4.664865E1,1.4168641E1,4.4398376E1,2.0082708E1,5.7E1,2.048E0,-2.0316303E0,1.0587917E1,7E1,1.8462894E2,2.2274329E2,8.3E1,3.2E1,1.803237E1,2.1991165E1,1.7917007E1,2.7E0,-4.6766493E-2,-4.193964E-1,-5.707295E-1,-2.1122932E0,7.323416E-1,4.085105E-2,-1.5764829E0,-1.6527335E-3,5.628563E-1,-2.2246618E0,-5.9435225E-1,2.230586E0,2.0140743E0,4.37284E-1,1.0700596E-1,-2.5029624E0,2.2793847E-1,1.7575928E0,5.4602053E-2,3.3555703E0,5.282036E-1,5.347824E-3,-3.8016078E-1,-2.7032502E0,9.112875E-1,-6.935658E-1,3.505407E0,-8.363604E-1,-2.154311E0,3.2799464E-1,1.5827134E0,1.9636038E-1,-1.5053881E0,3.716307E-1,1.4424852E-1,1.2516586E0,-2.4229299E-1,1.4000329E0],"split_indices":[3,0,2,1,5,1,0,0,2,6,3,6,0,4,5,6,4,2,4,4,3,6,2,3,2,3,6,5,5,5,0,3,0,5,0,6,6,1,1,5,3,5,4,0,0,0,0,0,0,0,0,0,0,0,0,0,0,0,0,0,0,0,0,0,0,0,0,0,0,0,0,0,0,0,0,0,0,0,0,0,0],"split_type":[0,0,0,0,0,0,0,0,0,0,0,0,0,0,0,0,0,0,0,0,0,0,0,0,0,0,0,0,0,0,0,0,0,0,0,0,0,0,0,0,0,0,0,0,0,0,0,0,0,0,0,0,0,0,0,0,0,0,0,0,0,0,0,0,0,0,0,0,0,0,0,0,0,0,0,0,0,0,0,0,0],"sum_hessian":[2.981E3,2.863E3,1.18E2,2.645E3,2.18E2,1.16E2,2E0,2.374E3,2.71E2,2E1,1.98E2,1.15E2,1E0,1.329E3,1.045E3,2.07E2,6.4E1,7E0,1.3E1,7.4E1,1.24E2,4E1,7.5E1,1.257E3,7.2E1,5.23E2,5.22E2,3.1E1,1.76E2,3.9E1,2.5E1,5E0,2E0,1E1,3E0,3.3E1,4.1E1,1.8E1,1.06E2,1.8E1,2.2E1,5.6E1,1.9E1,1.118E3,1.39E2,6.8E1,4E0,2.02E2,3.21E2,1.2E1,5.1E2,4E0,2.7E1,1.71E2,5E0,1.3E1,2.6E1,2E1,5E0,2E0,3E0,1E0,9E0,2E0,1E0,2E1,1.3E1,2.9E1,1.2E1,1.4E1,4E0,4E0,1.02E2,6E0,1.2E1,1E1,1.2E1,1.4E1,4.2E1,1.7E1,2E0],"tree_param":{"num_deleted":"0","num_feature":"7","num_nodes":"81","size_leaf_vector":"1"}},{"base_weights":[1.8006528E-2,-1.0141178E-1,1.2739041E0,2.1112226E-1,-5.8397937E-1,1.0866907E0,3.1701016E0,4.64476E-1,-1.6650242E0,-8.556769E-1,7.049848E-1,9.9458843E-1,3.6721003E0,-1.162315E0,8.693833E-1,-1.9564761E0,4.640468E0,-1.9645381E0,-4.6101105E-1,1.6122425E0,-1.9558704E0,7.0280755E-1,4.039605E0,8.6857384E-1,-1.6607305E0,-9.525467E0,9.312547E-1,-3.0152965E0,-1.5427732E-1,8.583698E0,-2.434494E0,-3.0218916E0,5.2564985E-1,2.5404541E0,-7.62905E-1,-1.1254323E0,3.0987422E0,2.017098E0,-4.865744E0,8.0401033E-1,-2.197223E0,5.78899E0,-5.3607506E-1,-3.8405272E-1,2.5215087E0,-4.0091804E-1,-1.4660394E0,-4.2736297E0,4.5488894E-1,4.0883014E-1,-1.279459E-1,2.1110594E0,-1.0278382E0,-2.0407696E-1,3.598401E0,-4.9541625E-1,3.288298E0,-1.1265965E0,2.2919828E-1,-7.479585E-1,-3.8861237E0,-5.1241124E-1,1.0172613E0,-2.962931E-1,1.8304422E0,-2.9935476E-1,6.188384E-1,-7.0007175E-1,7.4778783E-1,1.3603892E0,-1.4183846E-1,1.7413435E0,-3.921431E-1,-1.869144E0,1.4640865E0,3.628183E-1,-3.312288E-1,1.0897311E0,4.1769724E0,-9.5953083E-1,3.5056698E-1],"categories":[],"categories_nodes":[],"categories_segments":[],"categories_sizes":[],"default_left":[0,0,0,0,0,0,0,0,0,0,0,0,0,0,0,0,0,0,0,0,0,0,0,0,0,0,0,0,0,0,0,0,0,0,0,0,0,0,0,0,0,0,0,0,0,0,0,0,0,0,0,0,0,0,0,0,0,0,0,0,0,0,0,0,0,0,0,0,0,0,0,0,0,0,0,0,0,0,0,0,0],"id":12,"left_children":[1,3,5,7,9,11,-1,13,15,17,19,21,-1,23,25,27,29,31,33,35,37,39,41,43,45,47,49,51,53,55,57,59,61,63,65,67,69,71,73,75,-1,77,79,-1,-1,-1,-1,-1,-1,-1,-1,-1,-1,-1,-1,-1,-1,-1,-1,-1,-1,-1,-1,-1,-1,-1,-1,-1,-1,-1,-1,-1,-1,-1,-1,-1,-1,-1,-1,-1,-1],"loss_changes":[4.473611E2,4.109537E2,4.3912323E2,7.86967E2,3.7567645E2,2.4978125E2,0E0,9.613943E2,3.7111536E2,3.863966E2,4.5458652E2,2.2283432E2,0E0,2.9600043E2,7.600627E2,3.6018555E2,2.7198077E2,6.1244653E2,5.945434E2,5.7322485E2,5.6473486E2,1.9516455E2,1.7920511E2,9.500092E2,2.383114E2,3.8641742E2,6.813762E2,5.155476E2,4.6185608E2,1.6409177E2,1.9767649E1,8.2360706E2,4.5379224E2,7.598436E2,3.97068E2,2.2437279E2,4.688219E2,2.7198077E2,4.0282764E2,1.8001743E2,0E0,2.3009576E2,3.5505966E1,0E0,0E0,0E0,0E0,0E0,0E0,0E0,0E0,0E0,0E0,0E0,0E0,0E0,0E0,0E0,0E0,0E0,0E0,0E0,0E0,0E0,0E0,0E0,0E0,0E0,0E0,0E0,0E0,0E0,0E0,0E0,0E0,0E0,0E0,0E0,0E0,0E0,0E0],"parents":[2147483647,0,0,1,1,2,2,3,3,4,4,5,5,7,7,8,8,9,9,10,10,11,11,13,13,14,14,15,15,16,16,17,17,18,18,19,19,20,20,21,21,22,22,23,23,24,24,25,25,26,26,27,27,28,28,29,29,30,30,31,31,32,32,33,33,34,34,35,35,36,36,37,37,38,38,39,39,41,41,42,42],"right_children":[2,4,6,8,10,12,-1,14,16,18,20,22,-1,24,26,28,30,32,34,36,38,40,42,44,46,48,50,52,54,56,58,60,62,64,66,68,70,72,74,76,-1,78,80,-1,-1,-1,-1,-1,-1,-1,-1,-1,-1,-1,-1,-1,-1,-1,-1,-1,-1,-1,-1,-1,-1,-1,-1,-1,-1,-1,-1,-1,-1,-1,-1,-1,-1,-1,-1,-1,-1],"split_conditions":[1.8503666E1,1.0981334E1,7.2E1,3.0515515E2,5E1,7.9E1,3.1701016E0,9.4040436E1,1.0429252E1,1.3431332E1,2.0000002E0,4.9E0,3.6721003E0,1.6299694E1,5E0,3.3484692E2,4.7E1,2.654451E2,1.4172999E1,4.3E1,4.2E1,4.4E0,2.7729347E1,4E-1,6.6E1,4.5063324E0,3.492E1,1.0931203E1,7.8E1,6E0,4.8E1,5.2E1,2.7E1,6E-1,7.9E0,1.5885497E1,1.6918833E1,4.1E1,3.979262E1,5.4E1,-2.197223E0,2.4464113E1,3.0312773E1,-3.8405272E-1,2.5215087E0,-4.0091804E-1,-1.4660394E0,-4.2736297E0,4.5488894E-1,4.0883014E-1,-1.279459E-1,2.1110594E0,-1.0278382E0,-2.0407696E-1,3.598401E0,-4.9541625E-1,3.288298E0,-1.1265965E0,2.2919828E-1,-7.479585E-1,-3.8861237E0,-5.1241124E-1,1.0172613E0,-2.962931E-1,1.8304422E0,-2.9935476E-1,6.188384E-1,-7.0007175E-1,7.4778783E-1,1.3603892E0,-1.4183846E-1,1.7413435E0,-3.921431E-1,-1.869144E0,1.4640865E0,3.628183E-1,-3.312288E-1,1.0897311E0,4.1769724E0,-9.5953083E-1,3.5056698E-1],"split_indices":[3,3,2,6,2,1,0,6,3,3,4,4,0,5,1,6,1,6,3,0,0,4,5,4,1,3,5,5,0,0,0,1,1,4,4,3,3,1,5,2,0,5,5,0,0,0,0,0,0,0,0,0,0,0,0,0,0,0,0,0,0,0,0,0,0,0,0,0,0,0,0,0,0,0,0,0,0,0,0,0,0],"split_type":[0,0,0,0,0,0,0,0,0,0,0,0,0,0,0,0,0,0,0,0,0,0,0,0,0,0,0,0,0,0,0,0,0,0,0,0,0,0,0,0,0,0,0,0,0,0,0,0,0,0,0,0,0,0,0,0,0,0,0,0,0,0,0,0,0,0,0,0,0,0,0,0,0,0,0,0,0,0,0,0,0],"sum_hessian":[2.981E3,2.723E3,2.58E2,1.653E3,1.07E3,2.54E2,4E0,1.457E3,1.96E2,8.84E2,1.86E2,2.53E2,1E0,2.9E2,1.167E3,1.88E2,8E0,2.31E2,6.53E2,1.39E2,4.7E1,2.32E2,2.1E1,5.7E1,2.33E2,6E0,1.161E3,1.18E2,7E1,5E0,3E0,1.62E2,6.9E1,5.9E1,5.94E2,4.9E1,9E1,2E1,2.7E1,2.3E2,2E0,1.5E1,6E0,4.5E1,1.2E1,2.13E2,2E1,4E0,2E0,8.81E2,2.8E2,4E0,1.14E2,6.8E1,2E0,1E0,4E0,2E0,1E0,1.55E2,7E0,3.9E1,3E1,3E1,2.9E1,5.49E2,4.5E1,3.7E1,1.2E1,6.4E1,2.6E1,9E0,1.1E1,2.4E1,3E0,1.9E2,4E1,1.3E1,2E0,2E0,4E0],"tree_param":{"num_deleted":"0","num_feature":"7","num_nodes":"81","size_leaf_vector":"1"}},{"base_weights":[1.6754553E-2,-8.649246E-1,1.20106176E-1,-6.491342E-1,-2.9557984E0,-6.673458E0,1.3791205E-1,-9.026986E-1,3.9752038E0,-6.4812E0,-1.3041594E0,1.0295323E0,-3.420572E0,1.09363735E-1,3.0302613E0,-2.3466282E0,-4.8098102E-1,8.305467E0,-2.1601627E0,-2.0823781E0,-4.2010835E-1,-4.500632E0,1.4682478E0,1.6989875E-1,-1.3531661E0,6.7147355E0,-1.1933568E-1,-1.3863765E0,-6.1521244E0,3.278915E0,-6.424696E-1,1.7229414E-1,1.2343336E1,-4.803779E0,1.0234945E0,-5.089606E0,1.2002006E-1,-1.9886576E0,5.256596E0,1.09288916E-1,1.7426575E0,-3.5430763E0,3.4831774E-1,8.67361E0,6.285858E-1,1.6107469E0,-1.376731E0,-2.3014691E-1,-1.3624163E0,3.0597296E-1,-2.0690541E0,9.8196447E-1,-2.6296172E-1,5.7705146E-1,-3.1578332E-1,4.465595E0,-5.4983858E-2,-1.8294533E0,-1.3808757E-1,4.7188273E-1,-9.37274E-2,-4.274879E-1,-1.6108701E0,-1.0767812E0,4.0257496E-1,2.3321395E0,4.443846E-2,3.1185883E-1,-4.965548E-3,2.920543E-1,3.348881E0,1.6107789E0,-1.2869202E0,1.5532357E0,-4.1293445E-1,2.9297705E0,-9.709168E-3,-5.341156E-1,1.1783249E0,-7.1380514E-1,1.5982052E0],"categories":[],"categories_nodes":[],"categories_segments":[],"categories_sizes":[],"default_left":[0,0,0,0,0,0,0,0,0,0,0,0,0,0,0,0,0,0,0,0,0,0,0,0,0,0,0,0,0,0,0,0,0,0,0,0,0,0,0,0,0,0,0,0,0,0,0,0,0,0,0,0,0,0,0,0,0,0,0,0,0,0,0,0,0,0,0,0,0,0,0,0,0,0,0,0,0,0,0,0,0],"id":13,"left_children":[1,3,5,7,9,11,13,15,17,19,21,-1,-1,23,25,27,29,31,33,-1,-1,35,37,39,41,43,45,47,49,-1,51,53,55,57,59,61,-1,63,65,67,69,71,73,75,77,-1,79,-1,-1,-1,-1,-1,-1,-1,-1,-1,-1,-1,-1,-1,-1,-1,-1,-1,-1,-1,-1,-1,-1,-1,-1,-1,-1,-1,-1,-1,-1,-1,-1,-1,-1],"loss_changes":[2.7183258E2,1.3930388E2,3.2389783E2,3.3777005E2,1.6040553E2,3.736032E2,2.1963957E2,1.6389148E2,4.1645734E2,1.1317139E1,1.9270844E2,0E0,0E0,2.3387183E2,3.0252112E2,2.1437915E2,3.9583112E2,2.9343958E2,6.383122E1,0E0,0E0,3.0900024E1,1.676051E2,2.4145755E2,3.9247427E2,1.3761194E2,1.1090993E2,9.419838E1,7.1128265E1,0E0,1.9442636E2,1.060497E1,1.9378241E2,1.9681877E1,3.4274983E0,1.5821991E0,0E0,4.2133224E1,7.600275E1,2.8588297E2,6.7021387E2,3.2913812E2,5.0687405E2,8.5901245E1,3.878327E1,0E0,1.0005698E2,0E0,0E0,0E0,0E0,0E0,0E0,0E0,0E0,0E0,0E0,0E0,0E0,0E0,0E0,0E0,0E0,0E0,0E0,0E0,0E0,0E0,0E0,0E0,0E0,0E0,0E0,0E0,0E0,0E0,0E0,0E0,0E0,0E0,0E0],"parents":[2147483647,0,0,1,1,2,2,3,3,4,4,5,5,6,6,7,7,8,8,9,9,10,10,13,13,14,14,15,15,16,16,17,17,18,18,21,21,22,22,23,23,24,24,25,25,26,26,27,27,28,28,30,30,31,31,32,32,33,33,34,34,35,35,37,37,38,38,39,39,40,40,41,41,42,42,43,43,44,44,46,46],"right_children":[2,4,6,8,10,12,14,16,18,20,22,-1,-1,24,26,28,30,32,34,-1,-1,36,38,40,42,44,46,48,50,-1,52,54,56,58,60,62,-1,64,66,68,70,72,74,76,78,-1,80,-1,-1,-1,-1,-1,-1,-1,-1,-1,-1,-1,-1,-1,-1,-1,-1,-1,-1,-1,-1,-1,-1,-1,-1,-1,-1,-1,-1,-1,-1,-1,-1,-1,-1],"split_conditions":[1.5E1,4.6E1,6E0,3.7E1,2.3469128E1,2.1E1,1.04E2,1.350001E2,2.619649E2,2.9294342E2,1.1E1,1.0295323E0,-3.420572E0,7.5E1,6.5E1,1.1103458E2,1.4095229E2,1.3E1,9.1616654E-1,-2.0823781E0,-4.2010835E-1,2.7719907E2,2.6E1,7.1E1,5.457834E0,1.45E2,1.2245293E1,3.244996E1,7E0,3.278915E0,6E0,2.1915693E1,3.3E1,1E-1,2.5E1,-3.0165837E0,1.2002006E-1,6.2E1,2.1184238E2,2.3896666E0,3.8999999E0,3.9E1,7.1563325E0,1.149175E1,1.59E2,1.6107469E0,3.1219125E2,-2.3014691E-1,-1.3624163E0,3.0597296E-1,-2.0690541E0,9.8196447E-1,-2.6296172E-1,5.7705146E-1,-3.1578332E-1,4.465595E0,-5.4983858E-2,-1.8294533E0,-1.3808757E-1,4.7188273E-1,-9.37274E-2,-4.274879E-1,-1.6108701E0,-1.0767812E0,4.0257496E-1,2.3321395E0,4.443846E-2,3.1185883E-1,-4.965548E-3,2.920543E-1,3.348881E0,1.6107789E0,-1.2869202E0,1.5532357E0,-4.1293445E-1,2.9297705E0,-9.709168E-3,-5.341156E-1,1.1783249E0,-7.1380514E-1,1.5982052E0],"split_indices":[0,2,1,2,5,0,0,6,6,6,0,0,0,1,2,6,6,1,3,0,0,6,1,2,3,0,5,5,2,0,1,5,1,4,1,3,0,2,6,3,4,2,3,3,0,0,6,0,0,0,0,0,0,0,0,0,0,0,0,0,0,0,0,0,0,0,0,0,0,0,0,0,0,0,0,0,0,0,0,0,0],"split_type":[0,0,0,0,0,0,0,0,0,0,0,0,0,0,0,0,0,0,0,0,0,0,0,0,0,0,0,0,0,0,0,0,0,0,0,0,0,0,0,0,0,0,0,0,0,0,0,0,0,0,0,0,0,0,0,0,0,0,0,0,0,0,0,0,0,0,0,0,0,0,0,0,0,0,0,0,0,0,0,0,0],"sum_hessian":[2.981E3,3.12E2,2.669E3,2.84E2,2.8E1,6E0,2.663E3,2.7E2,1.4E1,8E0,2E1,2E0,4E0,2.638E3,2.5E1,6E1,2.1E2,8E0,6E0,7E0,1E0,9E0,1.1E1,2.534E3,1.04E2,1.1E1,1.4E1,4.9E1,1.1E1,2E0,2.08E2,3E0,5E0,3E0,3E0,8E0,1E0,6E0,5E0,2.441E3,9.3E1,4.5E1,5.9E1,8E0,3E0,2E0,1.2E1,4.2E1,7E0,1E0,1E1,1.1E1,1.97E2,1E0,2E0,4E0,1E0,2E0,1E0,2E0,1E0,1E0,7E0,4E0,2E0,3E0,2E0,2.9E2,2.151E3,8.7E1,6E0,3E0,4.2E1,1.5E1,4.4E1,7E0,1E0,2E0,1E0,1.1E1,1E0],"tree_param":{"num_deleted":"0","num_feature":"7","num_nodes":"81","size_leaf_vector":"1"}},{"base_weights":[1.5110995E-2,-7.171783E-2,9.2826396E-1,-1.5147837E-1,7.897302E-1,8.0021656E-1,8.8912325E0,-2.4336802E-2,-1.282538E0,9.3608606E-1,-3.1936042E0,7.2013307E-1,3.1832247E0,3.0477743E0,7.6307833E-1,6.351658E-2,-1.1239451E0,-2.4929774E0,-1.980245E-1,6.271954E-1,7.0007205E0,4.963503E-1,3.0676348E0,-1.9676633E-2,1.7445598E0,-6.552682E-1,-9.226947E0,-1.4796065E0,-6.244068E0,1.224759E0,-2.6911132E0,8.946113E-1,-1.0997127E1,3.4564426E0,2.7715068E0,6.0491055E-2,1.8179147E0,1.2893592E-1,4.7376814E0,3.081205E-1,-5.247547E-2,-1.5888143E0,7.03303E-1,-8.356859E-3,-1.2471474E0,-3.1147935E0,2.7957917E-3,-1.4490654E0,1.9745108E-2,-3.401986E-1,-2.714283E0,-3.1570366E-1,1.1249062E0,-1.2048807E0,1.3807029E0,3.6673316E-1,-1.1698333E0,-3.6232018E0,-1.0014416E0,1.4661262E0,-5.0348896E-1,-4.3987402E-1,1.5946166E-1,8.686721E-1,-3.5757387E-1,6.414114E-1,-2.2515818E-1,3.7530544E0,7.1992505E-1],"categories":[],"categories_nodes":[],"categories_segments":[],"categories_sizes":[],"default_left":[0,0,0,0,0,0,0,0,0,0,0,0,0,0,0,0,0,0,0,0,0,0,0,0,0,0,0,0,0,0,0,0,0,0,0,0,0,0,0,0,0,0,0,0,0,0,0,0,0,0,0,0,0,0,0,0,0,0,0,0,0,0,0,0,0,0,0,0,0],"id":14,"left_children":[1,3,5,7,9,11,13,15,17,19,-1,21,-1,-1,-1,23,25,27,29,31,33,35,37,39,41,43,45,47,49,51,53,55,57,-1,59,61,63,65,67,-1,-1,-1,-1,-1,-1,-1,-1,-1,-1,-1,-1,-1,-1,-1,-1,-1,-1,-1,-1,-1,-1,-1,-1,-1,-1,-1,-1,-1,-1],"loss_changes":[2.3650339E2,1.8728444E2,2.5697122E2,3.5861774E2,3.9656442E2,1.9348814E2,6.3545837E0,2.1675485E2,3.3031628E2,4.2459692E2,0E0,1.3243665E2,0E0,0E0,0E0,2.9064554E2,6.243704E2,4.4310956E2,4.7861078E2,6.9060583E2,1.7837982E2,1.346778E2,1.0735997E2,3.2208887E2,4.2625406E2,3.470304E2,9.616583E1,4.9223865E2,3.4789758E2,4.9840512E2,4.920674E2,3.4267108E2,1.0508423E0,0E0,7.4099396E1,1.2807182E2,1.9157816E2,1.7507038E1,2.2438068E2,0E0,0E0,0E0,0E0,0E0,0E0,0E0,0E0,0E0,0E0,0E0,0E0,0E0,0E0,0E0,0E0,0E0,0E0,0E0,0E0,0E0,0E0,0E0,0E0,0E0,0E0,0E0,0E0,0E0,0E0],"parents":[2147483647,0,0,1,1,2,2,3,3,4,4,5,5,6,6,7,7,8,8,9,9,11,11,15,15,16,16,17,17,18,18,19,19,20,20,21,21,22,22,23,23,24,24,25,25,26,26,27,27,28,28,29,29,30,30,31,31,32,32,34,34,35,35,36,36,37,37,38,38],"right_children":[2,4,6,8,10,12,14,16,18,20,-1,22,-1,-1,-1,24,26,28,30,32,34,36,38,40,42,44,46,48,50,52,54,56,58,-1,60,62,64,66,68,-1,-1,-1,-1,-1,-1,-1,-1,-1,-1,-1,-1,-1,-1,-1,-1,-1,-1,-1,-1,-1,-1,-1,-1,-1,-1,-1,-1,-1,-1],"split_conditions":[1.8503666E1,6.5E1,7.4E1,5.6E1,3.5497397E2,7.9E1,1E-1,3.2014163E2,2.3803596E1,3.2533972E2,-3.1936042E0,4.9E0,3.1832247E0,3.0477743E0,7.6307833E-1,6.1E1,5.6E1,1.8000001E0,3.3549606E1,3.2014163E2,3.3692236E2,2.7113098E2,2.7E1,2.3896666E0,5.7961426E1,3.0619051E1,5.5E1,4.9E1,4.2E1,2.7729347E1,4.4398376E1,3.4679794E1,7.4E1,3.4564426E0,2.4590923E1,2.7E1,5.3E1,1.7E1,3.6E1,3.081205E-1,-5.247547E-2,-1.5888143E0,7.03303E-1,-8.356859E-3,-1.2471474E0,-3.1147935E0,2.7957917E-3,-1.4490654E0,1.9745108E-2,-3.401986E-1,-2.714283E0,-3.1570366E-1,1.1249062E0,-1.2048807E0,1.3807029E0,3.6673316E-1,-1.1698333E0,-3.6232018E0,-1.0014416E0,1.4661262E0,-5.0348896E-1,-4.3987402E-1,1.5946166E-1,8.686721E-1,-3.5757387E-1,6.414114E-1,-2.2515818E-1,3.7530544E0,7.1992505E-1],"split_indices":[3,0,2,1,6,1,4,6,5,6,0,4,0,0,0,2,0,4,5,6,6,6,0,3,6,5,1,2,0,5,5,5,0,0,5,1,2,2,0,0,0,0,0,0,0,0,0,0,0,0,0,0,0,0,0,0,0,0,0,0,0,0,0,0,0,0,0,0,0],"split_type":[0,0,0,0,0,0,0,0,0,0,0,0,0,0,0,0,0,0,0,0,0,0,0,0,0,0,0,0,0,0,0,0,0,0,0,0,0,0,0,0,0,0,0,0,0,0,0,0,0,0,0,0,0,0,0,0,0,0,0,0,0,0,0,0,0,0,0,0,0],"sum_hessian":[2.981E3,2.723E3,2.58E2,2.493E3,2.3E2,2.55E2,3E0,2.242E3,2.51E2,2.28E2,2E0,2.54E2,1E0,2E0,1E0,2.077E3,1.65E2,1.18E2,1.33E2,2.18E2,1E1,2.33E2,2.1E1,1.98E3,9.7E1,1.57E2,8E0,9.4E1,2.4E1,8.5E1,4.8E1,2.14E2,4E0,4E0,6E0,1.76E2,5.7E1,8E0,1.3E1,2.55E2,1.725E3,7E0,9E1,1.34E2,2.3E1,7E0,1E0,2.9E1,6.5E1,9E0,1.5E1,4.5E1,4E1,4.1E1,7E0,2.01E2,1.3E1,3E0,1E0,4E0,2E0,4.1E1,1.35E2,4.2E1,1.5E1,2E0,6E0,2E0,1.1E1],"tree_param":{"num_deleted":"0","num_feature":"7","num_nodes":"69","size_leaf_vector":"1"}},{"base_weights":[1.0381569E-2,-1.5261555E0,5.435474E-2,-6.7159575E-1,-5.0626497E0,3.684441E0,-5.444988E-3,1.2900961E-2,-4.219706E0,-7.758706E0,-4.8790413E-1,1.5088784E0,1.41017E1,2.8504923E-2,-1.7663386E0,3.6138635E0,-1.0050428E0,2.2714615E-1,-6.793214E0,-9.040516E0,-1.7543119E0,4.5954E0,-1.6347697E0,3.2515414E0,-3.38101E0,8.0852E0,1.0021874E0,-1.379251E-2,1.3967897E0,-3.368188E0,9.112428E-1,-2.6806273E0,6.7092624E0,-3.182477E-1,-4.2275386E0,-1.22428E0,4.808571E-1,-4.4441006E-1,-2.586504E0,-2.912619E0,-6.544533E-1,5.790133E-1,-1.3684536E0,1.9551071E0,-1.7542076E-1,1.3292043E0,8.371819E0,2.088327E0,-6.8046775E0,-5.440519E-1,1.8397442E0,-1.6590091E0,2.0179227E-2,1.1701832E0,3.0307698E0,-1.002639E0,-5.4151955E0,-1.9105417E0,3.650187E0,5.239182E-2,-1.3927056E0,2.3772023E0,-4.5130408E-1,-2.3114859E-1,1.6096665E0,-1.3821049E0,-2.3567934E-1,-4.2673305E-2,-5.0825274E-1,-5.8188367E-1,1.5214543E0,3.1077983E0,1.138343E0,-7.700205E-2,1.1211655E0,-2.6615267E0,-9.1092914E-1,-1.4432365E0,-1.070467E-1,1.2474636E-1,-4.288576E-2,-2.3494993E-1,4.8377588E-1,-6.24105E-1,1.4160386E0,-2.1311853E0,-5.23976E-1,9.5578825E-1,-1.0191281E0,1.7557801E0,-4.8968583E-2],"categories":[],"categories_nodes":[],"categories_segments":[],"categories_sizes":[],"default_left":[0,0,0,0,0,0,0,0,0,0,0,0,0,0,0,0,0,0,0,0,0,0,0,0,0,0,0,0,0,0,0,0,0,0,0,0,0,0,0,0,0,0,0,0,0,0,0,0,0,0,0,0,0,0,0,0,0,0,0,0,0,0,0,0,0,0,0,0,0,0,0,0,0,0,0,0,0,0,0,0,0,0,0,0,0,0,0,0,0,0,0],"id":15,"left_children":[1,3,5,7,9,11,13,15,17,19,21,23,25,27,29,31,33,35,37,39,41,43,-1,45,47,-1,49,51,53,55,57,59,61,63,65,67,-1,-1,-1,-1,-1,-1,-1,-1,-1,69,71,73,75,-1,-1,77,79,81,-1,83,85,87,89,-1,-1,-1,-1,-1,-1,-1,-1,-1,-1,-1,-1,-1,-1,-1,-1,-1,-1,-1,-1,-1,-1,-1,-1,-1,-1,-1,-1,-1,-1,-1,-1],"loss_changes":[2.0156596E2,2.4743802E2,6.2954675E2,1.6520398E2,1.9355487E2,1.0439022E3,1.706687E2,2.1623558E2,1.2742714E2,6.110504E1,2.0158096E2,3.518506E2,1.3195121E3,1.6212697E2,2.3467966E2,2.7127652E2,1.00461525E2,1.194606E1,5.521582E1,1.5486572E1,3.9832096E1,4.362783E1,0E0,2.8415912E2,2.201875E2,0E0,8.334796E1,1.5194485E2,1.5389215E2,1.5920853E2,1.6927675E2,2.881697E1,1.0171741E2,1.0438308E2,6.8298492E0,1.2843447E0,0E0,0E0,0E0,0E0,0E0,0E0,0E0,0E0,0E0,2.9119403E2,3.3471863E1,2.02925E1,2.7586365E1,0E0,0E0,2.2401468E2,1.7199875E2,7.298885E1,0E0,1.1466684E2,9.910925E1,9.416136E1,9.33412E1,0E0,0E0,0E0,0E0,0E0,0E0,0E0,0E0,0E0,0E0,0E0,0E0,0E0,0E0,0E0,0E0,0E0,0E0,0E0,0E0,0E0,0E0,0E0,0E0,0E0,0E0,0E0,0E0,0E0,0E0,0E0,0E0],"parents":[2147483647,0,0,1,1,2,2,3,3,4,4,5,5,6,6,7,7,8,8,9,9,10,10,11,11,12,12,13,13,14,14,15,15,16,16,17,17,18,18,19,19,20,20,21,21,23,23,24,24,26,26,27,27,28,28,29,29,30,30,31,31,32,32,33,33,34,34,35,35,45,45,46,46,47,47,48,48,51,51,52,52,53,53,55,55,56,56,57,57,58,58],"right_children":[2,4,6,8,10,12,14,16,18,20,22,24,26,28,30,32,34,36,38,40,42,44,-1,46,48,-1,50,52,54,56,58,60,62,64,66,68,-1,-1,-1,-1,-1,-1,-1,-1,-1,70,72,74,76,-1,-1,78,80,82,-1,84,86,88,90,-1,-1,-1,-1,-1,-1,-1,-1,-1,-1,-1,-1,-1,-1,-1,-1,-1,-1,-1,-1,-1,-1,-1,-1,-1,-1,-1,-1,-1,-1,-1,-1],"split_conditions":[-9.6449995E-1,4.1E1,2.0841666E-1,-1.2353336E0,1.33618E2,1.9000001E0,1.24E1,1.8837324E1,1.5484185E1,-1.8207499E0,1.94436E2,2.4144167E1,2.6E1,2.090008E1,1.3431332E1,1.2245293E1,3.399475E1,1.4773164E1,5.7961426E1,5.7E1,5.8E1,5.1E1,-1.6347697E0,4.1E1,2.4E1,8.0852E0,7.2E1,2.4034279E1,7.9E1,2.3E1,2.7E1,1.0931203E1,3.001305E2,3.2750107E1,2.3E1,2.4E1,4.808571E-1,-4.4441006E-1,-2.586504E0,-2.912619E0,-6.544533E-1,5.790133E-1,-1.3684536E0,1.9551071E0,-1.7542076E-1,-3.796668E-1,1E-1,2.1E1,3.7E1,-5.440519E-1,1.8397442E0,2.8604994E0,1.7135619E2,1.01332535E2,3.0307698E0,2.2E1,4.3832863E1,1.4958416E1,2.49E1,5.239182E-2,-1.3927056E0,2.3772023E0,-4.5130408E-1,-2.3114859E-1,1.6096665E0,-1.3821049E0,-2.3567934E-1,-4.2673305E-2,-5.0825274E-1,-5.8188367E-1,1.5214543E0,3.1077983E0,1.138343E0,-7.700205E-2,1.1211655E0,-2.6615267E0,-9.1092914E-1,-1.4432365E0,-1.070467E-1,1.2474636E-1,-4.288576E-2,-2.3494993E-1,4.8377588E-1,-6.24105E-1,1.4160386E0,-2.1311853E0,-5.23976E-1,9.5578825E-1,-1.0191281E0,1.7557801E0,-4.8968583E-2],"split_indices":[3,0,3,3,6,4,4,5,5,3,6,5,2,3,3,5,5,5,6,1,0,1,0,2,0,0,0,6,0,0,0,5,6,5,0,0,0,0,0,0,0,0,0,0,0,3,4,1,1,0,0,3,6,6,0,0,5,3,4,0,0,0,0,0,0,0,0,0,0,0,0,0,0,0,0,0,0,0,0,0,0,0,0,0,0,0,0,0,0,0,0],"split_type":[0,0,0,0,0,0,0,0,0,0,0,0,0,0,0,0,0,0,0,0,0,0,0,0,0,0,0,0,0,0,0,0,0,0,0,0,0,0,0,0,0,0,0,0,0,0,0,0,0,0,0,0,0,0,0,0,0,0,0,0,0,0,0,0,0,0,0,0,0,0,0,0,0,0,0,0,0,0,0,0,0,0,0,0,0,0,0,0,0,0,0],"sum_hessian":[2.981E3,8.2E1,2.899E3,6.7E1,1.5E1,4.6E1,2.853E3,5.7E1,1E1,9E0,6E0,3.9E1,7E0,2.8E3,5.3E1,1.2E1,4.5E1,4E0,6E0,7E0,2E0,3E0,3E0,2.9E1,1E1,3E0,4E0,2.717E3,8.3E1,3.3E1,2E1,4E0,8E0,3.8E1,7E0,2E0,2E0,2E0,4E0,6E0,1E0,1E0,1E0,2E0,1E0,2.2E1,7E0,4E0,6E0,3E0,1E0,5.4E1,2.663E3,8.2E1,1E0,1.6E1,1.7E1,1E1,1E1,2E0,2E0,7E0,1E0,3.6E1,2E0,6E0,1E0,1E0,1E0,1.2E1,1E1,4E0,3E0,2E0,2E0,3E0,3E0,1.5E1,3.9E1,7.77E2,1.886E3,1.5E1,6.7E1,1.4E1,2E0,1.1E1,6E0,2E0,8E0,6E0,4E0],"tree_param":{"num_deleted":"0","num_feature":"7","num_nodes":"91","size_leaf_vector":"1"}},{"base_weights":[9.500804E-3,-4.7570327E-1,1.13130845E-1,1.2266846E0,-8.891081E-1,9.39835E-1,-8.073661E-2,1.913197E0,-2.6258016E0,-5.5926766E0,-7.0247525E-1,-5.9426224E-1,2.0130746E0,-2.2299373E0,-1.51297925E-2,9.5489705E-1,5.3430815E0,-3.138483E0,7.596634E-1,-1.1664709E0,-8.131753E0,-1.1752906E0,8.255747E-1,-2.677533E0,8.420216E-1,3.5155609E0,3.5874826E-1,-3.6841297E0,3.772661E0,5.484798E-1,-2.8338096E-1,2.6153793E0,-1.482867E0,1.2351592E0,2.4655123E0,-4.7200356E0,-1.1646204E0,1.6083302E0,-3.6496544E0,6.9359493E-1,-2.8647165E0,-6.6018E-1,-3.7381477E0,-6.8934995E-1,3.5288513E0,-3.637575E0,3.5879617E0,2.3973825E0,-1.3789486E0,7.612731E0,1.8665271E0,-3.800991E-1,2.7782218E0,-5.763176E0,-1.3649513E0,2.1521382E0,2.375055E0,1.5843111E1,4.738297E-1,1.4041797E0,-3.956546E-1,1.5292814E-1,1.5412372E0,-4.205822E0,-1.049916E-2,-6.5671635E-1,1.818807E0,-6.1437285E-1,-1.5808278E0,-1.2083786E0,8.117009E-1,1.18273266E-1,5.644833E-1,-1.4859757E0,3.917084E-2,-4.9428186E-1,1.7075877E-1,-9.161474E-1,-3.3559704E0,1.368873E-1,-2.042063E0,3.179077E-1,2.287774E0,-6.29844E-1,-2.1902804E0,-1.3087881E0,1.7518486E0,9.713413E-1,-1.6166505E0,-1.4498799E0,1.0124908E-1,1.6866544E0,5.4861717E0,3.9227488E0,2.7684182E-1,2.9380986E-1,-7.2798157E-1,2.0072322E0,5.8523345E-1,-1.9351174E0,1.6094972E0,7.9086953E-1,-1.8999838E0,1.1245583E0,1.3893719E-1,-7.616996E-1,7.8911E0,3.0991152E-1,-8.354056E-2,2.8954158E0,1.1464972E-1,8.875249E-1,-1.4030889E-1],"categories":[],"categories_nodes":[],"categories_segments":[],"categories_sizes":[],"default_left":[0,0,0,0,0,0,0,0,0,0,0,0,0,0,0,0,0,0,0,0,0,0,0,0,0,0,0,0,0,0,0,0,0,0,0,0,0,0,0,0,0,0,0,0,0,0,0,0,0,0,0,0,0,0,0,0,0,0,0,0,0,0,0,0,0,0,0,0,0,0,0,0,0,0,0,0,0,0,0,0,0,0,0,0,0,0,0,0,0,0,0,0,0,0,0,0,0,0,0,0,0,0,0,0,0,0,0,0,0,0,0,0,0],"id":16,"left_children":[1,3,5,7,9,11,13,15,17,19,21,23,25,27,29,31,33,35,-1,37,39,41,43,45,47,49,51,53,55,57,59,61,63,65,-1,67,69,71,73,-1,-1,75,77,79,81,83,85,87,89,91,93,95,97,99,101,103,-1,105,107,109,111,-1,-1,-1,-1,-1,-1,-1,-1,-1,-1,-1,-1,-1,-1,-1,-1,-1,-1,-1,-1,-1,-1,-1,-1,-1,-1,-1,-1,-1,-1,-1,-1,-1,-1,-1,-1,-1,-1,-1,-1,-1,-1,-1,-1,-1,-1,-1,-1,-1,-1,-1,-1],"loss_changes":[1.4999391E2,3.7057275E2,3.9402203E2,2.7743597E2,3.673978E2,7.7009033E2,2.8084268E2,2.8414145E2,5.0258003E1,1.7033014E2,2.9574432E2,5.79743E2,6.822794E2,5.28906E2,2.925548E2,2.872288E2,2.1426715E2,4.1329453E1,0E0,5.410223E1,1.7009656E2,4.0942044E2,3.9967288E2,4.882475E2,4.0056305E2,9.587085E2,2.3702206E2,2.2357416E2,6.3550888E1,7.049426E2,2.4894888E2,2.2042355E2,5.258964E2,1.6204602E2,0E0,9.530182E-1,9.955289E1,5.8533096E-1,2.0358307E1,0E0,0E0,3.177704E2,2.3088873E2,4.4464072E2,3.4598932E2,3.734588E2,2.223867E2,4.624199E2,2.8620276E2,7.683594E2,1.0880927E3,2.8615625E2,8.730769E1,2.2579242E2,4.9379654E2,2.5227211E1,0E0,6.436462E2,2.619579E2,6.874698E2,2.9859192E2,0E0,0E0,0E0,0E0,0E0,0E0,0E0,0E0,0E0,0E0,0E0,0E0,0E0,0E0,0E0,0E0,0E0,0E0,0E0,0E0,0E0,0E0,0E0,0E0,0E0,0E0,0E0,0E0,0E0,0E0,0E0,0E0,0E0,0E0,0E0,0E0,0E0,0E0,0E0,0E0,0E0,0E0,0E0,0E0,0E0,0E0,0E0,0E0,0E0,0E0,0E0,0E0],"parents":[2147483647,0,0,1,1,2,2,3,3,4,4,5,5,6,6,7,7,8,8,9,9,10,10,11,11,12,12,13,13,14,14,15,15,16,16,17,17,19,19,20,20,21,21,22,22,23,23,24,24,25,25,26,26,27,27,28,28,29,29,30,30,31,31,32,32,33,33,35,35,36,36,37,37,38,38,41,41,42,42,43,43,44,44,45,45,46,46,47,47,48,48,49,49,50,50,51,51,52,52,53,53,54,54,55,55,57,57,58,58,59,59,60,60],"right_children":[2,4,6,8,10,12,14,16,18,20,22,24,26,28,30,32,34,36,-1,38,40,42,44,46,48,50,52,54,56,58,60,62,64,66,-1,68,70,72,74,-1,-1,76,78,80,82,84,86,88,90,92,94,96,98,100,102,104,-1,106,108,110,112,-1,-1,-1,-1,-1,-1,-1,-1,-1,-1,-1,-1,-1,-1,-1,-1,-1,-1,-1,-1,-1,-1,-1,-1,-1,-1,-1,-1,-1,-1,-1,-1,-1,-1,-1,-1,-1,-1,-1,-1,-1,-1,-1,-1,-1,-1,-1,-1,-1,-1,-1,-1],"split_conditions":[1.0880372E2,1.6595179E1,1.7135619E2,5.6E1,1.7418196E1,2.1626984E1,1.8069028E2,4.9E1,8E1,3.5E1,4.9E1,1.33618E2,9.783416E0,2.9E0,1E-1,6.866827E1,2.4355001E0,3.8E1,7.596634E-1,1.1150083E1,-6.770001E-1,4E1,5.3E1,6.7E1,2E-1,2.4248611E1,1.9550081E1,3.9E1,5.8E1,6E0,1.94436E2,3.9383556E1,7.156497E1,4.9887104E1,2.4655123E0,3.9383556E1,6.131333E0,5.8834167E0,1.6E1,6.9359493E-1,-2.8647165E0,8.402165E0,1.01332535E2,8.1E1,7E-1,1.9348116E1,5.1E1,6.5E1,2.8E1,2.3893261E1,1.1589596E2,3.7E1,2.2104116E1,4.8E1,5.5E1,5.6E0,2.375055E0,1E1,3.8E1,1.9803272E1,9.750834E-1,1.5292814E-1,1.5412372E0,-4.205822E0,-1.049916E-2,-6.5671635E-1,1.818807E0,-6.1437285E-1,-1.5808278E0,-1.2083786E0,8.117009E-1,1.18273266E-1,5.644833E-1,-1.4859757E0,3.917084E-2,-4.9428186E-1,1.7075877E-1,-9.161474E-1,-3.3559704E0,1.368873E-1,-2.042063E0,3.179077E-1,2.287774E0,-6.29844E-1,-2.1902804E0,-1.3087881E0,1.7518486E0,9.713413E-1,-1.6166505E0,-1.4498799E0,1.0124908E-1,1.6866544E0,5.4861717E0,3.9227488E0,2.7684182E-1,2.9380986E-1,-7.2798157E-1,2.0072322E0,5.8523345E-1,-1.9351174E0,1.6094972E0,7.9086953E-1,-1.8999838E0,1.1245583E0,1.3893719E-1,-7.616996E-1,7.8911E0,3.0991152E-1,-8.354056E-2,2.8954158E0,1.1464972E-1,8.875249E-1,-1.4030889E-1],"split_indices":[6,5,6,2,5,5,6,0,2,0,2,6,3,4,4,6,3,0,0,3,3,2,0,0,4,5,3,0,0,1,6,6,6,6,0,6,3,3,0,0,0,3,6,2,4,5,1,1,2,5,6,1,5,1,0,4,0,0,2,5,3,0,0,0,0,0,0,0,0,0,0,0,0,0,0,0,0,0,0,0,0,0,0,0,0,0,0,0,0,0,0,0,0,0,0,0,0,0,0,0,0,0,0,0,0,0,0,0,0,0,0,0,0],"split_type":[0,0,0,0,0,0,0,0,0,0,0,0,0,0,0,0,0,0,0,0,0,0,0,0,0,0,0,0,0,0,0,0,0,0,0,0,0,0,0,0,0,0,0,0,0,0,0,0,0,0,0,0,0,0,0,0,0,0,0,0,0,0,0,0,0,0,0,0,0,0,0,0,0,0,0,0,0,0,0,0,0,0,0,0,0,0,0,0,0,0,0,0,0,0,0,0,0,0,0,0,0,0,0,0,0,0,0,0,0,0,0,0,0],"sum_hessian":[2.981E3,5.24E2,2.457E3,1.02E2,4.22E2,4.66E2,1.991E3,8.7E1,1.5E1,1.5E1,4.07E2,1.92E2,2.74E2,5.8E1,1.933E3,6.9E1,1.8E1,1.4E1,1E0,6E0,9E0,3.11E2,9.6E1,7.8E1,1.14E2,1.43E2,1.31E2,4.7E1,1.1E1,6.23E2,1.31E3,4.1E1,2.8E1,8E0,1E1,7E0,7E0,3E0,3E0,1E0,8E0,2.6E2,5.1E1,6.2E1,3.4E1,6.8E1,1E1,6.7E1,4.7E1,4E1,1.03E2,1.01E2,3E1,2.4E1,2.3E1,9E0,2E0,2E0,6.21E2,8.1E1,1.229E3,2.3E1,1.8E1,2E0,2.6E1,5E0,3E0,2E0,5E0,4E0,3E0,1E0,2E0,2E0,1E0,1.44E2,1.16E2,4.8E1,3E0,5.3E1,9E0,2.2E1,1.2E1,4.9E1,1.9E1,2E0,8E0,6.1E1,6E0,1.5E1,3.2E1,3.5E1,5E0,7E0,9.6E1,6.1E1,4E1,4E0,2.6E1,2.3E1,1E0,1.3E1,1E1,4E0,5E0,1E0,1E0,3.56E2,2.65E2,8E0,7.3E1,2.5E1,1.204E3],"tree_param":{"num_deleted":"0","num_feature":"7","num_nodes":"113","size_leaf_vector":"1"}},{"base_weights":[1.1653849E-2,-4.9348223E-1,1.0045126E-1,-2.144661E0,-2.2130059E-1,-5.8863516E0,1.1459833E-1,1.6686851E0,-2.895645E0,1.6521326E-1,-1.3509759E0,8.761683E-1,-8.231846E0,2.5085952E0,9.4539195E-2,-6.9486874E-1,4.6439238E0,-5.2197194E0,-6.341599E-1,-1.7292257E-1,5.545778E0,1.1979542E0,-2.4931207E0,-2.803995E0,-5.658952E-1,6.0815773E0,-1.579763E-1,-1.6668111E0,1.4422767E-1,1.391572E0,-3.9406471E0,2.4372883E-1,1.619607E0,-2.5146143E0,-3.8519185E0,1.5564293E0,-2.1431546E0,-8.7947E-1,1.1668472E0,6.324531E0,2.0688605E0,-1.1160305E0,4.087509E0,-3.8671227E0,-1.00538E0,9.047759E-1,3.6979156E0,-2.343511E0,2.7823994E0,2.764227E-1,-5.565297E0,1.1181785E0,7.5966686E-2,9.1016866E-2,4.7633108E-1,-3.5093307E-1,-1.4223582E0,-7.897148E-1,-1.7222147E0,1.6765227E0,-3.474335E-1,1.5123215E-1,-7.5891906E-1,1.2138877E-2,-4.695921E-1,8.334823E-1,-2.1823877E-1,-9.7225994E-1,1.5143433E0,3.173484E-1,-8.8826996E-1,4.774795E0,2.3692958E-1,-1.6500927E0,-5.442957E-1,1.0374016E0,-5.147295E-1,-9.921739E-1,1.8657641E0,-1.5495929E0,1.1478894E-1,2.1535606E0,-3.6309072E-1,5.2572E-1,-1.2523633E0,-2.1283927E0,-1.4913941E-2,7.1786666E-1,-6.57777E-1,-6.0957974E-1,3.6631458E-2],"categories":[],"categories_nodes":[],"categories_segments":[],"categories_sizes":[],"default_left":[0,0,0,0,0,0,0,0,0,0,0,0,0,0,0,0,0,0,0,0,0,0,0,0,0,0,0,0,0,0,0,0,0,0,0,0,0,0,0,0,0,0,0,0,0,0,0,0,0,0,0,0,0,0,0,0,0,0,0,0,0,0,0,0,0,0,0,0,0,0,0,0,0,0,0,0,0,0,0,0,0,0,0,0,0,0,0,0,0,0,0],"id":17,"left_children":[1,3,5,7,9,11,13,15,17,19,21,-1,23,25,27,29,31,33,35,37,39,41,43,-1,-1,45,47,49,51,53,55,-1,-1,-1,57,59,61,63,65,-1,67,69,71,73,75,77,-1,79,81,83,85,87,89,-1,-1,-1,-1,-1,-1,-1,-1,-1,-1,-1,-1,-1,-1,-1,-1,-1,-1,-1,-1,-1,-1,-1,-1,-1,-1,-1,-1,-1,-1,-1,-1,-1,-1,-1,-1,-1,-1],"loss_changes":[1.338065E2,1.9996695E2,2.1554752E2,1.8524887E2,1.6789108E2,1.47981E2,1.2135329E2,8.0580414E1,2.752504E2,5.231158E2,2.8828894E2,0E0,1.7739319E1,2.010406E2,2.2008765E2,5.2888565E1,1.0073364E1,8.017444E1,9.589212E1,2.5755774E2,8.746798E2,2.1183975E2,1.3511487E2,0E0,0E0,2.7980054E2,9.006241E1,5.242596E2,1.6239911E2,5.8578396E-1,1.10849E0,0E0,0E0,0E0,3.0957336E1,1.3781169E2,1.8672485E1,1.123678E2,2.8896002E2,0E0,2.5362045E2,7.532085E1,5.3353186E2,1.0736206E2,1.1373764E2,1.5487564E2,0E0,6.3517357E1,1.1400296E2,3.160832E2,1.936576E2,6.804899E2,2.2247488E2,0E0,0E0,0E0,0E0,0E0,0E0,0E0,0E0,0E0,0E0,0E0,0E0,0E0,0E0,0E0,0E0,0E0,0E0,0E0,0E0,0E0,0E0,0E0,0E0,0E0,0E0,0E0,0E0,0E0,0E0,0E0,0E0,0E0,0E0,0E0,0E0,0E0,0E0],"parents":[2147483647,0,0,1,1,2,2,3,3,4,4,5,5,6,6,7,7,8,8,9,9,10,10,12,12,13,13,14,14,15,15,16,16,17,17,18,18,19,19,20,20,21,21,22,22,25,25,26,26,27,27,28,28,29,29,30,30,34,34,35,35,36,36,37,37,38,38,40,40,41,41,42,42,43,43,44,44,45,45,47,47,48,48,49,49,50,50,51,51,52,52],"right_children":[2,4,6,8,10,12,14,16,18,20,22,-1,24,26,28,30,32,34,36,38,40,42,44,-1,-1,46,48,50,52,54,56,-1,-1,-1,58,60,62,64,66,-1,68,70,72,74,76,78,-1,80,82,84,86,88,90,-1,-1,-1,-1,-1,-1,-1,-1,-1,-1,-1,-1,-1,-1,-1,-1,-1,-1,-1,-1,-1,-1,-1,-1,-1,-1,-1,-1,-1,-1,-1,-1,-1,-1,-1,-1,-1,-1],"split_conditions":[1.7E1,1.7418196E1,6E0,5.7961426E1,2.6E1,2.1E1,8E0,1.9925251E1,2.3389278E2,2.5E1,1.8294444E2,8.761683E-1,5E0,1.9605595E2,1.2E1,1.3E1,9E0,3.495333E0,1.3039754E1,2E0,3.9313328E0,6E-1,6.131333E0,-2.803995E0,-5.658952E-1,1.33618E2,3.1E1,2.2E1,1.7E1,1E1,1.6E1,2.4372883E-1,1.619607E0,-2.5146143E0,1.9746742E2,1.7E1,9E0,5.737583E0,4.5E0,6.324531E0,2.1907405E2,9.017775E1,1.5E0,3.9E1,6.4375834E0,7E0,3.6979156E0,8E-1,4.077166E0,2.6030615E2,1.149175E1,2.1999998E0,1.8E1,9.1016866E-2,4.7633108E-1,-3.5093307E-1,-1.4223582E0,-7.897148E-1,-1.7222147E0,1.6765227E0,-3.474335E-1,1.5123215E-1,-7.5891906E-1,1.2138877E-2,-4.695921E-1,8.334823E-1,-2.1823877E-1,-9.7225994E-1,1.5143433E0,3.173484E-1,-8.8826996E-1,4.774795E0,2.3692958E-1,-1.6500927E0,-5.442957E-1,1.0374016E0,-5.147295E-1,-9.921739E-1,1.8657641E0,-1.5495929E0,1.1478894E-1,2.1535606E0,-3.6309072E-1,5.2572E-1,-1.2523633E0,-2.1283927E0,-1.4913941E-2,7.1786666E-1,-6.57777E-1,-6.0957974E-1,3.6631458E-2],"split_indices":[0,5,1,6,2,0,2,6,6,2,6,0,1,6,2,0,0,3,5,4,3,4,3,0,0,6,0,1,2,2,0,0,0,0,6,2,0,3,4,0,6,6,4,2,3,2,0,4,3,6,3,4,2,0,0,0,0,0,0,0,0,0,0,0,0,0,0,0,0,0,0,0,0,0,0,0,0,0,0,0,0,0,0,0,0,0,0,0,0,0,0],"split_type":[0,0,0,0,0,0,0,0,0,0,0,0,0,0,0,0,0,0,0,0,0,0,0,0,0,0,0,0,0,0,0,0,0,0,0,0,0,0,0,0,0,0,0,0,0,0,0,0,0,0,0,0,0,0,0,0,0,0,0,0,0,0,0,0,0,0,0,0,0,0,0,0,0,0,0,0,0,0,0,0,0,0,0,0,0,0,0,0,0,0,0],"sum_hessian":[2.981E3,4.45E2,2.536E3,6.2E1,3.83E2,5E0,2.531E3,1E1,5.2E1,2.86E2,9.7E1,1E0,4E0,2E1,2.511E3,6E0,4E0,2.5E1,2.7E1,2.7E2,1.6E1,3E1,6.7E1,3E0,1E0,8E0,1.2E1,6.8E1,2.443E3,4E0,2E0,1E0,3E0,6E0,1.9E1,1.1E1,1.6E1,1.77E2,9.3E1,2E0,1.4E1,1.7E1,1.3E1,