{"learner":{"attributes":{"scikit_learn":"{\"_estimator_type\": \"regressor\"}"},"feature_names":["pm25_lag_1","pm25_lag_2","pm25_lag_3","weather_temperature_2m_mean","weather_precipitation_sum","weather_wind_speed_10m_max","weather_wind_direction_10m_dominant"],"feature_types":["float","float","float","float","float","float","float"],"gradient_booster":{"model":{"gbtree_model_param":{"num_parallel_tree":"1","num_trees":"100"},"iteration_indptr":[0,1,2,3,4,5,6,7,8,9,10,11,12,13,14,15,16,17,18,19,20,21,22,23,24,25,26,27,28,29,30,31,32,33,34,35,36,37,38,39,40,41,42,43,44,45,46,47,48,49,50,51,52,53,54,55,56,57,58,59,60,61,62,63,64,65,66,67,68,69,70,71,72,73,74,75,76,77,78,79,80,81,82,83,84,85,86,87,88,89,90,91,92,93,94,95,96,97,98,99,100],"tree_info":[0,0,0,0,0,0,0,0,0,0,0,0,0,0,0,0,0,0,0,0,0,0,0,0,0,0,0,0,0,0,0,0,0,0,0,0,0,0,0,0,0,0,0,0,0,0,0,0,0,0,0,0,0,0,0,0,0,0,0,0,0,0,0,0,0,0,0,0,0,0,0,0,0,0,0,0,0,0,0,0,0,0,0,0,0,0,0,0,0,0,0,0,0,0,0,0,0,0,0,0],"trees":[{"base_weights":[-1.0590804E-6,-7.8547864E0,1.4428352E1,-1.2327859E1,-2.7622678E0,9.538306E0,3.5398895E1,-1.5243667E1,-9.473197E0,-3.671569E-1,-6.5809426E0,1.2811016E1,3.4229424E0,3.3991726E1,2.3102188E1,-2.2515095E1,-1.4262724E1,-8.349038E0,-1.200513E1,-5.963442E0,1.2018976E0,-2.0733092E0,-8.159399E0,8.939958E0,1.9214714E1,3.5607296E1,2.7980578E0,3.9039474E1,2.3576761E1,-7.8056607E0,-2.3256372E1,-1.7400284E1,-1.3148412E1,-1.3309229E1,-7.315363E0,-8.154332E0,-1.3904958E1,-8.159523E0,3.6277323E0,8.114223E0,1.5097639E-2,-6.3885508E0,1.7986845E0,-6.382492E0,-1.0617292E1,3.5549267E1,8.388991E0,1.6597492E1,2.835264E1,1.7351824E1,1.5060793E0,5.0937266E0,-3.0243359E0,3.5002983E1,4.8008842E1,2.764479E1,8.526324E0,1.0888679E0,-3.8481765E0,-7.0426345E0,-1.9111322E0,-5.3988724E0,-2.4444814E0,-3.076293E0,-4.5903687E0,-4.0514817E0,-4.1113216E-1,-2.3122559E0,8.070325E-1,-6.111494E-1,-2.9011807E0,-4.372576E0,2.4218857E-1,1.0055188E0,-2.7549198E0,6.288489E-1,5.138868E0,-2.1309018E0,3.223088E0,8.853749E-1,-8.054697E-1,-3.564235E0,-1.3763849E0,1.2842729E0,-1.8111495E0,-1.9695069E0,2.738868E0,-4.365374E0,-2.7247677E0,2.551824E0,1.40833025E1,-5.1260066E-1,2.7531662E0,6.6321993E0,3.7630494E0,9.40891E0,3.0218858E-1,3.188868E0,-2.5111322E0,4.174034E0,1.1902936E0,-1.9192077E0,2.4224305E-1,4.9899626E0,1.1103712E1,1.5168159E1,7.0821886E0,-2.0611322E0,8.569342E0,3.7066886E-1,7.9333014E0],"categories":[],"categories_nodes":[],"categories_segments":[],"categories_sizes":[],"default_left":[0,0,0,0,0,0,0,0,0,0,0,0,0,0,0,0,0,0,0,0,0,0,0,0,0,0,0,0,0,0,0,0,0,0,0,0,0,0,0,0,0,0,0,0,0,0,0,0,0,0,0,0,0,0,0,0,0,0,0,0,0,0,0,0,0,0,0,0,0,0,0,0,0,0,0,0,0,0,0,0,0,0,0,0,0,0,0,0,0,0,0,0,0,0,0,0,0,0,0,0,0,0,0,0,0,0,0,0,0,0,0],"id":0,"left_children":[1,3,5,7,9,11,13,15,17,19,21,23,25,27,-1,29,31,33,35,37,39,41,43,45,47,49,51,53,55,57,59,61,63,65,67,69,71,73,75,77,79,81,83,85,87,89,91,93,95,-1,97,99,101,103,105,107,109,-1,-1,-1,-1,-1,-1,-1,-1,-1,-1,-1,-1,-1,-1,-1,-1,-1,-1,-1,-1,-1,-1,-1,-1,-1,-1,-1,-1,-1,-1,-1,-1,-1,-1,-1,-1,-1,-1,-1,-1,-1,-1,-1,-1,-1,-1,-1,-1,-1,-1,-1,-1,-1,-1],"loss_changes":[3.0157544E5,3.9214523E4,9.5851375E4,7.488375E3,7.378527E3,1.5206664E4,7.7457812E3,2.9029297E3,1.2261406E3,4.3712627E3,2.19588E3,1.2123617E4,5.270143E3,8.174547E3,0E0,3.8546484E2,1.1731953E3,1.5741133E3,9.181504E2,2.3254675E3,3.1910571E3,1.3815952E3,9.3674805E2,4.261301E3,3.977789E3,3.7035996E3,3.530739E3,2.4830938E3,3.3765977E3,2.7624933E2,3.171289E1,4.1576758E2,1.7122383E3,1.1000195E2,1.0879814E3,4.347881E2,9.288906E2,1.0793994E3,3.9835226E2,2.35701E3,2.6478147E3,3.3117517E2,8.8165955E2,4.450088E2,4.4140723E2,1.4496431E3,2.4512188E3,3.0062148E3,3.2612188E3,0E0,3.5929883E2,1.8218926E3,9.745252E2,2.4480625E3,8.6114844E2,1.6564297E3,1.79623E3,0E0,0E0,0E0,0E0,0E0,0E0,0E0,0E0,0E0,0E0,0E0,0E0,0E0,0E0,0E0,0E0,0E0,0E0,0E0,0E0,0E0,0E0,0E0,0E0,0E0,0E0,0E0,0E0,0E0,0E0,0E0,0E0,0E0,0E0,0E0,0E0,0E0,0E0,0E0,0E0,0E0,0E0,0E0,0E0,0E0,0E0,0E0,0E0,0E0,0E0,0E0,0E0,0E0,0E0],"parents":[2147483647,0,0,1,1,2,2,3,3,4,4,5,5,6,6,7,7,8,8,9,9,10,10,11,11,12,12,13,13,15,15,16,16,17,17,18,18,19,19,20,20,21,21,22,22,23,23,24,24,25,25,26,26,27,27,28,28,29,29,30,30,31,31,32,32,33,33,34,34,35,35,36,36,37,37,38,38,39,39,40,40,41,41,42,42,43,43,44,44,45,45,46,46,47,47,48,48,50,50,51,51,52,52,53,53,54,54,55,55,56,56],"right_children":[2,4,6,8,10,12,14,16,18,20,22,24,26,28,-1,30,32,34,36,38,40,42,44,46,48,50,52,54,56,58,60,62,64,66,68,70,72,74,76,78,80,82,84,86,88,90,92,94,96,-1,98,100,102,104,106,108,110,-1,-1,-1,-1,-1,-1,-1,-1,-1,-1,-1,-1,-1,-1,-1,-1,-1,-1,-1,-1,-1,-1,-1,-1,-1,-1,-1,-1,-1,-1,-1,-1,-1,-1,-1,-1,-1,-1,-1,-1,-1,-1,-1,-1,-1,-1,-1,-1,-1,-1,-1,-1,-1,-1],"split_conditions":[3.5E1,2.2E1,6.4E1,1.6E1,2.496686E2,2.43435E2,1.36E2,7E0,2.692152E2,9.565225E1,2.0617662E1,4.9E1,1.1E1,2.6089443E1,2.3102188E1,2E0,1.24140526E2,8.556911E1,2.0799152E1,1.66985E1,4.308917E0,2.6E1,2.90293E2,1.2E1,6E1,1E-1,3.1991425E1,8.5E1,2.5719574E2,2E0,4.48153E1,1.6765165E1,2.4848831E2,6E1,5.9E1,2.868723E2,7.7E1,1.2397806E1,4.3E1,2.4849999E-1,2.0055609E2,1.8E1,5E-1,1.9154749E1,4.0464168E0,3.8E1,6.1736675E1,4.2E1,3.4614334E1,1.7351824E1,4E1,1.4133152E1,3.6E1,8.556911E1,1.01E2,1.0609023E1,1E2,1.0888679E0,-3.8481765E0,-7.0426345E0,-1.9111322E0,-5.3988724E0,-2.4444814E0,-3.076293E0,-4.5903687E0,-4.0514817E0,-4.1113216E-1,-2.3122559E0,8.070325E-1,-6.111494E-1,-2.9011807E0,-4.372576E0,2.4218857E-1,1.0055188E0,-2.7549198E0,6.288489E-1,5.138868E0,-2.1309018E0,3.223088E0,8.853749E-1,-8.054697E-1,-3.564235E0,-1.3763849E0,1.2842729E0,-1.8111495E0,-1.9695069E0,2.738868E0,-4.365374E0,-2.7247677E0,2.551824E0,1.40833025E1,-5.1260066E-1,2.7531662E0,6.6321993E0,3.7630494E0,9.40891E0,3.0218858E-1,3.188868E0,-2.5111322E0,4.174034E0,1.1902936E0,-1.9192077E0,2.4224305E-1,4.9899626E0,1.1103712E1,1.5168159E1,7.0821886E0,-2.0611322E0,8.569342E0,3.7066886E-1,7.9333014E0],"split_indices":[0,0,0,0,6,6,0,0,6,6,5,0,1,5,0,1,6,6,5,3,3,0,6,1,0,4,5,0,6,0,5,3,6,1,2,6,2,5,1,3,6,2,4,3,3,0,6,1,5,0,0,5,2,6,1,6,0,0,0,0,0,0,0,0,0,0,0,0,0,0,0,0,0,0,0,0,0,0,0,0,0,0,0,0,0,0,0,0,0,0,0,0,0,0,0,0,0,0,0,0,0,0,0,0,0,0,0,0,0,0,0],"split_type":[0,0,0,0,0,0,0,0,0,0,0,0,0,0,0,0,0,0,0,0,0,0,0,0,0,0,0,0,0,0,0,0,0,0,0,0,0,0,0,0,0,0,0,0,0,0,0,0,0,0,0,0,0,0,0,0,0,0,0,0,0,0,0,0,0,0,0,0,0,0,0,0,0,0,0,0,0,0,0,0,0,0,0,0,0,0,0,0,0,0,0,0,0,0,0,0,0,0,0,0,0,0,0,0,0,0,0,0,0,0,0],"sum_hessian":[2.659E3,1.722E3,9.37E2,9.16E2,8.06E2,7.61E2,1.76E2,4.51E2,4.65E2,4.96E2,3.1E2,4.95E2,2.66E2,1.72E2,4E0,5.1E1,4E2,3.25E2,1.4E2,1.08E2,3.88E2,8.1E1,2.29E2,3.1E2,1.85E2,4E0,2.62E2,1.14E2,5.8E1,3E0,4.8E1,1.01E2,2.99E2,5.4E1,2.71E2,4.8E1,9.2E1,8.8E1,2E1,5.6E1,3.32E2,3.8E1,4.3E1,1.35E2,9.4E1,5E0,3.05E2,1.46E2,3.9E1,2E0,2E0,1.88E2,7.4E1,8.2E1,3.2E1,4.5E1,1.3E1,1E0,2E0,4.7E1,1E0,9.4E1,7E0,1.3E2,1.69E2,5.3E1,1E0,2.61E2,1E1,1E1,3.8E1,8.8E1,4E0,7E0,8.1E1,1.9E1,1E0,8E0,4.8E1,1.59E2,1.73E2,8E0,3E1,3.3E1,1E1,1.34E2,1E0,2.4E1,7E1,2E0,3E0,2.2E1,2.83E2,6E1,8.6E1,3.5E1,4E0,1E0,1E0,2E1,1.68E2,3.9E1,3.5E1,9E0,7.3E1,2.8E1,4E0,1E0,4.4E1,1E1,3E0],"tree_param":{"num_deleted":"0","num_feature":"7","num_nodes":"111","size_leaf_vector":"1"}},{"base_weights":[3.365543E-2,-4.7340164E0,1.2204223E1,-7.6100264E0,5.117159E-1,8.320454E0,2.600718E1,-1.0484238E1,-5.498054E0,2.5170476E0,-3.0884337E0,1.2226086E1,4.8276076E0,2.9391981E1,1.5135892E1,-1.3719468E1,-9.297365E0,-5.813841E0,6.1076325E-1,3.8052573E0,-9.46547E-1,1.6956105E0,-4.464275E0,4.197952E0,1.488185E1,9.729656E0,2.388667E0,2.6181715E1,4.6842354E1,1.7563555E1,-1.9527334E0,-1.4793667E1,-1.0264971E1,-1.2623712E1,-8.842229E0,-6.092498E0,-5.1248384E-1,-2.7234058E0,2.391323E0,-1.2236713E0,5.557782E0,2.5430307E0,-2.8829794E0,3.5010507E0,-5.065638E0,-9.475332E0,-3.5706093E0,1.2515162E0,1.4063952E1,2.0307955E1,1.1511711E1,1.3881459E1,8.54792E0,1.5518978E0,9.805846E0,2.8823402E1,1.05008135E1,6.2889023E0,5.151848E1,2.0927357E1,6.381814E-1,-9.773989E0,2.7379556E0,-3.0033438E0,-4.7065973E0,2.8555614E-1,-3.394058E0,-3.917228E0,-7.0314085E-1,-2.0874193E0,-3.093882E0,-3.0287943E0,-1.7239239E0,2.6648495E0,-1.0875825E0,1.7357063E0,-1.1743913E0,2.0180192E0,6.313955E-2,-7.0914733E-1,3.4478467E0,2.9260783E0,5.0680745E-1,1.7071742E0,-1.1135303E0,-1.1495752E0,2.1461449E0,2.0275726E0,-1.1656528E-1,-2.2570732E0,5.1934034E-1,-4.5948917E-1,-3.1101933E0,-1.1695325E0,1.6808318E0,3.8755894E0,-3.9360598E-1,-2.3255894E0,4.8105435E0,1.3864319E1,5.5966516E0,5.084795E0,2.0688038E0,4.111307E0,1.0858104E0,7.104056E-1,-1.2472804E0,8.2356757E-1,5.189402E0,4.413979E0,9.234141E0,5.2159424E0,1.7434044E-1,2.4265394E0,4.034666E-1,1.5922774E1,4.2235394E0,-7.614461E-1,7.0885925E0,1.3454049E0,-1.7956142E0,-7.6673245E-1,-3.3984408E0],"categories":[],"categories_nodes":[],"categories_segments":[],"categories_sizes":[],"default_left":[0,0,0,0,0,0,0,0,0,0,0,0,0,0,0,0,0,0,0,0,0,0,0,0,0,0,0,0,0,0,0,0,0,0,0,0,0,0,0,0,0,0,0,0,0,0,0,0,0,0,0,0,0,0,0,0,0,0,0,0,0,0,0,0,0,0,0,0,0,0,0,0,0,0,0,0,0,0,0,0,0,0,0,0,0,0,0,0,0,0,0,0,0,0,0,0,0,0,0,0,0,0,0,0,0,0,0,0,0,0,0,0,0,0,0,0,0,0,0,0,0,0,0],"id":1,"left_children":[1,3,5,7,9,11,13,15,17,19,21,23,25,27,29,31,33,35,37,39,41,43,45,47,49,51,53,55,57,59,61,63,65,67,69,71,73,75,77,79,81,83,85,87,89,91,93,95,97,99,101,-1,103,105,107,109,111,113,115,117,119,121,-1,-1,-1,-1,-1,-1,-1,-1,-1,-1,-1,-1,-1,-1,-1,-1,-1,-1,-1,-1,-1,-1,-1,-1,-1,-1,-1,-1,-1,-1,-1,-1,-1,-1,-1,-1,-1,-1,-1,-1,-1,-1,-1,-1,-1,-1,-1,-1,-1,-1,-1,-1,-1,-1,-1,-1,-1,-1,-1,-1,-1],"loss_changes":[1.5440498E5,2.8849824E4,3.9935625E4,7.439125E3,4.902591E3,7.9350547E3,5.5898594E3,1.8768242E3,1.380918E3,1.9489624E3,1.6070164E3,5.822082E3,3.6950142E3,5.7201094E3,1.7351982E3,3.6023633E2,4.712461E2,9.999375E2,2.2023329E2,2.809437E3,8.11454E2,6.891217E2,8.125493E2,2.0172664E3,3.5515703E3,4.0523066E3,1.2819341E3,4.1296953E3,3.0894023E3,2.0362539E3,6.091244E2,2.8381055E2,4.341814E2,1.6557227E2,8.759414E2,8.3566016E2,1.0558005E3,1.5442079E2,2.2550204E2,1.2305631E3,3.814082E3,8.676756E2,7.607835E2,5.601269E2,2.1349692E2,1.8251807E2,5.0903003E2,1.6619482E3,8.123574E2,2.4769531E3,3.1459023E3,0E0,2.5171904E3,8.9051746E2,1.0633984E3,2.060039E3,1.1510563E3,1.5813095E1,1.8573828E2,1.961584E3,2.0518532E2,1.5920502E1,0E0,0E0,0E0,0E0,0E0,0E0,0E0,0E0,0E0,0E0,0E0,0E0,0E0,0E0,0E0,0E0,0E0,0E0,0E0,0E0,0E0,0E0,0E0,0E0,0E0,0E0,0E0,0E0,0E0,0E0,0E0,0E0,0E0,0E0,0E0,0E0,0E0,0E0,0E0,0E0,0E0,0E0,0E0,0E0,0E0,0E0,0E0,0E0,0E0,0E0,0E0,0E0,0E0,0E0,0E0,0E0,0E0,0E0,0E0,0E0,0E0],"parents":[2147483647,0,0,1,1,2,2,3,3,4,4,5,5,6,6,7,7,8,8,9,9,10,10,11,11,12,12,13,13,14,14,15,15,16,16,17,17,18,18,19,19,20,20,21,21,22,22,23,23,24,24,25,25,26,26,27,27,28,28,29,29,30,30,31,31,32,32,33,33,34,34,35,35,36,36,37,37,38,38,39,39,40,40,41,41,42,42,43,43,44,44,45,45,46,46,47,47,48,48,49,49,50,50,52,52,53,53,54,54,55,55,56,56,57,57,58,58,59,59,60,60,61,61],"right_children":[2,4,6,8,10,12,14,16,18,20,22,24,26,28,30,32,34,36,38,40,42,44,46,48,50,52,54,56,58,60,62,64,66,68,70,72,74,76,78,80,82,84,86,88,90,92,94,96,98,100,102,-1,104,106,108,110,112,114,116,118,120,122,-1,-1,-1,-1,-1,-1,-1,-1,-1,-1,-1,-1,-1,-1,-1,-1,-1,-1,-1,-1,-1,-1,-1,-1,-1,-1,-1,-1,-1,-1,-1,-1,-1,-1,-1,-1,-1,-1,-1,-1,-1,-1,-1,-1,-1,-1,-1,-1,-1,-1,-1,-1,-1,-1,-1,-1,-1,-1,-1,-1,-1],"split_conditions":[3.9E1,2.6E1,6.5E1,1.7E1,2.496686E2,2.0229224E2,1.7000002E0,1E1,1.899225E1,2.3E0,1.9513195E1,9.565225E1,1E-1,9.9E1,9.1E1,2.1E0,8.008857E1,5.9E1,2.1E1,1.0742E2,1.8373752E2,3.2247983E2,4.09225E0,5.6E1,6.7172494E0,1.1E1,1.8000582E1,2.6633667E2,3.2875001E0,1.0115168E1,4.499999E0,6E0,3E0,4.9E1,8.67975E0,6.1736675E1,1.6672502E2,1.3896187E1,1.707254E2,1.6000001E0,1.037975E1,3.5E1,5.5E1,1E-1,1.3344334E1,2.2963936E1,2.0206835E1,1.4133152E1,3.1523147E0,1.5E1,1E-1,1.3881459E1,2.775422E2,1.5925582E1,4.8E1,9.141791E1,7.6E1,1.06E2,1.43E2,1.9000002E0,1.4292249E1,4.3E1,2.7379556E0,-3.0033438E0,-4.7065973E0,2.8555614E-1,-3.394058E0,-3.917228E0,-7.0314085E-1,-2.0874193E0,-3.093882E0,-3.0287943E0,-1.7239239E0,2.6648495E0,-1.0875825E0,1.7357063E0,-1.1743913E0,2.0180192E0,6.313955E-2,-7.0914733E-1,3.4478467E0,2.9260783E0,5.0680745E-1,1.7071742E0,-1.1135303E0,-1.1495752E0,2.1461449E0,2.0275726E0,-1.1656528E-1,-2.2570732E0,5.1934034E-1,-4.5948917E-1,-3.1101933E0,-1.1695325E0,1.6808318E0,3.8755894E0,-3.9360598E-1,-2.3255894E0,4.8105435E0,1.3864319E1,5.5966516E0,5.084795E0,2.0688038E0,4.111307E0,1.0858104E0,7.104056E-1,-1.2472804E0,8.2356757E-1,5.189402E0,4.413979E0,9.234141E0,5.2159424E0,1.7434044E-1,2.4265394E0,4.034666E-1,1.5922774E1,4.2235394E0,-7.614461E-1,7.0885925E0,1.3454049E0,-1.7956142E0,-7.6673245E-1,-3.3984408E0],"split_indices":[0,0,0,0,6,6,4,0,3,4,5,6,4,0,0,4,6,2,0,6,6,6,3,0,3,1,3,6,3,3,4,1,1,2,3,6,6,5,6,4,3,2,2,4,3,5,3,5,6,1,4,0,6,3,0,6,0,0,1,4,3,1,0,0,0,0,0,0,0,0,0,0,0,0,0,0,0,0,0,0,0,0,0,0,0,0,0,0,0,0,0,0,0,0,0,0,0,0,0,0,0,0,0,0,0,0,0,0,0,0,0,0,0,0,0,0,0,0,0,0,0,0,0],"split_type":[0,0,0,0,0,0,0,0,0,0,0,0,0,0,0,0,0,0,0,0,0,0,0,0,0,0,0,0,0,0,0,0,0,0,0,0,0,0,0,0,0,0,0,0,0,0,0,0,0,0,0,0,0,0,0,0,0,0,0,0,0,0,0,0,0,0,0,0,0,0,0,0,0,0,0,0,0,0,0,0,0,0,0,0,0,0,0,0,0,0,0,0,0,0,0,0,0,0,0,0,0,0,0,0,0,0,0,0,0,0,0,0,0,0,0,0,0,0,0,0,0,0,0],"sum_hessian":[2.659E3,1.911E3,7.48E2,1.234E3,6.77E2,5.85E2,1.63E2,5.21E2,7.13E2,4.35E2,2.42E2,2.75E2,3.1E2,1.23E2,4E1,1.37E2,3.84E2,6.78E2,3.5E1,3.17E2,1.18E2,5.4E1,1.88E2,6.9E1,2.06E2,1.02E2,2.08E2,1.06E2,1.7E1,3.5E1,5E0,1.02E2,3.5E1,4.3E1,3.41E2,6.44E2,3.4E1,1.2E1,2.3E1,8.2E1,2.35E2,4.2E1,7.6E1,4.3E1,1.1E1,2.7E1,1.61E2,5.4E1,1.5E1,7.7E1,1.29E2,2E0,1E2,1.88E2,2E1,9E1,1.6E1,2E0,1.5E1,2.9E1,6E0,3E0,2E0,1.8E1,8.4E1,3E0,3.2E1,4.1E1,2E0,1.52E2,1.89E2,4.9E1,5.95E2,8E0,2.6E1,1E0,1.1E1,7E0,1.6E1,7.6E1,6E0,1.12E2,1.23E2,2.8E1,1.4E1,7E1,6E0,2.3E1,2E1,8E0,3E0,3E0,2.4E1,1.56E2,5E0,9E0,4.5E1,1E0,1.4E1,3E0,7.4E1,5.8E1,7.1E1,4.8E1,5.2E1,1.65E2,2.3E1,1.1E1,9E0,1.2E1,7.8E1,9E0,7E0,1E0,1E0,1.4E1,1E0,3E0,2.6E1,4E0,2E0,1E0,2E0],"tree_param":{"num_deleted":"0","num_feature":"7","num_nodes":"123","size_leaf_vector":"1"}},{"base_weights":[5.638742E-2,-2.6691985E0,1.11718855E1,-5.3441463E0,9.921852E-1,7.8171177E0,1.8488344E1,-7.3784685E0,-3.8493838E0,2.8586652E0,-6.881629E-1,9.599486E0,8.923584E-1,1.7446579E1,4.812717E1,-1.2174452E1,-6.83331E0,-2.5520818E0,-5.139537E0,1.9386518E0,6.717032E0,1.5432554E1,-9.616759E-1,1.2673776E1,6.8996162E0,-2.5149508E0,6.383778E0,2.1894356E1,1.236788E1,1.9646832E1,4.4167542E0,-4.723507E0,-1.2534235E1,-6.4262724E0,-1.1058484E1,-6.848575E0,-1.681374E0,-3.8201602E0,-6.584642E0,3.6158876E0,-1.4325327E0,1.1398536E1,1.5164896E0,2.0681274E0,1.1105167E1,7.0036834E-1,-3.6827726E0,9.559391E0,2.3512968E1,7.5273485E0,-2.955233E0,1.6225446E0,-6.220848E0,-4.3560214E0,7.790525E0,1.3858834E1,2.525754E1,1.652032E1,7.43226E0,8.82704E-1,-2.4778724E0,-4.019551E0,-2.3471217E0,-2.8186316E0,-1.7624394E0,-1.7338854E0,-4.1035976E0,1.0435418E-1,-2.2963858E0,-4.1807085E-1,-2.9578693E0,-1.7934842E0,-7.922027E-1,-1.6047977E0,-2.5156298E0,1.1450108E-1,1.4780588E0,6.191263E-1,-9.288473E-1,4.2199087E0,3.564219E-1,-2.372325E0,1.0236515E0,1.784733E0,-1.1387676E0,-3.0512462E0,3.977336E-1,-7.8458923E-1,-2.4380774E0,6.5423512E0,2.4121575E0,8.226159E0,2.194453E0,2.5267332E0,-8.151105E-2,1.6507117E0,-2.8532095E0,-2.7796836E0,1.5485368E0,1.24229435E-2,-2.7510688E0,-3.8615885E-1,-1.4849694E0,3.1414757E0,4.6883714E-1,2.8428092E0,1.1007285E1,7.8620114E0,-2.638092E-1,5.461205E0,2.2707506E-1,3.2771363E0,4.749302E-1],"categories":[],"categories_nodes":[],"categories_segments":[],"categories_sizes":[],"default_left":[0,0,0,0,0,0,0,0,0,0,0,0,0,0,0,0,0,0,0,0,0,0,0,0,0,0,0,0,0,0,0,0,0,0,0,0,0,0,0,0,0,0,0,0,0,0,0,0,0,0,0,0,0,0,0,0,0,0,0,0,0,0,0,0,0,0,0,0,0,0,0,0,0,0,0,0,0,0,0,0,0,0,0,0,0,0,0,0,0,0,0,0,0,0,0,0,0,0,0,0,0,0,0,0,0,0,0,0,0,0,0,0,0],"id":2,"left_children":[1,3,5,7,9,11,13,15,17,19,21,23,25,27,29,31,33,35,37,39,41,43,45,47,49,51,53,55,57,-1,-1,59,61,63,65,67,69,71,73,75,77,79,81,83,-1,85,87,89,91,93,95,97,99,101,103,105,107,109,111,-1,-1,-1,-1,-1,-1,-1,-1,-1,-1,-1,-1,-1,-1,-1,-1,-1,-1,-1,-1,-1,-1,-1,-1,-1,-1,-1,-1,-1,-1,-1,-1,-1,-1,-1,-1,-1,-1,-1,-1,-1,-1,-1,-1,-1,-1,-1,-1,-1,-1,-1,-1,-1,-1],"loss_changes":[8.061783E4,2.0935102E4,1.27170625E4,3.7270195E3,2.8340786E3,4.4470664E3,4.224129E3,1.2816133E3,1.181917E3,1.5062712E3,2.113632E3,2.294709E3,1.4193771E3,3.3434453E3,1.9357324E3,8.0191895E1,7.3896484E2,1.3277598E3,6.555156E2,1.967212E3,1.9791157E3,2.231178E3,2.123671E3,4.264965E3,9.8110693E2,7.3075085E2,4.72073E2,1.9200547E3,1.4553223E3,0E0,0E0,1.3273041E2,9.465918E1,6.521699E2,4.742041E2,3.5070068E2,6.9002203E2,4.653069E2,3.310923E2,9.8179443E2,6.811049E2,1.1545967E3,7.4159705E2,1.5913113E2,0E0,1.9987784E3,8.231819E2,1.7780479E3,1.6349834E3,1.021499E3,6.067667E2,9.3415155E2,4.6212433E2,9.185257E-1,4.1775525E2,2.35417E3,1.4619219E3,1.0743916E3,7.38339E2,0E0,0E0,0E0,0E0,0E0,0E0,0E0,0E0,0E0,0E0,0E0,0E0,0E0,0E0,0E0,0E0,0E0,0E0,0E0,0E0,0E0,0E0,0E0,0E0,0E0,0E0,0E0,0E0,0E0,0E0,0E0,0E0,0E0,0E0,0E0,0E0,0E0,0E0,0E0,0E0,0E0,0E0,0E0,0E0,0E0,0E0,0E0,0E0,0E0,0E0,0E0,0E0,0E0,0E0],"parents":[2147483647,0,0,1,1,2,2,3,3,4,4,5,5,6,6,7,7,8,8,9,9,10,10,11,11,12,12,13,13,14,14,15,15,16,16,17,17,18,18,19,19,20,20,21,21,22,22,23,23,24,24,25,25,26,26,27,27,28,28,31,31,32,32,33,33,34,34,35,35,36,36,37,37,38,38,39,39,40,40,41,41,42,42,43,43,45,45,46,46,47,47,48,48,49,49,50,50,51,51,52,52,53,53,54,54,55,55,56,56,57,57,58,58],"right_children":[2,4,6,8,10,12,14,16,18,20,22,24,26,28,30,32,34,36,38,40,42,44,46,48,50,52,54,56,58,-1,-1,60,62,64,66,68,70,72,74,76,78,80,82,84,-1,86,88,90,92,94,96,98,100,102,104,106,108,110,112,-1,-1,-1,-1,-1,-1,-1,-1,-1,-1,-1,-1,-1,-1,-1,-1,-1,-1,-1,-1,-1,-1,-1,-1,-1,-1,-1,-1,-1,-1,-1,-1,-1,-1,-1,-1,-1,-1,-1,-1,-1,-1,-1,-1,-1,-1,-1,-1,-1,-1,-1,-1,-1,-1],"split_conditions":[4.6E1,2.6E1,6.5E1,1.7E1,2.4066206E1,3.3014175E1,1.36E2,7E0,2.3580055E2,2.2057161E1,1.1E1,1.7280896E2,1.0115168E1,1.869748E2,9.227667E0,2E0,3.215866E2,6.62444E1,2.6959166E1,1.9296135E1,1.037975E1,3.6E1,2.4930992E2,6E1,7.5E1,2.34884E2,2.6E1,7.2E1,3E-1,1.9646832E1,4.4167542E0,2E0,2.7233795E2,8.008857E1,1.7581125E1,1.678156E1,4.4398376E1,2E1,2.7666772E2,1.3322395E2,2.7E1,4.7E1,2.8E1,7E0,1.1105167E1,6.1736675E1,3.121711E2,2.6E1,1.126725E1,4.7000003E0,3.2875001E0,2.5E1,5E1,4.7E1,3E0,1.5925582E1,3.1427404E1,1.4200584E1,8.4E1,8.82704E-1,-2.4778724E0,-4.019551E0,-2.3471217E0,-2.8186316E0,-1.7624394E0,-1.7338854E0,-4.1035976E0,1.0435418E-1,-2.2963858E0,-4.1807085E-1,-2.9578693E0,-1.7934842E0,-7.922027E-1,-1.6047977E0,-2.5156298E0,1.1450108E-1,1.4780588E0,6.191263E-1,-9.288473E-1,4.2199087E0,3.564219E-1,-2.372325E0,1.0236515E0,1.784733E0,-1.1387676E0,-3.0512462E0,3.977336E-1,-7.8458923E-1,-2.4380774E0,6.5423512E0,2.4121575E0,8.226159E0,2.194453E0,2.5267332E0,-8.151105E-2,1.6507117E0,-2.8532095E0,-2.7796836E0,1.5485368E0,1.24229435E-2,-2.7510688E0,-3.8615885E-1,-1.4849694E0,3.1414757E0,4.6883714E-1,2.8428092E0,1.1007285E1,7.8620114E0,-2.638092E-1,5.461205E0,2.2707506E-1,3.2771363E0,4.749302E-1],"split_indices":[0,0,0,0,5,5,0,0,6,5,1,6,3,6,3,1,6,6,5,5,3,0,6,0,1,6,2,0,4,0,0,0,6,6,5,5,5,0,6,6,1,1,0,2,0,6,6,1,3,4,3,2,0,0,4,3,5,3,0,0,0,0,0,0,0,0,0,0,0,0,0,0,0,0,0,0,0,0,0,0,0,0,0,0,0,0,0,0,0,0,0,0,0,0,0,0,0,0,0,0,0,0,0,0,0,0,0,0,0,0,0,0,0],"split_type":[0,0,0,0,0,0,0,0,0,0,0,0,0,0,0,0,0,0,0,0,0,0,0,0,0,0,0,0,0,0,0,0,0,0,0,0,0,0,0,0,0,0,0,0,0,0,0,0,0,0,0,0,0,0,0,0,0,0,0,0,0,0,0,0,0,0,0,0,0,0,0,0,0,0,0,0,0,0,0,0,0,0,0,0,0,0,0,0,0,0,0,0,0,0,0,0,0,0,0,0,0,0,0,0,0,0,0,0,0,0,0,0,0],"sum_hessian":[2.659E3,2.136E3,5.23E2,1.234E3,9.02E2,3.6E2,1.63E2,5.21E2,7.13E2,4.27E2,4.75E2,2.86E2,7.4E1,1.59E2,4E0,5.1E1,4.7E2,3.57E2,3.56E2,3.46E2,8.1E1,7E0,4.68E2,1.32E2,1.54E2,4.6E1,2.8E1,8.3E1,7.6E1,2E0,2E0,3E0,4.8E1,4.31E2,3.9E1,5.9E1,2.98E2,1.88E2,1.68E2,2.31E2,1.15E2,4.2E1,3.9E1,5E0,2E0,2.91E2,1.77E2,1.04E2,2.8E1,1.45E2,9E0,2.2E1,2.4E1,3E0,2.5E1,2.6E1,5.7E1,4E1,3.6E1,1E0,2E0,3.9E1,9E0,6.5E1,3.66E2,1.4E1,2.5E1,6E0,5.3E1,2.89E2,9E0,6.5E1,1.23E2,1.02E2,6.6E1,6.7E1,1.64E2,3.7E1,7.8E1,3.3E1,9E0,6E0,3.3E1,3E0,2E0,1.5E1,2.76E2,1.44E2,3.3E1,1E1,9.4E1,2.2E1,6E0,1.3E2,1.5E1,4E0,5E0,5E0,1.7E1,8E0,1.6E1,1E0,2E0,1.7E1,8E0,2.3E1,3E0,5.5E1,2E0,3.6E1,4E0,2.2E1,1.4E1],"tree_param":{"num_deleted":"0","num_feature":"7","num_nodes":"113","size_leaf_vector":"1"}},{"base_weights":[5.9422754E-2,-2.5357113E0,6.074753E0,-4.422757E0,-6.9800544E-1,4.012802E0,1.2695285E1,-6.1809726E0,-3.717556E0,5.33141E-1,-2.4759374E0,3.376406E1,3.7619498E0,1.1933309E1,3.8501736E1,-8.675229E0,-5.533914E0,-2.8241565E0,-5.097072E0,1.5660933E-1,9.284787E0,-1.2029402E0,-3.7038276E0,3.91305E0,1.2968982E1,2.5432274E0,6.585078E0,1.6226963E1,8.31583E0,1.5717466E1,3.5334032E0,-4.9876847E0,-9.13801E0,1.6082677E0,-5.8990645E0,-2.1840322E0,-6.160685E0,-5.6288834E0,-1.5563583E-1,-1.2308594E0,1.9525342E0,1.3818363E0,1.1403282E1,1.6071332E0,-3.3316848E0,-6.206446E0,-2.6070282E0,-1.0813176E1,2.8240495E0,7.86302E0,1.1483968E0,2.1869257E1,1.2854312E1,1.0257545E1,-8.0846155E-1,6.7109454E-1,-2.3306212E0,-1.6709967E0,-2.9994905E0,-2.0111861E0,2.1947448E0,-2.0001874E0,-1.0383121E0,-1.455828E0,-4.252795E-1,-6.914427E-1,-2.5249772E0,-1.1412814E0,-1.8729776E0,-4.7763583E-1,1.4693987E0,-1.4847815E0,-2.085091E-1,2.0282757E0,3.0764628E-2,5.8170265E-1,-2.1060391E-1,1.9063603E0,4.4420485E0,1.306714E0,-4.3694496E-1,-2.2527213E0,-5.797906E-1,-2.644929E0,-1.509077E0,-2.7192764E0,-6.0952294E-1,-8.456698E-1,-4.30215E0,1.4880245E0,3.3914253E-1,5.840225E-1,2.8831344E0,-3.721799E-1,3.3668692E0,5.1900905E-1,6.7512174E0,2.4821148E0,5.2935658E0,3.9029448E0,1.4334168E0,-1.2518846E0,5.5579357E0],"categories":[],"categories_nodes":[],"categories_segments":[],"categories_sizes":[],"default_left":[0,0,0,0,0,0,0,0,0,0,0,0,0,0,0,0,0,0,0,0,0,0,0,0,0,0,0,0,0,0,0,0,0,0,0,0,0,0,0,0,0,0,0,0,0,0,0,0,0,0,0,0,0,0,0,0,0,0,0,0,0,0,0,0,0,0,0,0,0,0,0,0,0,0,0,0,0,0,0,0,0,0,0,0,0,0,0,0,0,0,0,0,0,0,0,0,0,0,0,0,0,0,0],"id":3,"left_children":[1,3,5,7,9,11,13,15,17,19,21,23,25,27,29,31,33,35,37,39,41,43,45,-1,-1,47,49,51,53,-1,-1,55,57,59,61,63,65,67,69,71,73,75,77,79,81,83,85,87,89,91,93,95,97,99,101,-1,-1,-1,-1,-1,-1,-1,-1,-1,-1,-1,-1,-1,-1,-1,-1,-1,-1,-1,-1,-1,-1,-1,-1,-1,-1,-1,-1,-1,-1,-1,-1,-1,-1,-1,-1,-1,-1,-1,-1,-1,-1,-1,-1,-1,-1,-1,-1],"loss_changes":[4.1539566E4,6.443618E3,1.0897328E4,1.1140059E3,2.0654475E3,4.447907E3,3.2766914E3,3.7322852E2,7.9533105E2,1.8373079E3,5.9890137E2,4.168213E2,2.078583E3,2.7540469E3,1.2388701E3,4.316162E1,5.5716064E2,8.4299805E2,6.7449756E2,1.3380024E3,3.6931702E2,1.1479028E3,5.2181445E2,0E0,0E0,1.6321162E3,1.2624121E3,1.3173633E3,1.8331206E3,0E0,0E0,1.7811594E2,8.243872E1,5.709114E2,3.5151514E2,6.8446704E2,5.3730493E2,2.3632031E2,1.965441E2,6.002674E2,2.0808398E3,8.327589E0,2.1521484E2,7.052533E2,6.225239E2,1.3677124E2,4.9421887E2,2.133612E2,1.5101377E3,1.5113535E3,8.803691E2,3.4459863E2,1.0609951E3,1.2197256E3,1.313299E3,0E0,0E0,0E0,0E0,0E0,0E0,0E0,0E0,0E0,0E0,0E0,0E0,0E0,0E0,0E0,0E0,0E0,0E0,0E0,0E0,0E0,0E0,0E0,0E0,0E0,0E0,0E0,0E0,0E0,0E0,0E0,0E0,0E0,0E0,0E0,0E0,0E0,0E0,0E0,0E0,0E0,0E0,0E0,0E0,0E0,0E0,0E0,0E0],"parents":[2147483647,0,0,1,1,2,2,3,3,4,4,5,5,6,6,7,7,8,8,9,9,10,10,11,11,12,12,13,13,14,14,15,15,16,16,17,17,18,18,19,19,20,20,21,21,22,22,25,25,26,26,27,27,28,28,31,31,32,32,33,33,34,34,35,35,36,36,37,37,38,38,39,39,40,40,41,41,42,42,43,43,44,44,45,45,46,46,47,47,48,48,49,49,50,50,51,51,52,52,53,53,54,54],"right_children":[2,4,6,8,10,12,14,16,18,20,22,24,26,28,30,32,34,36,38,40,42,44,46,-1,-1,48,50,52,54,-1,-1,56,58,60,62,64,66,68,70,72,74,76,78,80,82,84,86,88,90,92,94,96,98,100,102,-1,-1,-1,-1,-1,-1,-1,-1,-1,-1,-1,-1,-1,-1,-1,-1,-1,-1,-1,-1,-1,-1,-1,-1,-1,-1,-1,-1,-1,-1,-1,-1,-1,-1,-1,-1,-1,-1,-1,-1,-1,-1,-1,-1,-1,-1,-1,-1],"split_conditions":[3.8E1,2.2E1,6.3E1,1.3E1,2.4487648E2,1E1,1.36E2,7E0,1.2375583E1,2.091308E1,3E-1,9E0,5.2E1,1E-1,9.227667E0,1.6595179E1,6E0,3.0326138E2,1.899225E1,2.9E1,1.0994245E2,2.9289865E2,2.2E1,3.91305E0,1.2968982E1,-6.2441665E-1,3.2535713E1,1.905281E1,2.5140292E2,1.5717466E1,3.5334032E0,7.2999997E0,3E0,6E0,2.1E0,1.03535835E2,2.0799152E1,1.9254231E2,2.1E1,6.62444E1,5.981834E0,3.4E1,3E1,2.9E1,4.36725E0,2.614694E2,2.4770668E2,4.2E1,2.0229224E2,1.8193361E1,1.4292249E1,2.7E1,6.5E1,7.1297507E0,3.3000002E0,6.7109454E-1,-2.3306212E0,-1.6709967E0,-2.9994905E0,-2.0111861E0,2.1947448E0,-2.0001874E0,-1.0383121E0,-1.455828E0,-4.252795E-1,-6.914427E-1,-2.5249772E0,-1.1412814E0,-1.8729776E0,-4.7763583E-1,1.4693987E0,-1.4847815E0,-2.085091E-1,2.0282757E0,3.0764628E-2,5.8170265E-1,-2.1060391E-1,1.9063603E0,4.4420485E0,1.306714E0,-4.3694496E-1,-2.2527213E0,-5.797906E-1,-2.644929E0,-1.509077E0,-2.7192764E0,-6.0952294E-1,-8.456698E-1,-4.30215E0,1.4880245E0,3.3914253E-1,5.840225E-1,2.8831344E0,-3.721799E-1,3.3668692E0,5.1900905E-1,6.7512174E0,2.4821148E0,5.2935658E0,3.9029448E0,1.4334168E0,-1.2518846E0,5.5579357E0],"split_indices":[0,0,0,0,6,1,0,0,3,3,4,1,0,4,3,5,1,6,3,0,6,6,2,0,0,3,5,5,6,0,0,3,0,2,4,6,5,6,0,6,3,0,0,1,3,6,6,0,6,5,3,1,1,3,4,0,0,0,0,0,0,0,0,0,0,0,0,0,0,0,0,0,0,0,0,0,0,0,0,0,0,0,0,0,0,0,0,0,0,0,0,0,0,0,0,0,0,0,0,0,0,0,0],"split_type":[0,0,0,0,0,0,0,0,0,0,0,0,0,0,0,0,0,0,0,0,0,0,0,0,0,0,0,0,0,0,0,0,0,0,0,0,0,0,0,0,0,0,0,0,0,0,0,0,0,0,0,0,0,0,0,0,0,0,0,0,0,0,0,0,0,0,0,0,0,0,0,0,0,0,0,0,0,0,0,0,0,0,0,0,0,0,0,0,0,0,0,0,0,0,0,0,0,0,0,0,0,0,0],"sum_hessian":[2.659E3,1.858E3,8.01E2,9.16E2,9.42E2,6.12E2,1.89E2,2.6E2,6.56E2,5.57E2,3.85E2,4E0,6.08E2,1.85E2,4E0,5.1E1,2.09E2,4E2,2.56E2,5.35E2,2.2E1,1.9E2,1.95E2,2E0,2E0,4.26E2,1.82E2,8.3E1,1.02E2,2E0,2E0,7E0,4.4E1,1E1,1.99E2,3.37E2,6.3E1,2.31E2,2.5E1,3.02E2,2.33E2,5E0,1.7E1,8.2E1,1.08E2,5.8E1,1.37E2,8E0,4.18E2,1.47E2,3.5E1,2.9E1,5.4E1,8.4E1,1.8E1,2E0,5E0,1E1,3.4E1,4E0,6E0,1.5E2,4.9E1,7.4E1,2.63E2,2.4E1,3.9E1,6E1,1.71E2,2E1,5E0,3.7E1,2.65E2,6.4E1,1.69E2,4E0,1E0,8E0,9E0,4.3E1,3.9E1,2.6E1,8.2E1,1.6E1,4.2E1,1E1,1.27E2,3E0,5E0,1.84E2,2.34E2,3.4E1,1.13E2,2.9E1,6E0,1E0,2.8E1,2.9E1,2.5E1,5.5E1,2.9E1,1.6E1,2E0],"tree_param":{"num_deleted":"0","num_feature":"7","num_nodes":"103","size_leaf_vector":"1"}},{"base_weights":[5.8624916E-2,-2.0935376E0,3.7922237E0,-3.2577226E0,-9.55498E-1,2.2028272E0,8.379948E0,-5.176538E0,-2.8731399E0,-9.5734216E-2,-2.316285E0,1.810903E1,2.02228E0,7.890162E0,3.0801388E1,-2.8448963E0,-5.8254724E0,-2.6566591E0,-6.662886E0,-2.9196362E0,4.1100997E-1,2.4368642E-2,-3.190489E0,6.853398E0,1.0375185E1,2.5500765E0,-2.2121756E0,1.1133546E1,4.76342E0,1.2573972E1,2.8267229E0,-4.6176276E0,5.606543E0,-4.9650483E0,-8.44906E0,-2.7426765E0,5.7716208E0,-7.246681E0,-1.4772599E0,9.2726564E-1,-5.0088773E0,2.7657385E0,-8.036671E-1,-4.9807096E-1,4.6545863E0,-6.7713237E0,-2.5696208E0,2.987744E0,-1.3013017E0,3.2500637E0,-6.616053E-1,-5.9340425E0,2.053358E-2,5.6318383E0,1.4359479E1,1.6456587E1,3.732106E0,1.0206952E0,-1.5170836E0,3.8902776E0,-3.9476368E-1,-1.8175591E0,-6.557489E-1,-2.860718E0,-1.2877588E0,-5.5493546E-1,-1.1498276E0,4.7471666E0,-4.2421922E-1,-8.309104E-1,-2.3841674E0,1.1379524E0,-1.1229486E0,8.956466E-1,-1.7903799E0,-2.6663709E0,-1.1254156E0,1.2079836E0,-8.1628567E-1,-4.996228E-1,1.0669854E0,3.924559E-1,-1.8175225E0,-2.268123E0,3.7025642E-1,-6.367241E-1,-2.1442153E0,1.8562599E-1,1.2323511E0,4.4188008E-1,-1.2809914E0,-2.6884365E0,-1.9384098E-1,2.13641E0,-2.2059332E-1,-2.0184455E0,2.4068446E0,4.887697E0,1.4322187E0,5.937623E0,2.7488043E0,6.522308E-1,2.4689338E0],"categories":[],"categories_nodes":[],"categories_segments":[],"categories_sizes":[],"default_left":[0,0,0,0,0,0,0,0,0,0,0,0,0,0,0,0,0,0,0,0,0,0,0,0,0,0,0,0,0,0,0,0,0,0,0,0,0,0,0,0,0,0,0,0,0,0,0,0,0,0,0,0,0,0,0,0,0,0,0,0,0,0,0,0,0,0,0,0,0,0,0,0,0,0,0,0,0,0,0,0,0,0,0,0,0,0,0,0,0,0,0,0,0,0,0,0,0,0,0,0,0,0,0],"id":4,"left_children":[1,3,5,7,9,11,13,15,17,19,21,23,25,27,29,31,33,35,37,39,41,43,45,47,-1,49,51,53,55,-1,-1,57,59,61,63,65,67,69,71,73,75,77,79,81,-1,83,85,-1,-1,87,89,91,93,95,97,99,101,-1,-1,-1,-1,-1,-1,-1,-1,-1,-1,-1,-1,-1,-1,-1,-1,-1,-1,-1,-1,-1,-1,-1,-1,-1,-1,-1,-1,-1,-1,-1,-1,-1,-1,-1,-1,-1,-1,-1,-1,-1,-1,-1,-1,-1,-1],"loss_changes":[2.1381867E4,2.2333003E3,7.076378E3,6.005713E2,1.00009E3,2.0425786E3,2.5023926E3,1.9223242E2,5.5412256E2,7.524729E2,6.773727E2,1.2464678E3,1.6080864E3,2.441707E3,7.92876E2,5.0531702E2,1.995918E2,4.9504004E2,1.013064E2,6.476129E2,1.2778873E3,7.44197E2,5.1839795E2,2.5173941E2,0E0,1.4364614E3,6.6490955E2,2.0489082E3,1.4701172E3,0E0,0E0,1.1233453E2,3.2280145E2,2.3899597E2,7.198657E1,6.30438E2,5.280029E2,8.148706E1,7.390992E1,4.2938098E2,2.2030591E2,1.0624957E3,1.1143684E3,9.017881E2,0E0,2.30427E2,4.0860278E2,0E0,0E0,1.1801606E3,8.92042E2,4.7446973E2,2.7895984E2,1.413391E3,1.3117529E3,6.1938965E1,8.089796E2,0E0,0E0,0E0,0E0,0E0,0E0,0E0,0E0,0E0,0E0,0E0,0E0,0E0,0E0,0E0,0E0,0E0,0E0,0E0,0E0,0E0,0E0,0E0,0E0,0E0,0E0,0E0,0E0,0E0,0E0,0E0,0E0,0E0,0E0,0E0,0E0,0E0,0E0,0E0,0E0,0E0,0E0,0E0,0E0,0E0,0E0],"parents":[2147483647,0,0,1,1,2,2,3,3,4,4,5,5,6,6,7,7,8,8,9,9,10,10,11,11,12,12,13,13,14,14,15,15,16,16,17,17,18,18,19,19,20,20,21,21,22,22,23,23,25,25,26,26,27,27,28,28,31,31,32,32,33,33,34,34,35,35,36,36,37,37,38,38,39,39,40,40,41,41,42,42,43,43,45,45,46,46,49,49,50,50,51,51,52,52,53,53,54,54,55,55,56,56],"right_children":[2,4,6,8,10,12,14,16,18,20,22,24,26,28,30,32,34,36,38,40,42,44,46,48,-1,50,52,54,56,-1,-1,58,60,62,64,66,68,70,72,74,76,78,80,82,-1,84,86,-1,-1,88,90,92,94,96,98,100,102,-1,-1,-1,-1,-1,-1,-1,-1,-1,-1,-1,-1,-1,-1,-1,-1,-1,-1,-1,-1,-1,-1,-1,-1,-1,-1,-1,-1,-1,-1,-1,-1,-1,-1,-1,-1,-1,-1,-1,-1,-1,-1,-1,-1,-1,-1],"split_conditions":[3.4E1,2.1E1,5.9E1,1E1,2.8112288E1,1E1,1.36E2,1.879255E1,9.8E0,8.8233734E1,2.1172018E2,9E0,3.822278E1,1.826576E2,9.227667E0,1.8391735E1,9E0,9.3E0,1.6913082E1,1.8472595E1,8.602083E0,5.8E1,2.297104E2,8E0,1.0375185E1,2.8561942E2,4.1500053E1,1.1319841E2,1.51884165E1,1.2573972E1,2.8267229E0,9.47012E0,6E0,1.7000002E0,2.2E1,1.0031833E1,9.400001E0,1.3E1,1.8E1,3.8E1,1.8E1,2.9390897E2,1.8917252E1,3.2E1,4.6545863E0,1.0599999E1,3.2014432E2,2.987744E0,-1.3013017E0,1.24140526E2,2.2862125E1,4.1E1,2.0151411E2,2.2E1,1.5E0,6.854751E0,6.5E1,1.0206952E0,-1.5170836E0,3.8902776E0,-3.9476368E-1,-1.8175591E0,-6.557489E-1,-2.860718E0,-1.2877588E0,-5.5493546E-1,-1.1498276E0,4.7471666E0,-4.2421922E-1,-8.309104E-1,-2.3841674E0,1.1379524E0,-1.1229486E0,8.956466E-1,-1.7903799E0,-2.6663709E0,-1.1254156E0,1.2079836E0,-8.1628567E-1,-4.996228E-1,1.0669854E0,3.924559E-1,-1.8175225E0,-2.268123E0,3.7025642E-1,-6.367241E-1,-2.1442153E0,1.8562599E-1,1.2323511E0,4.4188008E-1,-1.2809914E0,-2.6884365E0,-1.9384098E-1,2.13641E0,-2.2059332E-1,-2.0184455E0,2.4068446E0,4.887697E0,1.4322187E0,5.937623E0,2.7488043E0,6.522308E-1,2.4689338E0],"split_indices":[0,0,0,0,5,1,0,5,4,6,6,1,5,6,3,5,0,4,3,5,3,2,6,2,0,6,5,6,5,0,0,5,1,4,1,3,4,1,0,2,2,6,3,2,0,4,6,0,0,6,5,2,6,2,4,3,2,0,0,0,0,0,0,0,0,0,0,0,0,0,0,0,0,0,0,0,0,0,0,0,0,0,0,0,0,0,0,0,0,0,0,0,0,0,0,0,0,0,0,0,0,0,0],"split_type":[0,0,0,0,0,0,0,0,0,0,0,0,0,0,0,0,0,0,0,0,0,0,0,0,0,0,0,0,0,0,0,0,0,0,0,0,0,0,0,0,0,0,0,0,0,0,0,0,0,0,0,0,0,0,0,0,0,0,0,0,0,0,0,0,0,0,0,0,0,0,0,0,0,0,0,0,0,0,0,0,0,0,0,0,0,0,0,0,0,0,0,0,0,0,0,0,0,0,0,0,0,0,0],"sum_hessian":[2.659E3,1.687E3,9.72E2,8.33E2,8.54E2,7.23E2,2.49E2,1.37E2,6.96E2,5.24E2,3.3E2,7E0,7.16E2,2.45E2,4E0,3.1E1,1.06E2,6.6E2,3.6E1,7.9E1,4.45E2,9E1,2.4E2,5E0,2E0,6.37E2,7.9E1,1.19E2,1.26E2,2E0,2E0,2.6E1,5E0,8.2E1,2.4E1,6.54E2,6E0,3.2E1,4E0,2.8E1,5.1E1,1.51E2,2.94E2,8.8E1,2E0,3.4E1,2.06E2,4E0,1E0,5.23E2,1.14E2,2.9E1,5E1,4.5E1,7.4E1,9E0,1.17E2,1E0,2.5E1,2E0,3E0,5.8E1,2.4E1,1.8E1,6E0,3.61E2,2.93E2,2E0,4E0,5E0,2.7E1,1E0,3E0,2.2E1,6E0,1.1E1,4E1,1.23E2,2.8E1,2.46E2,4.8E1,6.7E1,2.1E1,3.1E1,3E0,1.89E2,1.7E1,1.29E2,3.94E2,7.2E1,4.2E1,1.8E1,1.1E1,4E0,4.6E1,7E0,3.8E1,6.1E1,1.3E1,5E0,4E0,8.8E1,2.9E1],"tree_param":{"num_deleted":"0","num_feature":"7","num_nodes":"103","size_leaf_vector":"1"}},{"base_weights":[5.46502E-2,-1.0894607E0,3.8447769E0,-1.78379E0,6.084536E-1,2.9055116E0,8.671723E0,-3.077704E0,-1.4193734E0,2.090365E0,-3.1384677E-1,5.429435E0,1.1808211E0,7.7496543E0,2.464111E1,-2.7789316E0,-6.326264E0,-3.6120254E-1,-1.9779202E0,-1.466577E-1,5.7175703E0,1.4303474E0,-1.3349527E0,6.3181844E0,-3.837376E0,5.9913964E0,9.933542E-1,6.913685E0,7.574559E0,1.0059177E1,2.2613785E0,-3.739766E0,-1.8874007E0,-2.9418948E0,-7.19448E0,-2.0181165E0,1.5126148E0,-1.4855165E0,-3.0885034E0,3.6620214E0,-1.5735022E0,1.4052604E1,3.4925961E0,4.799587E0,-4.619601E-1,-2.1892962E0,9.916086E-1,3.4945044E-1,7.4213486E0,-5.669937E0,1.6806316E-1,-8.994502E0,1.6098647E0,8.584692E0,-3.1287615E0,-1.0347354E0,-2.6308043E0,-1.0321944E0,8.768568E-2,-1.0409589E0,3.3887103E-2,-1.0222749E0,-2.468882E0,-8.3479196E-1,1.3820446E0,1.6044925E0,1.1501003E-1,-2.6570106E-1,-8.201353E-1,-8.0110884E-1,-2.1189313E0,3.1241703E0,3.8679835E-1,-3.0652876E0,-2.5330895E-1,2.5637147E0,6.445641E0,1.7209352E0,-1.5759872E-1,-1.4256262E0,2.0337698E0,1.3886483E0,-4.7142628E-1,7.201083E-2,-9.9667853E-1,1.5983858E0,-1.7938627E-1,-1.418536E0,1.621654E0,2.7911382E0,1.2705255E0,1.1313784E0,-1.5010116E0,3.6684564E-1,-3.6003244E0,9.233121E-1,-1.6673528E-1,3.7007701E0,1.4691087E0,-3.9269369E0,6.4938855E-1],"categories":[],"categories_nodes":[],"categories_segments":[],"categories_sizes":[],"default_left":[0,0,0,0,0,0,0,0,0,0,0,0,0,0,0,0,0,0,0,0,0,0,0,0,0,0,0,0,0,0,0,0,0,0,0,0,0,0,0,0,0,0,0,0,0,0,0,0,0,0,0,0,0,0,0,0,0,0,0,0,0,0,0,0,0,0,0,0,0,0,0,0,0,0,0,0,0,0,0,0,0,0,0,0,0,0,0,0,0,0,0,0,0,0,0,0,0,0,0,0,0],"id":5,"left_children":[1,3,5,7,9,11,13,15,17,19,21,23,25,27,29,31,33,35,37,39,41,43,45,47,49,-1,51,53,-1,-1,-1,55,57,59,61,63,65,67,69,71,73,75,77,79,81,83,85,87,89,-1,91,93,95,97,99,-1,-1,-1,-1,-1,-1,-1,-1,-1,-1,-1,-1,-1,-1,-1,-1,-1,-1,-1,-1,-1,-1,-1,-1,-1,-1,-1,-1,-1,-1,-1,-1,-1,-1,-1,-1,-1,-1,-1,-1,-1,-1,-1,-1,-1,-1],"loss_changes":[1.1538814E4,2.4107808E3,2.7721494E3,6.79812E2,8.1251587E2,2.248435E3,1.2815273E3,2.910642E2,6.6952246E2,1.8508623E3,6.5553906E2,1.7537798E3,1.0686436E3,1.2297788E3,5.0744092E2,2.439292E2,5.5232056E1,1.223221E3,4.011787E2,7.77446E2,1.5643552E3,8.6930383E2,4.6331342E2,1.2616289E3,1.1494763E3,0E0,1.9048689E3,1.5874922E3,0E0,0E0,0E0,1.7441077E2,5.223866E2,1.1681995E1,5.0355347E1,1.0713862E3,7.9926776E2,3.8394348E2,3.583999E2,6.113585E2,6.468604E2,5.531665E2,6.341084E2,9.587532E2,5.0430045E2,4.6869684E2,4.3743802E2,8.214599E2,9.3226855E2,0E0,3.1700827E2,5.6762036E2,9.235715E2,1.0462456E3,7.665211E2,0E0,0E0,0E0,0E0,0E0,0E0,0E0,0E0,0E0,0E0,0E0,0E0,0E0,0E0,0E0,0E0,0E0,0E0,0E0,0E0,0E0,0E0,0E0,0E0,0E0,0E0,0E0,0E0,0E0,0E0,0E0,0E0,0E0,0E0,0E0,0E0,0E0,0E0,0E0,0E0,0E0,0E0,0E0,0E0,0E0,0E0],"parents":[2147483647,0,0,1,1,2,2,3,3,4,4,5,5,6,6,7,7,8,8,9,9,10,10,11,11,12,12,13,13,14,14,15,15,16,16,17,17,18,18,19,19,20,20,21,21,22,22,23,23,24,24,26,26,27,27,31,31,32,32,33,33,34,34,35,35,36,36,37,37,38,38,39,39,40,40,41,41,42,42,43,43,44,44,45,45,46,46,47,47,48,48,50,50,51,51,52,52,53,53,54,54],"right_children":[2,4,6,8,10,12,14,16,18,20,22,24,26,28,30,32,34,36,38,40,42,44,46,48,50,-1,52,54,-1,-1,-1,56,58,60,62,64,66,68,70,72,74,76,78,80,82,84,86,88,90,-1,92,94,96,98,100,-1,-1,-1,-1,-1,-1,-1,-1,-1,-1,-1,-1,-1,-1,-1,-1,-1,-1,-1,-1,-1,-1,-1,-1,-1,-1,-1,-1,-1,-1,-1,-1,-1,-1,-1,-1,-1,-1,-1,-1,-1,-1,-1,-1,-1,-1],"split_conditions":[4.3E1,2.9E1,7.5E1,1.4E1,1.9901733E2,1E-1,1.36E2,3.328962E2,1.9597896E2,1.3720947E2,1E-1,7.3E1,1E1,3.2247983E2,9.227667E0,1.9023814E2,1.4345898E1,1.25184166E2,1.7000002E0,2.6E1,5.706833E0,2.9E1,4.2E1,9.565225E1,4.8E1,5.9913964E0,1.5E1,2.6974954E2,7.574559E0,1.0059177E1,2.2613785E0,1.7862224E2,2E1,3.5141638E2,8E0,4.9E1,1.412468E2,2.9289865E2,4.5E1,5.706833E0,1.8E1,1.800994E2,1.3564584E1,2.2786244E2,1.4578888E1,2.3356525E2,3.6E1,4.9505835E0,2.34884E2,-5.669937E0,2.1960312E2,2.4E1,5.1E1,7.3E1,2.2057161E1,-1.0347354E0,-2.6308043E0,-1.0321944E0,8.768568E-2,-1.0409589E0,3.3887103E-2,-1.0222749E0,-2.468882E0,-8.3479196E-1,1.3820446E0,1.6044925E0,1.1501003E-1,-2.6570106E-1,-8.201353E-1,-8.0110884E-1,-2.1189313E0,3.1241703E0,3.8679835E-1,-3.0652876E0,-2.5330895E-1,2.5637147E0,6.445641E0,1.7209352E0,-1.5759872E-1,-1.4256262E0,2.0337698E0,1.3886483E0,-4.7142628E-1,7.201083E-2,-9.9667853E-1,1.5983858E0,-1.7938627E-1,-1.418536E0,1.621654E0,2.7911382E0,1.2705255E0,1.1313784E0,-1.5010116E0,3.6684564E-1,-3.6003244E0,9.233121E-1,-1.6673528E-1,3.7007701E0,1.4691087E0,-3.9269369E0,6.4938855E-1],"split_indices":[0,0,0,0,6,4,0,6,6,6,4,1,1,6,3,6,5,6,4,1,3,1,2,6,2,0,2,6,0,0,0,6,2,6,0,2,6,6,1,3,2,6,3,6,5,6,1,3,6,0,6,1,1,1,5,0,0,0,0,0,0,0,0,0,0,0,0,0,0,0,0,0,0,0,0,0,0,0,0,0,0,0,0,0,0,0,0,0,0,0,0,0,0,0,0,0,0,0,0,0,0],"split_type":[0,0,0,0,0,0,0,0,0,0,0,0,0,0,0,0,0,0,0,0,0,0,0,0,0,0,0,0,0,0,0,0,0,0,0,0,0,0,0,0,0,0,0,0,0,0,0,0,0,0,0,0,0,0,0,0,0,0,0,0,0,0,0,0,0,0,0,0,0,0,0,0,0,0,0,0,0,0,0,0,0,0,0,0,0,0,0,0,0,0,0,0,0,0,0,0,0,0,0,0,0],"sum_hessian":[2.659E3,2.043E3,6.16E2,1.45E3,5.93E2,5.17E2,9.9E1,3.17E2,1.133E3,2.27E2,3.66E2,2.09E2,3.08E2,9.5E1,4E0,2.92E2,2.5E1,3.92E2,7.41E2,1.41E2,8.6E1,1.35E2,2.31E2,1.91E2,1.8E1,2E0,3.06E2,9.2E1,3E0,2E0,2E0,1.39E2,1.53E2,6E0,1.9E1,2.08E2,1.84E2,5.15E2,2.26E2,3.8E1,1.03E2,1.7E1,6.9E1,4.8E1,8.7E1,1.69E2,6.2E1,3E1,1.61E2,3E0,1.5E1,1.7E1,2.89E2,7.9E1,1.3E1,1.33E2,6E0,8.9E1,6.4E1,5E0,1E0,5E0,1.4E1,1.87E2,2.1E1,4.1E1,1.43E2,3.49E2,1.66E2,2.06E2,2E1,9E0,2.9E1,7E0,9.6E1,1.1E1,6E0,4.4E1,2.5E1,8E0,4E1,1.5E1,7.2E1,5.4E1,1.15E2,1.6E1,4.6E1,1.5E1,1.5E1,1E2,6.1E1,9E0,6E0,4E0,1.3E1,1.72E2,1.17E2,3.8E1,4.1E1,4E0,9E0],"tree_param":{"num_deleted":"0","num_feature":"7","num_nodes":"101","size_leaf_vector":"1"}},{"base_weights":[4.7828265E-2,-5.69455E-1,3.845983E0,-1.2561288E0,6.187846E-1,5.0947576E0,4.9045548E-1,-1.8829849E0,-8.132065E-1,1.437283E1,5.190927E-1,4.4190173E0,1.4347157E1,7.2641053E0,-7.6091063E-1,-1.4417034E0,-3.3779323E0,3.485111E0,-9.634953E-1,2.6243525E0,7.573957E0,7.869891E-1,-3.6093361E0,3.9686697E0,1.317031E1,-1.2593307E0,1.755241E1,9.320122E0,-4.7520065E0,-8.003687E0,1.7740567E-1,-2.6843996E0,-8.296453E-1,-5.6181735E-1,-4.311129E0,7.4783387E0,-2.7951562E0,-6.231261E-1,-2.7431345E0,1.71218E0,-9.936585E-1,1.9498284E0,-2.3421955E-3,-8.40648E0,-1.7469848E0,4.691207E0,-6.107861E-1,-3.2558093E0,1.6340828E1,1.5676066E0,-1.4610214E0,8.927835E0,1.9876997E1,1.367723E1,-1.2581192E0,-1.8167325E0,-3.2167053E-1,-1.1967524E1,9.339485E-1,2.0500638E0,-3.8746324E0,-2.8300342E-1,-1.0272223E0,-1.1086266E0,-4.8998926E-2,1.9021274E-1,-1.4031299E0,-1.8637258E0,-8.6300594E-1,2.721609E0,-1.0542387E0,-2.8860655E0,1.0362614E0,-3.195367E-1,3.3443883E-1,-1.9598091E0,-6.1444205E-1,1.3317258E0,1.9810618E-1,-7.6670563E-1,1.9644745E-1,-3.50488E0,-5.1683694E-2,-1.1606737E0,1.6560649E0,1.6043037E0,-4.4150674E-1,-2.5902297E0,4.250568E-1,2.4218056E0,6.5656505E0,6.7229465E-2,6.3819355E-1,-1.4598318E0,4.0778546E0,6.8656964E0,2.6671305E0,1.0841051E0,5.242182E0,1.3308793E-1,-1.2097653E0,7.427685E-1,-4.436223E0,1.5741938E0,-6.758832E-1,1.1090218E0,-1.669494E0,2.547472E0,-2.217229E0],"categories":[],"categories_nodes":[],"categories_segments":[],"categories_sizes":[],"default_left":[0,0,0,0,0,0,0,0,0,0,0,0,0,0,0,0,0,0,0,0,0,0,0,0,0,0,0,0,0,0,0,0,0,0,0,0,0,0,0,0,0,0,0,0,0,0,0,0,0,0,0,0,0,0,0,0,0,0,0,0,0,0,0,0,0,0,0,0,0,0,0,0,0,0,0,0,0,0,0,0,0,0,0,0,0,0,0,0,0,0,0,0,0,0,0,0,0,0,0,0,0,0,0,0,0,0,0,0,0],"id":6,"left_children":[1,3,5,7,9,11,13,15,17,19,21,23,25,27,29,31,33,35,37,39,-1,41,43,45,47,49,51,53,55,57,59,61,63,65,67,69,71,73,75,-1,-1,77,79,81,83,85,87,-1,89,91,-1,93,95,97,99,-1,-1,101,103,105,107,-1,-1,-1,-1,-1,-1,-1,-1,-1,-1,-1,-1,-1,-1,-1,-1,-1,-1,-1,-1,-1,-1,-1,-1,-1,-1,-1,-1,-1,-1,-1,-1,-1,-1,-1,-1,-1,-1,-1,-1,-1,-1,-1,-1,-1,-1,-1,-1],"loss_changes":[6.23866E3,1.8684475E3,1.5562915E3,4.013369E2,1.1429484E3,1.6309497E3,8.701116E2,3.9094556E2,5.537407E2,7.0024023E2,9.252373E2,9.4877686E2,9.225137E2,4.3957446E2,5.926732E2,3.5145294E2,3.5498462E2,7.4818066E2,4.974159E2,9.211103E1,0E0,7.19611E2,4.409463E2,8.069104E2,1.0913267E3,4.846371E1,1.2327002E2,6.624752E2,7.8994904E0,3.6545026E2,5.998136E2,1.9380554E2,5.970735E2,1.75211E2,2.6031262E2,3.472152E2,5.450575E2,5.335188E2,3.342718E2,0E0,0E0,1.01458606E3,7.8696484E2,3.7569293E2,6.0733514E2,8.5748145E2,5.6535913E2,0E0,3.2761084E2,1.7791786E0,0E0,3.8788876E2,1.6013916E2,3.1893823E2,2.539583E1,0E0,0E0,3.2171362E2,6.680681E1,6.977053E2,1.149789E3,0E0,0E0,0E0,0E0,0E0,0E0,0E0,0E0,0E0,0E0,0E0,0E0,0E0,0E0,0E0,0E0,0E0,0E0,0E0,0E0,0E0,0E0,0E0,0E0,0E0,0E0,0E0,0E0,0E0,0E0,0E0,0E0,0E0,0E0,0E0,0E0,0E0,0E0,0E0,0E0,0E0,0E0,0E0,0E0,0E0,0E0,0E0,0E0],"parents":[2147483647,0,0,1,1,2,2,3,3,4,4,5,5,6,6,7,7,8,8,9,9,10,10,11,11,12,12,13,13,14,14,15,15,16,16,17,17,18,18,19,19,21,21,22,22,23,23,24,24,25,25,26,26,27,27,28,28,29,29,30,30,31,31,32,32,33,33,34,34,35,35,36,36,37,37,38,38,41,41,42,42,43,43,44,44,45,45,46,46,48,48,49,49,51,51,52,52,53,53,54,54,57,57,58,58,59,59,60,60],"right_children":[2,4,6,8,10,12,14,16,18,20,22,24,26,28,30,32,34,36,38,40,-1,42,44,46,48,50,52,54,56,58,60,62,64,66,68,70,72,74,76,-1,-1,78,80,82,84,86,88,-1,90,92,-1,94,96,98,100,-1,-1,102,104,106,108,-1,-1,-1,-1,-1,-1,-1,-1,-1,-1,-1,-1,-1,-1,-1,-1,-1,-1,-1,-1,-1,-1,-1,-1,-1,-1,-1,-1,-1,-1,-1,-1,-1,-1,-1,-1,-1,-1,-1,-1,-1,-1,-1,-1,-1,-1,-1,-1],"split_conditions":[5.2E1,2.9E1,1.7E0,1.8E1,6E0,9.9E1,3.1589165E0,2.8117007E2,1E1,4E1,6.1E1,1.3E0,4.2625E0,3.1427404E1,2.0000002E0,1.25184166E2,1.7727943E1,1.6E1,3.8999999E0,9E0,7.573957E0,1E-1,1.3436816E2,8E1,2.1E1,1.1E2,6.383333E0,3.3000002E0,5.5E1,2.079007E2,2.4199385E2,1.8919704E1,1.2E1,1E-1,6.523501E0,2.692152E2,3E-1,4E1,1.7E1,1.71218E0,-9.936585E-1,2.9E1,2E1,7.3380837E0,8.1E1,3.3014175E1,6.2E1,-3.2558093E0,5.8E1,1.06E2,-1.4610214E0,2.8E1,7.3E1,2.1915693E1,8E1,-1.8167325E0,-3.2167053E-1,5.6E1,6.3E1,7.4E1,2.1385939E1,-2.8300342E-1,-1.0272223E0,-1.1086266E0,-4.8998926E-2,1.9021274E-1,-1.4031299E0,-1.8637258E0,-8.6300594E-1,2.721609E0,-1.0542387E0,-2.8860655E0,1.0362614E0,-3.195367E-1,3.3443883E-1,-1.9598091E0,-6.1444205E-1,1.3317258E0,1.9810618E-1,-7.6670563E-1,1.9644745E-1,-3.50488E0,-5.1683694E-2,-1.1606737E0,1.6560649E0,1.6043037E0,-4.4150674E-1,-2.5902297E0,4.250568E-1,2.4218056E0,6.5656505E0,6.7229465E-2,6.3819355E-1,-1.4598318E0,4.0778546E0,6.8656964E0,2.6671305E0,1.0841051E0,5.242182E0,1.3308793E-1,-1.2097653E0,7.427685E-1,-4.436223E0,1.5741938E0,-6.758832E-1,1.1090218E0,-1.669494E0,2.547472E0,-2.217229E0],"split_indices":[0,0,4,0,2,0,3,6,2,0,1,4,3,5,4,6,5,1,4,1,0,4,6,1,2,0,3,4,0,6,6,5,2,4,3,6,4,2,2,0,0,1,2,3,1,5,2,0,1,0,0,2,2,5,0,0,0,0,0,1,5,0,0,0,0,0,0,0,0,0,0,0,0,0,0,0,0,0,0,0,0,0,0,0,0,0,0,0,0,0,0,0,0,0,0,0,0,0,0,0,0,0,0,0,0,0,0,0,0],"split_type":[0,0,0,0,0,0,0,0,0,0,0,0,0,0,0,0,0,0,0,0,0,0,0,0,0,0,0,0,0,0,0,0,0,0,0,0,0,0,0,0,0,0,0,0,0,0,0,0,0,0,0,0,0,0,0,0,0,0,0,0,0,0,0,0,0,0,0,0,0,0,0,0,0,0,0,0,0,0,0,0,0,0,0,0,0,0,0,0,0,0,0,0,0,0,0,0,0,0,0,0,0,0,0,0,0,0,0,0,0],"sum_hessian":[2.659E3,2.288E3,3.71E2,1.45E3,8.38E2,2.7E2,1.01E2,5.99E2,8.51E2,5E0,8.33E2,2.53E2,1.7E1,1.5E1,8.6E1,4.64E2,1.35E2,2.8E1,8.23E2,3E0,2E0,7.83E2,5E1,2.42E2,1.1E1,3E0,1.4E1,1.3E1,2E0,9E0,7.7E1,1.52E2,3.12E2,3.4E1,1.01E2,1.7E1,1.1E1,6.92E2,1.31E2,2E0,1E0,3.16E2,4.67E2,1.3E1,3.7E1,2.09E2,3.3E1,1E0,1E1,2E0,1E0,4E0,1E1,9E0,4E0,1E0,1E0,6E0,3E0,5.3E1,2.4E1,4.6E1,1.06E2,5.8E1,2.54E2,2.7E1,7E0,4.2E1,5.9E1,1.5E1,2E0,5E0,6E0,5.52E2,1.4E2,1.9E1,1.12E2,1.07E2,2.09E2,9.5E1,3.72E2,9E0,4E0,2.9E1,8E0,1.89E2,2E1,6E0,2.7E1,5E0,5E0,1E0,1E0,1E0,3E0,7E0,3E0,3E0,6E0,3E0,1E0,1E0,5E0,1E0,2E0,4.4E1,9E0,5E0,1.9E1],"tree_param":{"num_deleted":"0","num_feature":"7","num_nodes":"109","size_leaf_vector":"1"}},{"base_weights":[3.846164E-2,-5.158462E-1,2.298991E0,-1.1154613E0,1.1509741E-2,3.6513128E0,8.1359166E-1,-6.6375375E-1,-1.9342998E0,7.769582E-1,-6.6175026E-1,2.9800358E0,9.442531E0,4.6122286E-1,1.8057894E1,-2.230955E0,-2.5694147E-1,-2.3532944E0,-5.106558E-1,2.115272E-1,2.9744925E0,-8.3219504E-1,7.1771684E0,-2.1877146E0,3.8435216E0,1.2684411E1,5.294621E0,-8.1757165E-2,6.628134E0,6.7469454E0,4.9530033E-2,-1.8079439E0,-6.3456526E0,1.1684347E0,-1.5097106E0,-2.0793969E-2,-2.6836452E0,-6.4949026E0,4.7243934E-2,-1.4987743E0,8.737889E-1,5.3763976E0,-9.851273E-1,-3.945555E0,-5.1989627E-1,2.5794334E0,3.224878E0,7.193495E0,-5.124971E0,9.370391E0,3.1542504E0,1.4181806E1,-1.2418683E0,-1.7279396E0,9.388037E0,7.451811E-1,-5.5643888E0,8.593004E0,-3.3795986E0,-2.0474939E-1,-1.0244809E0,-2.3378646E0,-8.2828665E-1,4.401266E-3,9.522732E-1,2.767368E0,-4.9877378E-1,5.950731E-1,-7.574875E-1,-7.359715E-1,-1.8683518E0,-2.3839567E0,-5.731711E-1,1.5301788E-1,-9.1750365E-1,-9.6910304E-1,6.407975E-1,1.0536361E0,-1.6732106E-2,2.0099216E0,-6.269938E-1,-1.0413121E0,5.768786E-1,2.6707678E0,-1.3067836E0,-2.3938656E0,-1.0500525E-1,1.6414763E0,-2.8727362E-1,-1.8273927E-2,4.8830204E0,2.6812212E0,-1.9651314E0,5.3781424E0,1.9876308E0,-2.4896016E0,1.1308746E0,1.3502488E0,4.62607E0,-2.0765266E0,7.798222E-1,6.081971E-1,3.360444E0,-2.2277796E0,4.6476564E-1,-2.4950445E0,5.34608E-1,8.355072E-1,4.033862E0,-2.067796E0,1.0739348E0],"categories":[],"categories_nodes":[],"categories_segments":[],"categories_sizes":[],"default_left":[0,0,0,0,0,0,0,0,0,0,0,0,0,0,0,0,0,0,0,0,0,0,0,0,0,0,0,0,0,0,0,0,0,0,0,0,0,0,0,0,0,0,0,0,0,0,0,0,0,0,0,0,0,0,0,0,0,0,0,0,0,0,0,0,0,0,0,0,0,0,0,0,0,0,0,0,0,0,0,0,0,0,0,0,0,0,0,0,0,0,0,0,0,0,0,0,0,0,0,0,0,0,0,0,0,0,0,0,0,0,0],"id":7,"left_children":[1,3,5,7,9,11,13,15,17,19,21,23,25,27,29,31,33,35,37,39,41,43,45,47,49,51,53,55,57,-1,-1,59,61,63,65,67,69,71,73,75,77,79,81,83,85,87,-1,89,91,93,95,97,-1,99,101,103,105,107,109,-1,-1,-1,-1,-1,-1,-1,-1,-1,-1,-1,-1,-1,-1,-1,-1,-1,-1,-1,-1,-1,-1,-1,-1,-1,-1,-1,-1,-1,-1,-1,-1,-1,-1,-1,-1,-1,-1,-1,-1,-1,-1,-1,-1,-1,-1,-1,-1,-1,-1,-1,-1],"loss_changes":[3.3342432E3,6.7575494E2,1.0496079E3,3.6859155E2,5.869777E2,1.0370391E3,1.5168363E3,4.1128836E2,2.1055542E2,6.616522E2,8.15651E2,1.1105913E3,3.0935742E2,8.276237E2,3.927843E2,2.2002216E2,9.1959705E2,2.1107312E2,2.7407285E2,4.8269318E2,1.0419551E3,5.75494E2,1.8579797E2,1.028847E3,7.780596E2,4.3658838E2,4.1866962E2,1.0378524E3,4.2231885E2,0E0,0E0,2.183165E2,4.073874E1,5.57683E2,4.6495203E2,1.8068301E2,1.8070728E2,3.1400543E1,1.10795906E2,7.558678E2,7.531115E2,6.8588025E2,3.1029984E2,3.235069E2,6.8278235E2,7.684656E1,0E0,5.94033E2,6.198167E2,4.214463E2,1.3702772E3,9.844507E1,0E0,1.5284511E2,9.742517E1,1.3189111E3,6.214345E2,4.417362E2,1.2246893E2,0E0,0E0,0E0,0E0,0E0,0E0,0E0,0E0,0E0,0E0,0E0,0E0,0E0,0E0,0E0,0E0,0E0,0E0,0E0,0E0,0E0,0E0,0E0,0E0,0E0,0E0,0E0,0E0,0E0,0E0,0E0,0E0,0E0,0E0,0E0,0E0,0E0,0E0,0E0,0E0,0E0,0E0,0E0,0E0,0E0,0E0,0E0,0E0,0E0,0E0,0E0,0E0],"parents":[2147483647,0,0,1,1,2,2,3,3,4,4,5,5,6,6,7,7,8,8,9,9,10,10,11,11,12,12,13,13,14,14,15,15,16,16,17,17,18,18,19,19,20,20,21,21,22,22,23,23,24,24,25,25,26,26,27,27,28,28,31,31,32,32,33,33,34,34,35,35,36,36,37,37,38,38,39,39,40,40,41,41,42,42,43,43,44,44,45,45,47,47,48,48,49,49,50,50,51,51,53,53,54,54,55,55,56,56,57,57,58,58],"right_children":[2,4,6,8,10,12,14,16,18,20,22,24,26,28,30,32,34,36,38,40,42,44,46,48,50,52,54,56,58,-1,-1,60,62,64,66,68,70,72,74,76,78,80,82,84,86,88,-1,90,92,94,96,98,-1,100,102,104,106,108,110,-1,-1,-1,-1,-1,-1,-1,-1,-1,-1,-1,-1,-1,-1,-1,-1,-1,-1,-1,-1,-1,-1,-1,-1,-1,-1,-1,-1,-1,-1,-1,-1,-1,-1,-1,-1,-1,-1,-1,-1,-1,-1,-1,-1,-1,-1,-1,-1,-1,-1,-1,-1],"split_conditions":[4.6E1,2.3E1,2.0229224E2,1.2873501E1,2.427265E1,8.5E1,1.1E2,1.03535835E2,1.8129751E1,2.2057161E1,2.091308E1,7.1075294E1,7.9E1,1.8415167E1,9.227667E0,3.497192E1,2.4689787E2,1.5463246E1,8E0,1.3322395E2,1.3942249E1,2.5277023E1,2.7997377E1,1.5463246E1,4.8E1,1.01E2,4.308917E0,1.5629748E1,6.2E1,6.7469454E0,4.9530033E-2,2.4E1,1.8E1,2.5E1,1.0594036E1,1.6E1,2.2E1,2.1485697E1,3.215866E2,2E-1,1.9597896E2,2.8458844E2,1.7875584E1,1.1E1,4.791949E1,2.5E1,3.224878E0,5E1,2.6E1,1.5318335E0,4.9E1,1.6595179E1,-1.2418683E0,1.0547015E2,9.5E1,2.1172018E2,2.8112288E1,5.1E1,5.4E1,-2.0474939E-1,-1.0244809E0,-2.3378646E0,-8.2828665E-1,4.401266E-3,9.522732E-1,2.767368E0,-4.9877378E-1,5.950731E-1,-7.574875E-1,-7.359715E-1,-1.8683518E0,-2.3839567E0,-5.731711E-1,1.5301788E-1,-9.1750365E-1,-9.6910304E-1,6.407975E-1,1.0536361E0,-1.6732106E-2,2.0099216E0,-6.269938E-1,-1.0413121E0,5.768786E-1,2.6707678E0,-1.3067836E0,-2.3938656E0,-1.0500525E-1,1.6414763E0,-2.8727362E-1,-1.8273927E-2,4.8830204E0,2.6812212E0,-1.9651314E0,5.3781424E0,1.9876308E0,-2.4896016E0,1.1308746E0,1.3502488E0,4.62607E0,-2.0765266E0,7.798222E-1,6.081971E-1,3.360444E0,-2.2277796E0,4.6476564E-1,-2.4950445E0,5.34608E-1,8.355072E-1,4.033862E0,-2.067796E0,1.0739348E0],"split_indices":[0,0,6,3,5,0,0,6,3,5,3,6,1,3,3,5,6,5,0,6,3,5,5,5,0,0,3,3,0,0,0,2,2,2,5,1,0,5,6,4,6,6,3,2,6,1,0,2,1,3,0,5,0,6,1,6,5,0,1,0,0,0,0,0,0,0,0,0,0,0,0,0,0,0,0,0,0,0,0,0,0,0,0,0,0,0,0,0,0,0,0,0,0,0,0,0,0,0,0,0,0,0,0,0,0,0,0,0,0,0,0],"split_type":[0,0,0,0,0,0,0,0,0,0,0,0,0,0,0,0,0,0,0,0,0,0,0,0,0,0,0,0,0,0,0,0,0,0,0,0,0,0,0,0,0,0,0,0,0,0,0,0,0,0,0,0,0,0,0,0,0,0,0,0,0,0,0,0,0,0,0,0,0,0,0,0,0,0,0,0,0,0,0,0,0,0,0,0,0,0,0,0,0,0,0,0,0,0,0,0,0,0,0,0,0,0,0,0,0,0,0,0,0,0,0],"sum_hessian":[2.659E3,2.136E3,5.23E2,9.99E2,1.137E3,2.73E2,2.5E2,6.45E2,3.54E2,5.32E2,6.05E2,2.46E2,2.7E1,2.46E2,4E0,1.32E2,5.13E2,2.73E2,8.1E1,4.24E2,1.08E2,5.93E2,1.2E1,3.5E1,2.11E2,1.4E1,1.3E1,2.27E2,1.9E1,3E0,1E0,1.21E2,1.1E1,2.4E2,2.73E2,3.4E1,2.39E2,6E0,7.5E1,1.18E2,3.06E2,6.7E1,4.1E1,5.3E1,5.4E2,6E0,6E0,8E0,2.7E1,2.2E1,1.89E2,1.3E1,1E0,5E0,8E0,1.98E2,2.9E1,1.6E1,3E0,7.2E1,4.9E1,7E0,4E0,1.53E2,8.7E1,3E0,2.7E2,1.9E1,1.5E1,2.26E2,1.3E1,4E0,2E0,6.6E1,9E0,8E1,3.8E1,7.9E1,2.27E2,5.7E1,1E1,2.2E1,1.9E1,1E0,5.2E1,1.1E1,5.29E2,3E0,3E0,5E0,3E0,2E0,2.5E1,4E0,1.8E1,9E0,1.8E2,2E0,1.1E1,2E0,3E0,2E0,6E0,1.7E1,1.81E2,2.1E1,8E0,8E0,8E0,2E0,1E0],"tree_param":{"num_deleted":"0","num_feature":"7","num_nodes":"111","size_leaf_vector":"1"}},{"base_weights":[3.5703134E-2,-2.1594208E-1,2.7867136E0,-6.5006316E-1,4.218369E-1,4.6522055E0,1.1467315E0,-5.902872E-1,-3.9035416E0,8.128545E0,3.4268582E-1,9.3330765E0,2.8048706E0,5.828336E-1,1.3999819E1,-7.902552E-1,6.3946754E-1,-6.43448E0,-4.1457286E-1,2.822053E0,5.870902E0,2.813962E0,1.3454458E-1,-2.346908E0,1.1613512E1,-2.8704739E0,5.1702046E0,2.5411355E0,-2.1467047E0,5.228882E0,4.2100526E-2,-6.9211704E-1,-3.0396345E0,-4.136303E0,1.163644E0,5.3307533E-1,-7.5474176E0,2.717886E0,-2.099465E0,4.8898225E0,-2.2541707E0,-4.565585E-1,4.5237637E0,-1.7091342E0,4.519989E-1,-3.0045907E0,1.2879276E1,-6.160479E0,4.068346E0,8.473666E0,2.0301976E0,6.468626E0,-1.1296508E0,-2.982775E0,3.5001895E0,-2.2852857E-1,9.533832E-1,-1.110362E0,4.9426913E-1,-7.84821E-1,-2.8689659E0,1.3134456E-1,1.5862024E0,-3.0680466E-1,5.4668856E-1,-2.3919208E0,-3.6594E-1,-2.0469566E-1,-1.099073E0,5.7202417E-1,1.7714021E0,-2.8225709E-2,-9.8615116E-1,-9.121265E-1,5.43968E-1,3.903052E-1,2.5698915E0,-7.909516E-2,-1.5189878E0,1.7045203E0,5.6543063E-2,4.4126673E0,-1.6322583E0,-3.4814537E0,2.203477E-1,-8.9044344E-1,2.07256E0,3.0092623E0,-2.0425656E0,-9.288101E-2,2.179247E0,3.3003078E0,-2.0520327E0,-1.6610217E0,1.4175767E0,-2.147307E0,-1.13520145E-1],"categories":[],"categories_nodes":[],"categories_segments":[],"categories_sizes":[],"default_left":[0,0,0,0,0,0,0,0,0,0,0,0,0,0,0,0,0,0,0,0,0,0,0,0,0,0,0,0,0,0,0,0,0,0,0,0,0,0,0,0,0,0,0,0,0,0,0,0,0,0,0,0,0,0,0,0,0,0,0,0,0,0,0,0,0,0,0,0,0,0,0,0,0,0,0,0,0,0,0,0,0,0,0,0,0,0,0,0,0,0,0,0,0,0,0,0,0],"id":8,"left_children":[1,3,5,7,9,11,13,15,17,19,21,23,25,27,29,31,33,35,37,39,-1,41,43,-1,45,47,49,51,53,-1,-1,55,57,59,61,63,65,-1,67,69,71,73,75,77,79,-1,81,83,85,87,89,91,93,95,-1,-1,-1,-1,-1,-1,-1,-1,-1,-1,-1,-1,-1,-1,-1,-1,-1,-1,-1,-1,-1,-1,-1,-1,-1,-1,-1,-1,-1,-1,-1,-1,-1,-1,-1,-1,-1,-1,-1,-1,-1,-1,-1],"loss_changes":[1.842063E3,6.752914E2,6.769053E2,2.7988593E2,5.998888E2,8.73124E2,8.6158E2,3.5117523E2,2.2692197E2,5.5189594E2,5.0319403E2,1.2254312E3,1.0350715E3,6.255053E2,2.3522937E2,2.6875623E2,5.0548248E2,1.2034009E2,2.1057626E2,9.499417E1,0E0,4.2705292E2,5.298691E2,0E0,8.4079126E2,5.501243E2,5.4293286E2,9.876616E2,6.0072534E2,0E0,0E0,3.196577E2,1.6424493E2,1.3998547E2,5.394359E2,7.8807693E0,2.5288208E1,0E0,2.1882587E1,6.905548E0,6.3848257E0,1.6386293E2,6.4025916E2,6.4349963E2,1.0628612E3,0E0,9.17999E2,6.091436E2,1.8038518E2,6.870332E2,3.5739526E2,2.0658247E3,9.550737E2,5.083244E2,0E0,0E0,0E0,0E0,0E0,0E0,0E0,0E0,0E0,0E0,0E0,0E0,0E0,0E0,0E0,0E0,0E0,0E0,0E0,0E0,0E0,0E0,0E0,0E0,0E0,0E0,0E0,0E0,0E0,0E0,0E0,0E0,0E0,0E0,0E0,0E0,0E0,0E0,0E0,0E0,0E0,0E0,0E0],"parents":[2147483647,0,0,1,1,2,2,3,3,4,4,5,5,6,6,7,7,8,8,9,9,10,10,11,11,12,12,13,13,14,14,15,15,16,16,17,17,18,18,19,19,21,21,22,22,24,24,25,25,26,26,27,27,28,28,31,31,32,32,33,33,34,34,35,35,36,36,38,38,39,39,40,40,41,41,42,42,43,43,44,44,46,46,47,47,48,48,49,49,50,50,51,51,52,52,53,53],"right_children":[2,4,6,8,10,12,14,16,18,20,22,24,26,28,30,32,34,36,38,40,-1,42,44,-1,46,48,50,52,54,-1,-1,56,58,60,62,64,66,-1,68,70,72,74,76,78,80,-1,82,84,86,88,90,92,94,96,-1,-1,-1,-1,-1,-1,-1,-1,-1,-1,-1,-1,-1,-1,-1,-1,-1,-1,-1,-1,-1,-1,-1,-1,-1,-1,-1,-1,-1,-1,-1,-1,-1,-1,-1,-1,-1,-1,-1,-1,-1,-1,-1],"split_conditions":[6.1E1,2.9E1,1.826576E2,5.8E1,1E1,6.6E1,1.1E2,4.1E1,2.7067276E2,9E0,1.4133152E1,1.1792404E1,7.3E1,7.05475E0,9.227667E0,4.1E1,1.0880834E0,1.7E1,2.9E1,3.366337E1,5.870902E0,3.7E1,1.8193361E1,-2.346908E0,1.5E1,1.5357579E2,7.3E1,2.4199385E2,3.4527698E2,5.228882E0,4.2100526E-2,3.8E1,5.2E1,7.0475E-1,2.7E1,7E0,4.8E0,2.717886E0,5.9479165E0,1.687237E2,3.2E1,2.5E1,1.3202726E1,4.2E1,1.879255E1,-3.0045907E0,1.899225E1,2.4850431E1,4.5E1,3.1427404E1,8.9E1,8.8E1,6.5E1,1E-1,3.5001895E0,-2.2852857E-1,9.533832E-1,-1.110362E0,4.9426913E-1,-7.84821E-1,-2.8689659E0,1.3134456E-1,1.5862024E0,-3.0680466E-1,5.4668856E-1,-2.3919208E0,-3.6594E-1,-2.0469566E-1,-1.099073E0,5.7202417E-1,1.7714021E0,-2.8225709E-2,-9.8615116E-1,-9.121265E-1,5.43968E-1,3.903052E-1,2.5698915E0,-7.909516E-2,-1.5189878E0,1.7045203E0,5.6543063E-2,4.4126673E0,-1.6322583E0,-3.4814537E0,2.203477E-1,-8.9044344E-1,2.07256E0,3.0092623E0,-2.0425656E0,-9.288101E-2,2.179247E0,3.3003078E0,-2.0520327E0,-1.6610217E0,1.4175767E0,-2.147307E0,-1.13520145E-1],"split_indices":[0,0,6,1,1,0,0,2,6,1,5,5,0,3,3,1,3,0,2,5,0,0,5,0,2,6,1,6,6,0,0,1,1,3,0,0,4,0,3,6,0,2,5,1,5,0,3,5,1,5,0,0,1,4,0,0,0,0,0,0,0,0,0,0,0,0,0,0,0,0,0,0,0,0,0,0,0,0,0,0,0,0,0,0,0,0,0,0,0,0,0,0,0,0,0,0,0],"split_type":[0,0,0,0,0,0,0,0,0,0,0,0,0,0,0,0,0,0,0,0,0,0,0,0,0,0,0,0,0,0,0,0,0,0,0,0,0,0,0,0,0,0,0,0,0,0,0,0,0,0,0,0,0,0,0,0,0,0,0,0,0,0,0,0,0,0,0,0,0,0,0,0,0,0,0,0,0,0,0,0,0,0,0,0,0,0,0,0,0,0,0,0,0,0,0,0,0],"sum_hessian":[2.659E3,2.437E3,2.22E2,1.45E3,9.87E2,1.03E2,1.19E2,1.425E3,2.5E1,9E0,9.78E2,2.8E1,7.5E1,1.15E2,4E0,1.226E3,1.99E2,1.4E1,1.1E1,7E0,2E0,7.5E1,9.03E2,3E0,2.5E1,2.2E1,5.3E1,6.7E1,4.8E1,3E0,1E0,1.176E3,5E1,1.9E1,1.8E2,2E0,1.2E1,1E0,1E1,5E0,2E0,2.6E1,4.9E1,1.32E2,7.71E2,1E0,2.4E1,1.5E1,7E0,2.5E1,2.8E1,3.2E1,3.5E1,4.6E1,2E0,1.156E3,2E1,4.4E1,6E0,1.6E1,3E0,1.54E2,2.6E1,1E0,1E0,1.1E1,1E0,6E0,4E0,2E0,3E0,1E0,1E0,1.2E1,1.4E1,2.8E1,2.1E1,9.3E1,3.9E1,3.6E1,7.35E2,2.2E1,2E0,8E0,7E0,2E0,5E0,2.3E1,2E0,2E1,8E0,2.4E1,8E0,2E1,1.5E1,1.7E1,2.9E1],"tree_param":{"num_deleted":"0","num_feature":"7","num_nodes":"97","size_leaf_vector":"1"}},{"base_weights":[2.9857961E-2,-1.3041006E-1,2.4698544E0,2.8719297E-1,-7.981785E-1,1.0844489E1,1.9136208E0,5.0723475E-1,-1.4063894E0,-3.3588354E-2,-1.539198E0,5.5676455E0,8.750413E0,-7.335623E-1,3.144239E0,1.0198679E0,-5.863702E-1,-1.0764188E-1,-2.748684E0,1.1900771E0,-7.4728125E-1,-2.0245864E0,7.2132254E-1,2.6135485E0,-5.4053974E-1,2.9507482E0,-5.186916E0,6.671639E0,6.307495E-1,-9.767737E-1,1.8943325E0,-1.3780733E0,1.3023059E0,-2.635893E0,1.1174417E0,2.57621E0,-3.1164424E0,-2.3463469E0,2.1881096E0,8.707978E-1,-1.7021891E0,-2.106484E0,6.650843E0,-9.5836985E-1,1.8703148E0,-2.101415E0,6.213129E-1,-5.7405406E-1,7.698323E0,-6.897319E0,2.3499985E0,8.6199E0,-3.1730204E0,5.6250143E0,-1.33724E0,-7.4744105E-2,-1.0541214E0,4.9382588E-1,2.027434E0,9.28237E-2,-6.4419174E-1,6.2646115E-1,-4.4390815E-1,4.288742E0,-1.1138111E0,6.4114785E-1,-1.8098394E0,-1.2774192E0,1.0388822E-1,1.492541E-1,-1.9396473E0,3.8243252E-1,1.7094189E0,1.3990723E-1,2.0612347E0,-1.4643776E0,-2.024497E-1,-7.671738E-1,-3.5879028E-1,3.7543354E0,-1.640997E0,1.1350138E0,-5.535638E-1,7.328496E-1,-1.1999741E0,-7.673138E-1,-1.7832299E-1,2.996077E0,-7.9439384E-1,5.051999E0,-3.7114742E-1,-4.6911487E-1,-3.4623573E0,-2.0919724E-1,1.3841965E0,-3.7590574E-2,3.0949683E0,-2.6758995E0,1.4410619E0,4.2739363E0,3.8126852E-2,-3.3936477E0,-1.1347258E-1],"categories":[],"categories_nodes":[],"categories_segments":[],"categories_sizes":[],"default_left":[0,0,0,0,0,0,0,0,0,0,0,0,0,0,0,0,0,0,0,0,0,0,0,0,0,0,0,0,0,0,0,0,0,0,0,0,0,0,0,0,0,0,0,0,0,0,0,0,0,0,0,0,0,0,0,0,0,0,0,0,0,0,0,0,0,0,0,0,0,0,0,0,0,0,0,0,0,0,0,0,0,0,0,0,0,0,0,0,0,0,0,0,0,0,0,0,0,0,0,0,0,0,0],"id":9,"left_children":[1,3,5,7,9,11,13,15,17,19,21,23,-1,25,27,29,31,33,35,37,39,41,43,-1,45,47,49,51,53,55,57,59,61,63,65,-1,67,69,71,73,75,77,79,81,83,85,-1,87,89,91,93,95,97,99,101,-1,-1,-1,-1,-1,-1,-1,-1,-1,-1,-1,-1,-1,-1,-1,-1,-1,-1,-1,-1,-1,-1,-1,-1,-1,-1,-1,-1,-1,-1,-1,-1,-1,-1,-1,-1,-1,-1,-1,-1,-1,-1,-1,-1,-1,-1,-1,-1],"loss_changes":[1.0405242E3,6.96548E2,7.432014E2,5.734901E2,5.444281E2,8.045078E2,5.0724548E2,7.6359937E2,3.0826852E2,4.1484366E2,5.369087E2,1.7755634E2,0E0,8.356822E2,9.355967E2,1.6203855E3,6.522374E2,2.848015E2,3.894588E2,6.2279065E2,4.6501718E2,2.996294E2,1.6969843E2,0E0,2.065754E1,4.7297864E2,3.1270538E2,8.712694E2,6.267276E2,5.21532E2,7.6765894E2,3.9917145E2,2.8513135E2,6.00043E2,4.6494904E2,0E0,3.3749078E2,4.6007327E2,4.3192566E2,2.6857904E2,6.1398724E2,1.6070166E2,3.5274115E2,1.5836783E2,1.8453307E2,5.425987E-1,0E0,3.9879068E2,1.0010566E3,4.5255548E2,3.7712982E1,5.5028564E2,4.0955353E2,8.513901E2,4.357539E2,0E0,0E0,0E0,0E0,0E0,0E0,0E0,0E0,0E0,0E0,0E0,0E0,0E0,0E0,0E0,0E0,0E0,0E0,0E0,0E0,0E0,0E0,0E0,0E0,0E0,0E0,0E0,0E0,0E0,0E0,0E0,0E0,0E0,0E0,0E0,0E0,0E0,0E0,0E0,0E0,0E0,0E0,0E0,0E0,0E0,0E0,0E0,0E0],"parents":[2147483647,0,0,1,1,2,2,3,3,4,4,5,5,6,6,7,7,8,8,9,9,10,10,11,11,13,13,14,14,15,15,16,16,17,17,18,18,19,19,20,20,21,21,22,22,24,24,25,25,26,26,27,27,28,28,29,29,30,30,31,31,32,32,33,33,34,34,36,36,37,37,38,38,39,39,40,40,41,41,42,42,43,43,44,44,45,45,47,47,48,48,49,49,50,50,51,51,52,52,53,53,54,54],"right_children":[2,4,6,8,10,12,14,16,18,20,22,24,-1,26,28,30,32,34,36,38,40,42,44,-1,46,48,50,52,54,56,58,60,62,64,66,-1,68,70,72,74,76,78,80,82,84,86,-1,88,90,92,94,96,98,100,102,-1,-1,-1,-1,-1,-1,-1,-1,-1,-1,-1,-1,-1,-1,-1,-1,-1,-1,-1,-1,-1,-1,-1,-1,-1,-1,-1,-1,-1,-1,-1,-1,-1,-1,-1,-1,-1,-1,-1,-1,-1,-1,-1,-1,-1,-1,-1,-1],"split_conditions":[6.5E1,2.4770668E2,6.6E1,3.6161636E1,3E-1,1.8217249E1,6E1,1.4292249E1,2.1960312E2,2.8561942E2,1.6323498E1,6.8E1,8.750413E0,4.9E1,1E-1,1.0742E2,1.8815166E1,2.6000001E0,7E0,2.5719574E2,1.961587E1,8.5E1,2.3E1,2.6135485E0,7.4E1,2.2202621E2,4.8E1,8.5E1,6.6E1,4.2E1,1.3473498E1,1.0994245E2,3.9E1,9E0,5.1E1,2.57621E0,4.48153E1,8.408917E0,3.7E1,5.7E1,4.308917E0,3.5598152E1,4.5E1,1.6567251E1,6.1E1,7.3E1,6.213129E-1,2.00475E0,5E-1,5.7922497E0,2.1758419E1,6.5E1,8.9E1,1.6080103E2,8.556911E1,-7.4744105E-2,-1.0541214E0,4.9382588E-1,2.027434E0,9.28237E-2,-6.4419174E-1,6.2646115E-1,-4.4390815E-1,4.288742E0,-1.1138111E0,6.4114785E-1,-1.8098394E0,-1.2774192E0,1.0388822E-1,1.492541E-1,-1.9396473E0,3.8243252E-1,1.7094189E0,1.3990723E-1,2.0612347E0,-1.4643776E0,-2.024497E-1,-7.671738E-1,-3.5879028E-1,3.7543354E0,-1.640997E0,1.1350138E0,-5.535638E-1,7.328496E-1,-1.1999741E0,-7.673138E-1,-1.7832299E-1,2.996077E0,-7.9439384E-1,5.051999E0,-3.7114742E-1,-4.6911487E-1,-3.4623573E0,-2.0919724E-1,1.3841965E0,-3.7590574E-2,3.0949683E0,-2.6758995E0,1.4410619E0,4.2739363E0,3.8126852E-2,-3.3936477E0,-1.1347258E-1],"split_indices":[0,6,0,5,4,3,1,3,6,6,3,1,0,1,4,6,3,4,1,6,5,2,1,0,1,6,2,2,1,1,3,6,2,2,1,0,5,3,0,0,3,5,0,3,2,1,0,3,4,3,5,1,0,6,6,0,0,0,0,0,0,0,0,0,0,0,0,0,0,0,0,0,0,0,0,0,0,0,0,0,0,0,0,0,0,0,0,0,0,0,0,0,0,0,0,0,0,0,0,0,0,0,0],"split_type":[0,0,0,0,0,0,0,0,0,0,0,0,0,0,0,0,0,0,0,0,0,0,0,0,0,0,0,0,0,0,0,0,0,0,0,0,0,0,0,0,0,0,0,0,0,0,0,0,0,0,0,0,0,0,0,0,0,0,0,0,0,0,0,0,0,0,0,0,0,0,0,0,0,0,0,0,0,0,0,0,0,0,0,0,0,0,0,0,0,0,0,0,0,0,0,0,0,0,0,0,0,0,0],"sum_hessian":[2.659E3,2.496E3,1.63E2,1.536E3,9.6E2,9E0,1.54E2,1.36E3,1.76E2,4.73E2,4.87E2,8E0,1E0,4.9E1,1.05E2,9.26E2,4.34E2,9E1,8.6E1,1.74E2,2.99E2,4.01E2,8.6E1,5E0,3E0,2.7E1,2.2E1,4.3E1,6.2E1,2.82E2,6.44E2,3.06E2,1.28E2,2.9E1,6.1E1,2E0,8.4E1,3.8E1,1.36E2,1.11E2,1.88E2,3.98E2,3E0,3.5E1,5.1E1,2E0,1E0,1.6E1,1.1E1,1.8E1,4E0,3.6E1,7E0,1.7E1,4.5E1,2.2E2,6.2E1,6.14E2,3E1,9.6E1,2.1E2,1E2,2.8E1,1E0,2.8E1,5.4E1,7E0,6.3E1,2.1E1,2.3E1,1.5E1,1.09E2,2.7E1,1.05E2,6E0,4.5E1,1.43E2,2.65E2,1.33E2,2E0,1E0,5E0,3E1,4.7E1,4E0,1E0,1E0,2E0,1.4E1,5E0,6E0,9E0,9E0,2E0,2E0,6E0,3E1,4E0,3E0,6E0,1.1E1,3E0,4.2E1],"tree_param":{"num_deleted":"0","num_feature":"7","num_nodes":"103","size_leaf_vector":"1"}},{"base_weights":[2.998469E-2,-1.8992862E-1,1.1491088E0,-1.431029E-1,-3.3930192E0,1.6739209E0,-1.287833E0,-1.9820495E-1,3.361707E0,-1.0455276E1,2.9233706E-1,1.3218229E0,5.3680634E0,-2.6393144E0,2.5061557E0,-1.6032045E-1,-3.7111986E0,6.7603965E0,-1.9764496E0,6.974161E-1,-1.1965747E1,4.189286E0,-5.802066E0,1.7182275E0,-4.5928082E0,1.7910576E1,2.2671735E0,8.7544036E-1,-4.657836E0,8.446684E0,-4.8730936E0,2.63079E-4,-9.534254E-1,-4.85955E0,3.523887E-1,2.1656594E0,1.0025978E1,1.9993502E0,-4.4073772E0,-1.3717916E1,5.705658E-1,3.4181755E0,1.1885761E0,2.0452392E0,-3.7466877E0,5.6399237E-2,3.0687404E0,3.5646842E0,-6.0106764E0,7.6690474E0,2.307974E0,5.2049227E0,-2.2120225E0,-3.1784766E0,4.5185776E0,-9.978036E0,-2.0232115E0,-5.731274E-1,1.0709148E1,1.059258E0,-7.415439E0,1.1367476E-1,-1.482432E-1,-5.708654E-1,3.213145E-2,-9.927649E-1,-2.4685721E0,-7.023903E-1,4.0781605E-1,-1.2672675E0,2.8201168E0,3.7474453E0,5.916287E-1,-5.7157433E-1,1.9617093E0,-6.5531544E-2,-1.6719035E0,-1.1665684E0,-4.338155E0,-2.6984982E0,1.3353107E0,-3.56358E-1,1.3789777E0,-1.6463372E-1,1.8032218E0,1.3235009E0,-3.8907862E-1,-3.9867504E0,-1.1833564E0,7.78783E-1,2.7361693E0,5.743992E-1,-1.0025414E0,-2.3140423E0,5.6588024E-1,4.0835633E0,-7.4858987E-3,-3.7906814E0,6.6196024E-1,-1.2081126E0,1.1973147E0,4.0491157E0,9.4590884E-1,-3.3342931E0,7.362351E-1],"categories":[],"categories_nodes":[],"categories_segments":[],"categories_sizes":[],"default_left":[0,0,0,0,0,0,0,0,0,0,0,0,0,0,0,0,0,0,0,0,0,0,0,0,0,0,0,0,0,0,0,0,0,0,0,0,0,0,0,0,0,0,0,0,0,0,0,0,0,0,0,0,0,0,0,0,0,0,0,0,0,0,0,0,0,0,0,0,0,0,0,0,0,0,0,0,0,0,0,0,0,0,0,0,0,0,0,0,0,0,0,0,0,0,0,0,0,0,0,0,0,0,0,0,0],"id":10,"left_children":[1,3,5,7,9,11,13,15,17,19,21,23,25,27,29,31,33,35,37,-1,39,41,43,45,47,49,51,53,55,57,59,61,63,65,67,69,71,73,75,77,-1,-1,79,81,-1,83,85,-1,87,-1,-1,89,91,93,95,97,99,-1,101,-1,103,-1,-1,-1,-1,-1,-1,-1,-1,-1,-1,-1,-1,-1,-1,-1,-1,-1,-1,-1,-1,-1,-1,-1,-1,-1,-1,-1,-1,-1,-1,-1,-1,-1,-1,-1,-1,-1,-1,-1,-1,-1,-1,-1,-1],"loss_changes":[6.5487164E2,3.3308563E2,5.610509E2,4.2418332E2,8.3591815E2,4.6115643E2,4.0656E2,2.8687512E2,6.3021466E2,2.4015906E2,5.4679724E2,7.816051E2,1.1650752E3,4.1556488E2,9.617309E2,2.7229504E2,1.0904025E2,2.9338135E2,1.4412024E2,0E0,2.6907434E2,2.8912366E2,4.978097E2,6.955663E2,5.619702E2,2.724878E2,3.5364105E2,3.392796E2,4.984314E2,3.016501E2,2.3984044E2,3.3323132E2,3.6269867E2,6.678586E1,1.9457977E1,5.0200012E2,2.1364832E2,1.18812225E2,4.272757E1,9.462769E0,0E0,0E0,4.0549533E2,4.6703987E1,0E0,5.0777985E2,1.0082573E3,0E0,2.4835046E2,0E0,0E0,1.397768E2,5.7683243E1,2.6720428E2,4.9612787E2,4.1645654E2,3.2941272E2,0E0,1.6810059E2,0E0,3.1932556E2,0E0,0E0,0E0,0E0,0E0,0E0,0E0,0E0,0E0,0E0,0E0,0E0,0E0,0E0,0E0,0E0,0E0,0E0,0E0,0E0,0E0,0E0,0E0,0E0,0E0,0E0,0E0,0E0,0E0,0E0,0E0,0E0,0E0,0E0,0E0,0E0,0E0,0E0,0E0,0E0,0E0,0E0,0E0,0E0],"parents":[2147483647,0,0,1,1,2,2,3,3,4,4,5,5,6,6,7,7,8,8,9,9,10,10,11,11,12,12,13,13,14,14,15,15,16,16,17,17,18,18,20,20,21,21,22,22,23,23,24,24,25,25,26,26,27,27,28,28,29,29,30,30,31,31,32,32,33,33,34,34,35,35,36,36,37,37,38,38,39,39,42,42,43,43,45,45,46,46,48,48,51,51,52,52,53,53,54,54,55,55,56,56,58,58,60,60],"right_children":[2,4,6,8,10,12,14,16,18,20,22,24,26,28,30,32,34,36,38,-1,40,42,44,46,48,50,52,54,56,58,60,62,64,66,68,70,72,74,76,78,-1,-1,80,82,-1,84,86,-1,88,-1,-1,90,92,94,96,98,100,-1,102,-1,104,-1,-1,-1,-1,-1,-1,-1,-1,-1,-1,-1,-1,-1,-1,-1,-1,-1,-1,-1,-1,-1,-1,-1,-1,-1,-1,-1,-1,-1,-1,-1,-1,-1,-1,-1,-1,-1,-1,-1,-1,-1,-1,-1,-1],"split_conditions":[4.9E1,4.8E1,3E0,4.7E1,2.5E1,1.8525583E1,7.2E1,1.72E1,1.0965167E1,2.4849999E-1,1.445475E1,1.7042248E1,1.899225E1,4.4E1,7.5E1,2.9289865E2,2.868723E2,1E-1,2.1550917E2,6.974161E-1,1.4837499E1,1.859845E1,3E1,2.2751316E1,2.2E1,4.4E1,5.9E1,6.523501E0,4.1E0,3.1E1,1.1693269E2,1.0965167E1,9.706833E0,2.2786244E2,1.3896187E1,5.2193336E0,2.5340565E2,3.6E1,2.6E1,1.6179987E1,5.705658E-1,3.4181755E0,2.0617662E1,3.6E1,-3.7466877E0,9.4E1,3.3532215E1,3.5646842E0,1.7296415E1,7.6690474E0,2.307974E0,2.1485697E1,4E1,2.8E1,8.602083E0,6.7E1,1.4641666E1,-5.731274E-1,8.5E1,1.059258E0,3.4131718E1,1.1367476E-1,-1.482432E-1,-5.708654E-1,3.213145E-2,-9.927649E-1,-2.4685721E0,-7.023903E-1,4.0781605E-1,-1.2672675E0,2.8201168E0,3.7474453E0,5.916287E-1,-5.7157433E-1,1.9617093E0,-6.5531544E-2,-1.6719035E0,-1.1665684E0,-4.338155E0,-2.6984982E0,1.3353107E0,-3.56358E-1,1.3789777E0,-1.6463372E-1,1.8032218E0,1.3235009E0,-3.8907862E-1,-3.9867504E0,-1.1833564E0,7.78783E-1,2.7361693E0,5.743992E-1,-1.0025414E0,-2.3140423E0,5.6588024E-1,4.0835633E0,-7.4858987E-3,-3.7906814E0,6.6196024E-1,-1.2081126E0,1.1973147E0,4.0491157E0,9.4590884E-1,-3.3342931E0,7.362351E-1],"split_indices":[0,0,4,0,2,3,0,4,3,3,3,3,3,1,1,6,6,4,6,0,3,5,2,5,1,1,0,3,4,2,6,3,3,6,5,3,6,2,2,5,0,0,5,1,0,0,5,0,3,0,0,5,1,1,3,1,3,0,0,0,5,0,0,0,0,0,0,0,0,0,0,0,0,0,0,0,0,0,0,0,0,0,0,0,0,0,0,0,0,0,0,0,0,0,0,0,0,0,0,0,0,0,0,0,0],"split_type":[0,0,0,0,0,0,0,0,0,0,0,0,0,0,0,0,0,0,0,0,0,0,0,0,0,0,0,0,0,0,0,0,0,0,0,0,0,0,0,0,0,0,0,0,0,0,0,0,0,0,0,0,0,0,0,0,0,0,0,0,0,0,0,0,0,0,0,0,0,0,0,0,0,0,0,0,0,0,0,0,0,0,0,0,0,0,0,0,0,0,0,0,0,0,0,0,0,0,0,0,0,0,0,0,0],"sum_hessian":[2.659E3,2.223E3,4.36E2,2.192E3,3.1E1,3.59E2,7.7E1,2.159E3,3.3E1,1E1,2.1E1,3.29E2,3E1,5.7E1,2E1,2.137E3,2.2E1,2E1,1.3E1,1E0,9E0,1.3E1,8E0,3.09E2,2E1,5E0,2.5E1,2.1E1,3.6E1,1.1E1,9E0,1.778E3,3.59E2,1.7E1,5E0,9E0,1.1E1,5E0,8E0,8E0,1E0,3E0,1E1,4E0,4E0,1.39E2,1.7E2,1E0,1.9E1,2E0,3E0,1.5E1,1E1,1E1,1.1E1,1.1E1,2.5E1,2E0,9E0,2E0,7E0,1.007E3,7.71E2,1.89E2,1.7E2,1.3E1,4E0,1E0,4E0,5E0,4E0,8E0,3E0,3E0,2E0,2E0,6E0,1E0,7E0,2E0,8E0,2E0,2E0,1.27E2,1.2E1,1.3E2,4E1,3E0,1.6E1,1E1,5E0,2E0,8E0,5E0,5E0,3E0,8E0,9E0,2E0,1.9E1,6E0,6E0,3E0,5E0,2E0],"tree_param":{"num_deleted":"0","num_feature":"7","num_nodes":"105","size_leaf_vector":"1"}},{"base_weights":[2.5655797E-2,-1.5780652E-1,7.73811E-1,-1.112163E-1,-3.0362775E0,3.1926057E0,4.7174695E-1,-1.737156E-1,1.984846E0,-1.054768E0,-7.686424E0,1.1551456E0,1.0156495E1,-6.087888E0,6.87912E-1,-9.364876E-2,-2.0642872E0,-4.8829217E0,4.330486E0,-4.004394E0,3.7701106E0,2.0806224E0,-1.0388263E1,1.9458176E0,-1.0826425E1,5.0839252E0,-5.894826E-1,-1.1945317E1,-1.9646412E0,3.6723437E0,6.0953593E-1,-3.2469344E-1,1.1154157E0,3.217099E0,-2.8318346E0,-8.450181E0,4.655085E0,8.225278E0,7.298496E-1,-5.00495E0,1.6505923E0,7.25308E0,-3.267614E0,-1.3774282E-1,1.0740229E0,-1.143455E0,-3.5835779E0,4.6935797E0,-1.586176E0,4.1121885E-1,-5.28311E0,-3.9681382E0,2.4455693E0,-4.8553357E0,-6.9340897E-1,-3.1672816E0,1.5033002E0,1.0311248E0,-1.0696193E0,-1.23469435E-1,7.929701E-1,-1.0793678E0,4.602426E-1,-8.132596E-1,2.582664E0,1.6877149E0,-9.082307E-1,-2.7960477E0,1.6793576E-1,-1.3821477E0,2.4367309E0,3.0168016E0,-7.580987E-1,7.676215E-1,-2.129236E0,5.9395814E-1,-2.0748425E0,7.055458E-1,2.6229663E0,-1.4650446E0,-3.3034918E-1,5.138839E-1,4.1540284E0,-1.9960774E0,7.0397E-1,-2.6687852E-1,-1.3546126E0,1.1620651E0,2.0287514E-2,-2.6398042E-1,4.8958948E-1,1.8212639E0,-4.9352297E-1],"categories":[],"categories_nodes":[],"categories_segments":[],"categories_sizes":[],"default_left":[0,0,0,0,0,0,0,0,0,0,0,0,0,0,0,0,0,0,0,0,0,0,0,0,0,0,0,0,0,0,0,0,0,0,0,0,0,0,0,0,0,0,0,0,0,0,0,0,0,0,0,0,0,0,0,0,0,0,0,0,0,0,0,0,0,0,0,0,0,0,0,0,0,0,0,0,0,0,0,0,0,0,0,0,0,0,0,0,0,0,0,0,0],"id":11,"left_children":[1,3,5,7,9,11,13,15,17,19,21,23,25,27,29,31,33,35,37,39,41,43,45,47,49,-1,51,53,55,-1,57,59,61,63,65,67,69,71,73,75,-1,77,79,-1,-1,-1,-1,81,83,-1,-1,85,-1,-1,-1,-1,87,89,91,-1,-1,-1,-1,-1,-1,-1,-1,-1,-1,-1,-1,-1,-1,-1,-1,-1,-1,-1,-1,-1,-1,-1,-1,-1,-1,-1,-1,-1,-1,-1,-1,-1,-1],"loss_changes":[3.6522916E2,2.8625238E2,3.8134448E2,2.7597394E2,3.0517914E2,8.112093E2,6.66377E2,3.0921127E2,1.00381335E3,3.708867E2,2.855039E2,4.5684686E2,9.585261E2,3.388061E2,4.0272876E2,5.4844275E2,3.4556857E2,5.83729E2,6.390883E2,1.7972357E2,2.6882208E2,1.3068547E1,3.6390137E1,4.3446826E2,2.7237344E2,0E0,2.0955252E2,2.0762976E2,3.1387018E2,0E0,3.2037173E2,4.25988E2,6.271992E2,3.7492264E2,1.3779572E2,9.927893E1,1.9799857E2,4.5846997E2,3.7604218E2,2.1393259E2,0E0,3.05625E1,8.625275E0,0E0,0E0,0E0,0E0,6.583382E2,4.141899E2,0E0,0E0,4.406601E0,0E0,0E0,0E0,0E0,2.6961327E1,4.159511E2,3.8391083E2,0E0,0E0,0E0,0E0,0E0,0E0,0E0,0E0,0E0,0E0,0E0,0E0,0E0,0E0,0E0,0E0,0E0,0E0,0E0,0E0,0E0,0E0,0E0,0E0,0E0,0E0,0E0,0E0,0E0,0E0,0E0,0E0,0E0,0E0],"parents":[2147483647,0,0,1,1,2,2,3,3,4,4,5,5,6,6,7,7,8,8,9,9,10,10,11,11,12,12,13,13,14,14,15,15,16,16,17,17,18,18,19,19,20,20,21,21,22,22,23,23,24,24,26,26,27,27,28,28,30,30,31,31,32,32,33,33,34,34,35,35,36,36,37,37,38,38,39,39,41,41,42,42,47,47,48,48,51,51,56,56,57,57,58,58],"right_children":[2,4,6,8,10,12,14,16,18,20,22,24,26,28,30,32,34,36,38,40,42,44,46,48,50,-1,52,54,56,-1,58,60,62,64,66,68,70,72,74,76,-1,78,80,-1,-1,-1,-1,82,84,-1,-1,86,-1,-1,-1,-1,88,90,92,-1,-1,-1,-1,-1,-1,-1,-1,-1,-1,-1,-1,-1,-1,-1,-1,-1,-1,-1,-1,-1,-1,-1,-1,-1,-1,-1,-1,-1,-1,-1,-1,-1,-1],"split_conditions":[4.6E1,4.5E1,2.3401668E0,4.3E1,2.1000004E0,1.8193332E0,2.9985E0,5.5E1,6.335417E0,2.378453E1,1.9694992E1,1.7401667E0,4.8E1,3.6E1,3.1523147E0,4.1E1,3.6E1,4.4E1,1.4548501E1,6.6E1,2.0939594E2,4.8E1,4.62975E0,2.4066206E1,5.3E1,5.0839252E0,8.4E1,5.2E1,1.0609023E1,3.6723437E0,3E0,2.091308E1,6.3382492E1,2.8E1,3.1910675E1,5.3E1,4.4E1,5.6E1,3.010685E1,1.375558E1,1.6505923E0,5.706833E0,3.6E1,-1.3774282E-1,1.0740229E0,-1.143455E0,-3.5835779E0,2.2460365E1,3E-1,4.1121885E-1,-5.28311E0,2.00475E0,2.4455693E0,-4.8553357E0,-6.9340897E-1,-3.1672816E0,5.5E1,5.4401665E0,2.3E1,-1.23469435E-1,7.929701E-1,-1.0793678E0,4.602426E-1,-8.132596E-1,2.582664E0,1.6877149E0,-9.082307E-1,-2.7960477E0,1.6793576E-1,-1.3821477E0,2.4367309E0,3.0168016E0,-7.580987E-1,7.676215E-1,-2.129236E0,5.9395814E-1,-2.0748425E0,7.055458E-1,2.6229663E0,-1.4650446E0,-3.3034918E-1,5.138839E-1,4.1540284E0,-1.9960774E0,7.0397E-1,-2.6687852E-1,-1.3546126E0,1.1620651E0,2.0287514E-2,-2.6398042E-1,4.8958948E-1,1.8212639E0,-4.9352297E-1],"split_indices":[0,0,3,0,4,3,3,1,3,5,5,3,1,1,6,2,2,1,3,2,6,1,3,5,0,0,0,0,6,0,4,3,6,2,6,2,0,2,5,5,0,3,1,0,0,0,0,5,4,0,0,3,0,0,0,0,0,3,1,0,0,0,0,0,0,0,0,0,0,0,0,0,0,0,0,0,0,0,0,0,0,0,0,0,0,0,0,0,0,0,0,0,0],"split_type":[0,0,0,0,0,0,0,0,0,0,0,0,0,0,0,0,0,0,0,0,0,0,0,0,0,0,0,0,0,0,0,0,0,0,0,0,0,0,0,0,0,0,0,0,0,0,0,0,0,0,0,0,0,0,0,0,0,0,0,0,0,0,0,0,0,0,0,0,0,0,0,0,0,0,0,0,0,0,0,0,0,0,0,0,0,0,0,0,0,0,0,0,0],"sum_hessian":[2.659E3,2.136E3,5.23E2,2.103E3,3.3E1,5.7E1,4.66E2,2.043E3,6E1,2.4E1,9E0,4.5E1,1.2E1,1.4E1,4.52E2,1.961E3,8.2E1,1.5E1,4.5E1,1.5E1,9E0,2E0,7E0,4.3E1,2E0,7E0,5E0,5E0,9E0,2E0,4.5E2,1.647E3,3.14E2,1E1,7.2E1,1.1E1,4E0,2.1E1,2.4E1,1.4E1,1E0,6E0,3E0,1E0,1E0,2E0,5E0,2.4E1,1.9E1,1E0,1E0,4E0,1E0,3E0,2E0,2E0,7E0,3.6E2,9E1,1.601E3,4.6E1,2.5E1,2.89E2,5E0,5E0,1E0,7.1E1,1E1,1E0,1E0,3E0,1.8E1,3E0,2E1,4E0,3E0,1.1E1,2E0,4E0,1E0,2E0,1.9E1,5E0,8E0,1.1E1,1E0,3E0,2E0,5E0,8.6E1,2.74E2,6E0,8.4E1],"tree_param":{"num_deleted":"0","num_feature":"7","num_nodes":"93","size_leaf_vector":"1"}},{"base_weights":[1.8688386E-2,2.6882854E-1,-3.5795265E-1,-8.8298863E-1,5.4541343E-1,-4.036544E-1,6.5876136E0,-1.0221561E0,3.0056598E0,2.6378196E-1,1.9681989E0,-6.170626E0,-3.4262154E-1,3.8295138E0,3.4305344E0,-9.221557E-2,-2.3572915E0,5.9418154E-1,-9.502554E-1,3.9045353E0,3.1536126E-1,2.1662705E0,-8.23187E0,1.2830073E0,-4.9514398E-1,-1.6812642E-1,1.581569E0,4.9559373E-1,-3.8034816E0,-2.7603235E0,3.1888306E0,3.966988E-1,4.3745246E0,7.2010646E0,-1.1624575E0,-6.1049457E0,4.8620996E0,-1.9549495E0,1.6303343E0,-3.41999E0,-2.7837787E0,3.7286768E0,-1.3061525E-1,-4.456223E-1,-5.6619163E0,2.4873735E-1,-3.2439423E-1,-2.9955577E-2,1.5397155E0,4.139215E0,-2.049226E0,-1.6284463E-1,-1.1299675E0,2.1084633E0,-1.0102341E0,-1.3187107E-1,2.6930243E-1,2.0931427E0,4.101785E-2,3.977441E0,2.5739825E-1,-2.0387924E0,-2.610551E-1,9.1633993E-1,-2.7474818E0,2.4325552E0,1.8040979E-1,-1.2489603E0,1.4542583E0,-1.1191919E-1,1.3743262E0,3.7554017E-1,-1.2316872E0,2.734318E0,2.9723486E-1,-8.334438E-1,2.832343E-1,-3.4010512E-1,-4.9392242E-2,-7.2900045E-1,-2.7282927E0],"categories":[],"categories_nodes":[],"categories_segments":[],"categories_sizes":[],"default_left":[0,0,0,0,0,0,0,0,0,0,0,0,0,0,0,0,0,0,0,0,0,0,0,0,0,0,0,0,0,0,0,0,0,0,0,0,0,0,0,0,0,0,0,0,0,0,0,0,0,0,0,0,0,0,0,0,0,0,0,0,0,0,0,0,0,0,0,0,0,0,0,0,0,0,0,0,0,0,0,0,0],"id":12,"left_children":[1,3,5,7,9,11,13,15,-1,17,19,21,23,-1,25,27,29,31,33,35,37,-1,39,41,43,45,-1,47,49,51,53,55,57,59,61,63,65,67,69,-1,71,73,75,77,79,-1,-1,-1,-1,-1,-1,-1,-1,-1,-1,-1,-1,-1,-1,-1,-1,-1,-1,-1,-1,-1,-1,-1,-1,-1,-1,-1,-1,-1,-1,-1,-1,-1,-1,-1,-1],"loss_changes":[2.5070297E2,5.0988336E2,3.397637E2,4.8056787E2,5.1638525E2,3.6957104E2,9.272757E1,3.8095276E2,0E0,4.3296918E2,6.8046454E2,3.630766E2,2.599856E2,0E0,4.0644966E1,3.9892102E2,2.9044568E2,6.313413E2,4.079378E2,9.6898584E2,3.494933E2,0E0,1.4086584E2,3.1163983E2,2.4234198E2,3.6285756E0,0E0,4.3674368E2,1.4263115E3,2.6125275E2,2.5021552E2,3.3848776E2,4.6227942E2,2.1914719E2,3.6620193E2,2.7967383E2,1.2400142E3,6.6610913E2,4.3916248E2,0E0,3.181147E1,4.775718E2,1.676549E2,1.8328587E2,7.773959E1,0E0,0E0,0E0,0E0,0E0,0E0,0E0,0E0,0E0,0E0,0E0,0E0,0E0,0E0,0E0,0E0,0E0,0E0,0E0,0E0,0E0,0E0,0E0,0E0,0E0,0E0,0E0,0E0,0E0,0E0,0E0,0E0,0E0,0E0,0E0,0E0],"parents":[2147483647,0,0,1,1,2,2,3,3,4,4,5,5,6,6,7,7,9,9,10,10,11,11,12,12,14,14,15,15,16,16,17,17,18,18,19,19,20,20,22,22,23,23,24,24,25,25,27,27,28,28,29,29,30,30,31,31,32,32,33,33,34,34,35,35,36,36,37,37,38,38,40,40,41,41,42,42,43,43,44,44],"right_children":[2,4,6,8,10,12,14,16,-1,18,20,22,24,-1,26,28,30,32,34,36,38,-1,40,42,44,46,-1,48,50,52,54,56,58,60,62,64,66,68,70,-1,72,74,76,78,80,-1,-1,-1,-1,-1,-1,-1,-1,-1,-1,-1,-1,-1,-1,-1,-1,-1,-1,-1,-1,-1,-1,-1,-1,-1,-1,-1,-1,-1,-1,-1,-1,-1,-1,-1,-1],"split_conditions":[2.43435E2,1.7E1,1.02E2,2.4029005E2,2.2378012E2,2.442959E2,4.5E1,1.7862224E2,3.0056598E0,1.9597896E2,2.3356525E2,1.2E1,1.4759999E1,3.8295138E0,4.4E1,2.6E1,1.8525583E1,1.895436E2,3.985E-1,1.5683776E1,2.3670308E2,2.1662705E0,3.1E1,8.821416E0,9.6E1,1.04E2,1.581569E0,3.2E1,1.9109999E0,5.4401665E0,2.889995E1,2.0447239E1,2.7729347E1,2.2E1,1.97511E2,1.6333336E0,3.6E1,3.996365E1,3.5E1,-3.41999E0,2.4E1,2.868723E2,2.7330627E2,4.82975E0,8.3E1,2.4873735E-1,-3.2439423E-1,-2.9955577E-2,1.5397155E0,4.139215E0,-2.049226E0,-1.6284463E-1,-1.1299675E0,2.1084633E0,-1.0102341E0,-1.3187107E-1,2.6930243E-1,2.0931427E0,4.101785E-2,3.977441E0,2.5739825E-1,-2.0387924E0,-2.610551E-1,9.1633993E-1,-2.7474818E0,2.4325552E0,1.8040979E-1,-1.2489603E0,1.4542583E0,-1.1191919E-1,1.3743262E0,3.7554017E-1,-1.2316872E0,2.734318E0,2.9723486E-1,-8.334438E-1,2.832343E-1,-3.4010512E-1,-4.9392242E-2,-7.2900045E-1,-2.7282927E0],"split_indices":[6,2,0,6,6,6,1,6,0,6,6,0,5,0,2,1,3,6,3,5,6,0,2,3,1,0,0,0,3,3,5,5,5,2,6,3,1,5,0,0,0,6,6,3,2,0,0,0,0,0,0,0,0,0,0,0,0,0,0,0,0,0,0,0,0,0,0,0,0,0,0,0,0,0,0,0,0,0,0,0,0],"split_type":[0,0,0,0,0,0,0,0,0,0,0,0,0,0,0,0,0,0,0,0,0,0,0,0,0,0,0,0,0,0,0,0,0,0,0,0,0,0,0,0,0,0,0,0,0,0,0,0,0,0,0,0,0,0,0,0,0,0,0,0,0,0,0,0,0,0,0,0,0,0,0,0,0,0,0,0,0,0,0,0,0],"sum_hessian":[2.659E3,1.598E3,1.061E3,3.09E2,1.289E3,1.055E3,6E0,3.06E2,3E0,1.077E3,2.12E2,1E1,1.045E3,1E0,5E0,1.81E2,1.25E2,8.47E2,2.3E2,9.7E1,1.15E2,1E0,9E0,8.9E1,9.56E2,2E0,3E0,1.57E2,2.4E1,1.17E2,8E0,8.06E2,4.1E1,5E0,2.25E2,8E0,8.9E1,4.2E1,7.3E1,5E0,4E0,3.2E1,5.7E1,9.48E2,8E0,1E0,1E0,1.4E2,1.7E1,3E0,2.1E1,3.7E1,8E1,5E0,3E0,3.02E2,5.04E2,2.5E1,1.6E1,2E0,3E0,1E1,2.15E2,2E0,6E0,5E1,3.9E1,3.2E1,1E1,4.4E1,2.9E1,1E0,3E0,1E1,2.2E1,1.6E1,4.1E1,2.74E2,6.74E2,5E0,3E0],"tree_param":{"num_deleted":"0","num_feature":"7","num_nodes":"81","size_leaf_vector":"1"}},{"base_weights":[1.861843E-2,-8.031961E-2,9.685071E-1,-2.4703985E-2,-2.7595806E0,6.8985186E0,5.3540623E-1,1.1514762E-2,-3.5534935E0,-3.6985707E0,1.872974E0,-7.4462384E-1,1.0145213E1,3.1839243E-1,5.3863783E0,-7.7384165E-3,1.1252493E1,-7.2321124E0,-1.262177E0,-5.996559E0,4.390905E-1,-8.311366E-1,9.6090555E-1,1.1455247E1,-6.3977396E-1,-2.3524761E0,7.3920125E-1,8.371957E0,-1.3111873E0,-1.6769025E0,5.7576913E-2,6.965115E-1,4.0366564E0,-1.8801062E0,-9.594765E0,-2.3458328E0,2.3310675E-1,-8.983337E0,-2.1547735E0,2.4873815E0,-4.8500347E0,4.6758616E-1,7.263813E-2,3.8730872E0,-4.6427652E-1,-3.5537577E0,4.6049395E0,8.641908E0,4.8707855E-1,3.1131642E0,1.1317191E0,6.5372896E-1,-8.098725E-1,6.5485895E-1,9.9136E-4,5.810471E-2,-1.2152208E0,-3.6047595E0,-9.505131E-1,1.0674343E0,-2.991535E-1,-4.3385598E-1,-3.1834304E0,1.425168E0,-1.617589E0,1.138574E0,-1.3335347E0,-1.2875538E0,5.2896285E-1,-9.9400526E-1,2.223855E0,3.919617E0,-4.101105E-2,-2.9631681E0,2.1150145E-1],"categories":[],"categories_nodes":[],"categories_segments":[],"categories_sizes":[],"default_left":[0,0,0,0,0,0,0,0,0,0,0,0,0,0,0,0,0,0,0,0,0,0,0,0,0,0,0,0,0,0,0,0,0,0,0,0,0,0,0,0,0,0,0,0,0,0,0,0,0,0,0,0,0,0,0,0,0,0,0,0,0,0,0,0,0,0,0,0,0,0,0,0,0,0,0],"id":13,"left_children":[1,3,5,7,9,11,13,15,17,19,-1,21,23,25,27,29,31,33,35,37,39,-1,41,43,-1,45,47,49,-1,51,53,-1,-1,55,57,-1,59,61,63,65,-1,-1,-1,-1,-1,67,69,71,73,-1,-1,-1,-1,-1,-1,-1,-1,-1,-1,-1,-1,-1,-1,-1,-1,-1,-1,-1,-1,-1,-1,-1,-1,-1,-1],"loss_changes":[2.5006494E2,3.5904297E2,6.4094806E2,3.019242E2,4.3731583E2,4.294085E2,2.456761E2,5.0630417E2,1.9316495E2,4.305064E2,0E0,2.3392832E1,2.1744116E2,2.5574603E2,3.2789365E2,2.5477193E2,4.745938E1,9.57652E1,1.5870232E2,3.1340527E2,6.184451E2,0E0,1.341114E0,2.2809631E2,0E0,2.754571E2,3.8631134E2,3.4639343E1,0E0,3.5290393E2,2.594022E2,0E0,0E0,1.8790264E1,5.5282776E1,0E0,6.081797E1,1.8099316E2,3.3856903E2,1.6193863E2,0E0,0E0,0E0,0E0,0E0,1.1352591E2,1.357306E2,2.3477826E2,4.3836652E2,0E0,0E0,0E0,0E0,0E0,0E0,0E0,0E0,0E0,0E0,0E0,0E0,0E0,0E0,0E0,0E0,0E0,0E0,0E0,0E0,0E0,0E0,0E0,0E0,0E0,0E0],"parents":[2147483647,0,0,1,1,2,2,3,3,4,4,5,5,6,6,7,7,8,8,9,9,11,11,12,12,13,13,14,14,15,15,16,16,17,17,18,18,19,19,20,20,22,22,23,23,25,25,26,26,27,27,29,29,30,30,33,33,34,34,36,36,37,37,38,38,39,39,45,45,46,46,47,47,48,48],"right_children":[2,4,6,8,10,12,14,16,18,20,-1,22,24,26,28,30,32,34,36,38,40,-1,42,44,-1,46,48,50,-1,52,54,-1,-1,56,58,-1,60,62,64,66,-1,-1,-1,-1,-1,68,70,72,74,-1,-1,-1,-1,-1,-1,-1,-1,-1,-1,-1,-1,-1,-1,-1,-1,-1,-1,-1,-1,-1,-1,-1,-1,-1,-1],"split_conditions":[5.9E1,5.6E1,6E1,7.3E1,3.121711E2,1.7106628E1,1.7615168E1,7.1E1,1.4281879E2,4.6E1,1.872974E0,8.8978645E1,7E1,8.422896E1,3.0508972E2,-3.535833E-1,2.5E1,4.7E1,2.8E1,2.3766042E2,7.9E1,-8.311366E-1,3.6E1,2.2575584E1,-6.3977396E-1,8.9E1,7.0475E-1,1.5179066E2,-1.3111873E0,1.6595179E1,8.0683345E-1,6.965115E-1,4.0366564E0,8.1E1,7.5E1,-2.3458328E0,3.6E1,2.2E1,2.167487E1,3.3999999E0,-4.8500347E0,4.6758616E-1,7.263813E-2,3.8730872E0,-4.6427652E-1,2.5000002E0,9.5E1,7.6E1,1.0172501E0,3.1131642E0,1.1317191E0,6.5372896E-1,-8.098725E-1,6.5485895E-1,9.9136E-4,5.810471E-2,-1.2152208E0,-3.6047595E0,-9.505131E-1,1.0674343E0,-2.991535E-1,-4.3385598E-1,-3.1834304E0,1.425168E0,-1.617589E0,1.138574E0,-1.3335347E0,-1.2875538E0,5.2896285E-1,-9.9400526E-1,2.223855E0,3.919617E0,-4.101105E-2,-2.9631681E0,2.1150145E-1],"split_indices":[2,2,2,1,6,5,3,1,6,0,0,6,1,6,6,3,0,0,2,6,0,0,1,3,0,0,3,6,0,5,3,0,0,1,1,0,2,0,5,4,0,0,0,0,0,4,1,0,3,0,0,0,0,0,0,0,0,0,0,0,0,0,0,0,0,0,0,0,0,0,0,0,0,0,0],"split_type":[0,0,0,0,0,0,0,0,0,0,0,0,0,0,0,0,0,0,0,0,0,0,0,0,0,0,0,0,0,0,0,0,0,0,0,0,0,0,0,0,0,0,0,0,0,0,0,0,0,0,0,0,0,0,0,0,0,0,0,0,0,0,0,0,0,0,0,0,0,0,0,0,0,0,0],"sum_hessian":[2.659E3,2.409E3,2.5E2,2.361E3,4.8E1,1.6E1,2.34E2,2.338E3,2.3E1,4.4E1,4E0,5E0,1.1E1,2.25E2,9E0,2.335E3,3E0,8E0,1.5E1,2.8E1,1.6E1,2E0,3E0,1E1,1E0,3E1,1.95E2,7E0,2E0,8.7E1,2.248E3,1E0,2E0,3E0,5E0,2E0,1.3E1,1.5E1,1.3E1,1.5E1,1E0,1E0,2E0,9E0,1E0,2.6E1,4E0,5E0,1.9E2,4E0,3E0,1.8E1,6.9E1,5.5E1,2.193E3,2E0,1E0,3E0,2E0,3E0,1E1,3E0,1.2E1,4E0,9E0,1.3E1,2E0,2.3E1,3E0,1E0,3E0,3E0,2E0,3E0,1.87E2],"tree_param":{"num_deleted":"0","num_feature":"7","num_nodes":"75","size_leaf_vector":"1"}},{"base_weights":[1.2269771E-2,-4.2538878E-1,1.8982366E-1,-3.5331705E-1,-3.40875E0,6.35675E0,1.6684628E-1,4.116167E0,-3.9483795E-1,-1.1449646E0,-4.445229E0,4.025916E0,-2.2954068E0,-2.7679572E0,2.0773675E-1,2.0614922E0,-5.5450326E-1,-5.2502173E-1,1.156219E0,-9.059446E-1,7.0843244E-1,-1.1460829E-1,-5.8760347E0,7.2044563E-1,-1.3984599E0,6.8062115E-1,-5.3422894E0,7.3230577E-1,-4.3471854E-2,-2.4694994E-1,-1.4411153E0,3.897612E0,-7.551979E-2,-1.4765655E-1,1.7531459E-1,-1.9647391E0,-7.0404035E-1,2.9620492E0,-2.0944817E0,-1.8014889E0,-8.215303E0,3.5486323E-1,3.6482396E0,-3.6525576E0,5.3550374E-2,8.520156E-2,-2.2376469E-1,-9.0275836E-1,-2.039459E-1,3.85124E-1,2.6734154E0,-8.428822E-1,4.8297006E-1,7.0555836E-2,8.335734E-3,1.2827914E0,-6.455097E-2,-1.0010093E0,7.798996E-2,-1.836759E0,1.9778387E-1,-2.0350972E-1,-2.7585301E0,-8.737159E-2,4.3680376E-1,-2.3352375E0,1.2857502E0,-1.5578582E0,1.2432847E0,1.3788893E0,-3.0636643E-3],"categories":[],"categories_nodes":[],"categories_segments":[],"categories_sizes":[],"default_left":[0,0,0,0,0,0,0,0,0,0,0,0,0,0,0,0,0,0,0,0,0,0,0,0,0,0,0,0,0,0,0,0,0,0,0,0,0,0,0,0,0,0,0,0,0,0,0,0,0,0,0,0,0,0,0,0,0,0,0,0,0,0,0,0,0,0,0,0,0,0,0],"id":14,"left_children":[1,3,5,7,9,11,13,15,17,19,21,-1,23,25,27,-1,-1,29,31,-1,-1,33,35,-1,-1,37,39,41,43,45,47,49,51,-1,53,-1,-1,55,57,59,61,63,65,67,69,-1,-1,-1,-1,-1,-1,-1,-1,-1,-1,-1,-1,-1,-1,-1,-1,-1,-1,-1,-1,-1,-1,-1,-1,-1,-1],"loss_changes":[2.0678398E2,1.63928E2,2.671771E2,1.4099353E2,3.7144943E1,4.5857318E2,2.2702534E2,1.2774653E2,1.5103932E2,5.314903E1,7.3681915E1,0E0,5.5648354E1,2.3445853E2,2.453992E2,0E0,0E0,1.7490509E2,1.9614178E2,0E0,0E0,5.241643E-1,6.0101013E0,0E0,0E0,8.217833E1,1.3779172E2,6.623656E2,4.413991E2,1.4034958E2,1.889578E2,2.2445593E2,1.934547E2,0E0,1.9963488E-2,0E0,0E0,3.0142376E1,1.8415827E1,8.910109E1,5.283966E1,3.8105225E2,5.3631683E2,4.1783408E2,3.557462E2,0E0,0E0,0E0,0E0,0E0,0E0,0E0,0E0,0E0,0E0,0E0,0E0,0E0,0E0,0E0,0E0,0E0,0E0,0E0,0E0,0E0,0E0,0E0,0E0,0E0,0E0],"parents":[2147483647,0,0,1,1,2,2,3,3,4,4,5,5,6,6,7,7,8,8,9,9,10,10,12,12,13,13,14,14,17,17,18,18,21,21,22,22,25,25,26,26,27,27,28,28,29,29,30,30,31,31,32,32,34,34,37,37,38,38,39,39,40,40,41,41,42,42,43,43,44,44],"right_children":[2,4,6,8,10,12,14,16,18,20,22,-1,24,26,28,-1,-1,30,32,-1,-1,34,36,-1,-1,38,40,42,44,46,48,50,52,-1,54,-1,-1,56,58,60,62,64,66,68,70,-1,-1,-1,-1,-1,-1,-1,-1,-1,-1,-1,-1,-1,-1,-1,-1,-1,-1,-1,-1,-1,-1,-1,-1,-1,-1],"split_conditions":[2E1,1.3200001E1,3.1523147E0,1.0041354E1,4.308917E0,1.4759999E1,2.420543E1,9E0,3.6E1,3.4359999E0,1.5E1,4.025916E0,2.6E1,2.0150354E1,1.7280896E2,2.0614922E0,-5.5450326E-1,2.8E1,4.1E1,-9.059446E-1,7.0843244E-1,1.1E1,3.7E1,7.2044563E-1,-1.3984599E0,1.6455883E1,3.7E1,1.5931523E2,1.800994E2,9.071417E0,3.3E1,1.8E1,3.5E1,-1.4765655E-1,1.5E1,-1.9647391E0,-7.0404035E-1,4.1E1,2.8E1,2.1288757E1,2.2E1,4E-1,1.7401667E0,3.3999999E0,1.1E1,8.520156E-2,-2.2376469E-1,-9.0275836E-1,-2.039459E-1,3.85124E-1,2.6734154E0,-8.428822E-1,4.8297006E-1,7.0555836E-2,8.335734E-3,1.2827914E0,-6.455097E-2,-1.0010093E0,7.798996E-2,-1.836759E0,1.9778387E-1,-2.0350972E-1,-2.7585301E0,-8.737159E-2,4.3680376E-1,-2.3352375E0,1.2857502E0,-1.5578582E0,1.2432847E0,1.3788893E0,-3.0636643E-3],"split_indices":[0,4,6,5,3,5,6,1,1,3,2,0,1,5,6,0,0,2,1,0,0,0,2,0,0,6,1,6,6,3,2,0,2,0,0,0,0,0,1,5,0,4,3,4,1,0,0,0,0,0,0,0,0,0,0,0,0,0,0,0,0,0,0,0,0,0,0,0,0,0,0],"split_type":[0,0,0,0,0,0,0,0,0,0,0,0,0,0,0,0,0,0,0,0,0,0,0,0,0,0,0,0,0,0,0,0,0,0,0,0,0,0,0,0,0,0,0,0,0,0,0,0,0,0,0,0,0,0,0,0,0,0,0,0,0,0,0,0,0,0,0,0,0,0,0],"sum_hessian":[2.659E3,7.67E2,1.892E3,7.5E2,1.7E1,6E0,1.886E3,6E0,7.44E2,6E0,1.1E1,3E0,3E0,2.5E1,1.861E3,4E0,2E0,6.87E2,5.7E1,4E0,2E0,3E0,8E0,1E0,2E0,1.1E1,1.4E1,6.02E2,1.259E3,5.28E2,1.59E2,1.7E1,4E1,1E0,2E0,6E0,2E0,6E0,5E0,7E0,7E0,5.34E2,6.8E1,3.2E1,1.227E3,2.56E2,2.72E2,5.1E1,1.08E2,1.2E1,5E0,1.5E1,2.5E1,1E0,1E0,4E0,2E0,3E0,2E0,2E0,5E0,1E0,6E0,3.37E2,1.97E2,3E0,6.5E1,2.7E1,5E0,1.6E1,1.211E3],"tree_param":{"num_deleted":"0","num_feature":"7","num_nodes":"71","size_leaf_vector":"1"}},{"base_weights":[8.373909E-3,-8.2317935E-3,3.673385E0,2.4252656E-1,-2.5936273E-1,-7.3246354E-1,6.925057E0,-3.1660985E-2,1.0569748E0,-2.6694212E0,-1.4684075E-1,-1.7164655E0,8.236936E-1,3.0646214E0,1.0697511E0,5.2368816E-2,-8.297028E0,2.110081E0,-8.772973E-2,1.2449472E0,-3.9148903E0,2.9297814E-1,-8.302148E-1,-1.5857822E-1,-5.808674E-1,2.940176E-1,7.664452E-2,-4.472673E-2,2.8518412E0,-4.2212644E0,2.910021E-1,7.82929E0,1.481368E0,8.36371E-1,-1.9865835E0,-3.6011443E-1,3.7125587E0,-4.5012903E0,6.469261E-1,-5.19102E-1,1.0713367E0,7.546295E-2,-1.52915E0,-4.1274336E-1,3.7635893E-2,-6.0980875E-2,1.7217591E0,-4.8601557E-2,3.154547E-1,3.1122603E0,-1.0600079E-1,-9.2520076E-1,6.3827956E-1,1.7016178E-1,4.485931E0,-9.578157E-1,3.845423E-1,3.9819172E-1,-6.9389874E-1,1.6790824E0,4.1133973E-1,-1.0172513E0,-2.0429332E0,-2.0472687E-1,6.611248E-1,-1.9849639E-1,1.4379004E0,1.1368074E0,1.5981673E-1,7.082454E-1,-1.6593507E-1,-5.2891463E-1,1.0231164E0],"categories":[],"categories_nodes":[],"categories_segments":[],"categories_sizes":[],"default_left":[0,0,0,0,0,0,0,0,0,0,0,0,0,0,0,0,0,0,0,0,0,0,0,0,0,0,0,0,0,0,0,0,0,0,0,0,0,0,0,0,0,0,0,0,0,0,0,0,0,0,0,0,0,0,0,0,0,0,0,0,0,0,0,0,0,0,0,0,0,0,0,0,0],"id":15,"left_children":[1,3,5,7,9,11,13,15,17,19,21,23,25,-1,-1,27,29,31,33,35,37,39,41,-1,-1,-1,-1,43,45,-1,47,49,51,53,55,57,59,61,63,65,67,69,71,-1,-1,-1,-1,-1,-1,-1,-1,-1,-1,-1,-1,-1,-1,-1,-1,-1,-1,-1,-1,-1,-1,-1,-1,-1,-1,-1,-1,-1,-1],"loss_changes":[1.6191805E2,1.6687885E2,1.7698885E2,2.961446E2,3.5865634E2,1.0601412E1,4.094455E1,6.901098E2,4.0282056E2,2.9251212E2,3.807532E2,2.0706177E-2,1.6158342E-2,0E0,0E0,2.675948E2,4.9995483E2,6.140607E2,2.841734E2,6.074697E1,1.23289246E2,4.8789716E2,3.1408838E2,0E0,0E0,0E0,0E0,2.15823E2,2.922659E2,0E0,1.8929415E0,3.5767456E2,4.7270605E2,4.0568927E2,2.1302492E2,3.602336E1,1.8798698E1,7.9447876E1,1.3921257E1,2.8941348E2,5.747837E2,3.1303238E2,3.29511E2,0E0,0E0,0E0,0E0,0E0,0E0,0E0,0E0,0E0,0E0,0E0,0E0,0E0,0E0,0E0,0E0,0E0,0E0,0E0,0E0,0E0,0E0,0E0,0E0,0E0,0E0,0E0,0E0,0E0,0E0],"parents":[2147483647,0,0,1,1,2,2,3,3,4,4,5,5,6,6,7,7,8,8,9,9,10,10,11,11,12,12,15,15,16,16,17,17,18,18,19,19,20,20,21,21,22,22,27,27,28,28,30,30,31,31,32,32,33,33,34,34,35,35,36,36,37,37,38,38,39,39,40,40,41,41,42,42],"right_children":[2,4,6,8,10,12,14,16,18,20,22,24,26,-1,-1,28,30,32,34,36,38,40,42,-1,-1,-1,-1,44,46,-1,48,50,52,54,56,58,60,62,64,66,68,70,72,-1,-1,-1,-1,-1,-1,-1,-1,-1,-1,-1,-1,-1,-1,-1,-1,-1,-1,-1,-1,-1,-1,-1,-1,-1,-1,-1,-1,-1,-1],"split_conditions":[1.04E2,2.4696104E1,1.8154756E2,2.2057161E1,6.3382492E1,2.7729347E1,6.0464168E0,2.1981382E1,9.629167E0,2.4849999E-1,1.9000002E0,3E0,5.2E1,3.0646214E0,1.0697511E0,5.8999987E0,8.000001E-1,2.2319998E1,3.3E1,2.6886963E1,9.706833E0,2.9914679E1,2.1960312E2,-1.5857822E-1,-5.808674E-1,2.940176E-1,7.664452E-2,1.4E1,1.895436E2,-4.2212644E0,1.037975E1,8E-1,6.1736675E1,4.8E1,9.0000004E-1,2.3E1,4.2421543E1,3.0344818E1,1.6073498E1,1.7000002E0,1.5655603E2,1.6E1,1.7777666E1,-4.1274336E-1,3.7635893E-2,-6.0980875E-2,1.7217591E0,-4.8601557E-2,3.154547E-1,3.1122603E0,-1.0600079E-1,-9.2520076E-1,6.3827956E-1,1.7016178E-1,4.485931E0,-9.578157E-1,3.845423E-1,3.9819172E-1,-6.9389874E-1,1.6790824E0,4.1133973E-1,-1.0172513E0,-2.0429332E0,-2.0472687E-1,6.611248E-1,-1.9849639E-1,1.4379004E0,1.1368074E0,1.5981673E-1,7.082454E-1,-1.6593507E-1,-5.2891463E-1,1.0231164E0],"split_indices":[2,5,6,5,6,5,3,5,3,3,4,0,0,0,0,4,4,5,1,5,3,5,6,0,0,0,0,2,6,0,3,4,6,0,4,2,6,5,3,4,6,1,3,0,0,0,0,0,0,0,0,0,0,0,0,0,0,0,0,0,0,0,0,0,0,0,0,0,0,0,0,0,0],"split_type":[0,0,0,0,0,0,0,0,0,0,0,0,0,0,0,0,0,0,0,0,0,0,0,0,0,0,0,0,0,0,0,0,0,0,0,0,0,0,0,0,0,0,0,0,0,0,0,0,0,0,0,0,0,0,0,0,0,0,0,0,0,0,0,0,0,0,0,0,0,0,0,0,0],"sum_hessian":[2.659E3,2.648E3,1.1E1,1.325E3,1.323E3,5E0,6E0,9.92E2,3.33E2,5.8E1,1.265E3,3E0,2E0,2E0,4E0,9.83E2,9E0,1.73E2,1.6E2,1.4E1,4.4E1,7.7E2,4.95E2,1E0,2E0,1E0,1E0,9.51E2,3.2E1,5E0,4E0,1.6E1,1.57E2,1.08E2,5.2E1,9E0,5E0,3.9E1,5E0,3.77E2,3.93E2,2.16E2,2.79E2,1.07E2,8.44E2,1.6E1,1.6E1,3E0,1E0,1.2E1,4E0,1.9E1,1.38E2,1.07E2,1E0,3.8E1,1.4E1,5E0,4E0,2E0,3E0,2.8E1,1.1E1,3E0,2E0,3.68E2,9E0,6.4E1,3.29E2,4.6E1,1.7E2,2.67E2,1.2E1],"tree_param":{"num_deleted":"0","num_feature":"7","num_nodes":"73","size_leaf_vector":"1"}},{"base_weights":[9.870314E-3,2.7303502E-2,-3.5418952E0,5.3024475E-2,-2.673462E0,-6.061247E-1,-9.995848E0,-8.584177E-3,9.099936E-1,-3.730143E0,3.8253188E-2,3.7129235E-1,-9.031586E-1,-3.519697E0,-7.1796346E-1,7.2815694E-2,-1.3315582E0,-5.304994E0,1.1227417E0,-1.8310534E0,-5.425782E0,-3.022732E0,2.4793906E0,-6.21693E-1,4.5591033E-1,-4.4157985E-3,1.6615161E0,-1.616584E0,3.6446948E0,-2.372571E0,1.1569325E0,1.2329371E1,7.804909E-1,-2.4832525E0,5.1849526E-1,-6.2200966E0,1.3930964E-1,-1.1142434E0,-1.4227425E-1,1.140944E0,-4.223448E-1,1.2937203E-1,-9.9273634E-1,1.1005012E-2,-7.65027E-1,1.7646008E0,2.2255337E-1,-7.86426E-1,1.1310208E-2,1.4785771E0,-4.139824E-2,4.349623E0,5.477829E-1,-3.89141E-1,5.193658E-1,-9.9093115E-1,-2.5128758E-1,2.7573568E-1,-4.2412806E-2,-2.027968E0,-3.662281E-1,-4.5470956E-1,8.6422496E-2],"categories":[],"categories_nodes":[],"categories_segments":[],"categories_sizes":[],"default_left":[0,0,0,0,0,0,0,0,0,0,0,0,0,0,0,0,0,0,0,0,0,0,0,0,0,0,0,0,0,0,0,0,0,0,0,0,0,0,0,0,0,0,0,0,0,0,0,0,0,0,0,0,0,0,0,0,0,0,0,0,0,0,0],"id":16,"left_children":[1,3,5,7,9,11,13,15,17,19,21,23,-1,-1,-1,25,27,29,31,33,35,37,39,41,-1,43,45,47,49,-1,-1,51,53,55,57,59,-1,-1,-1,-1,-1,-1,61,-1,-1,-1,-1,-1,-1,-1,-1,-1,-1,-1,-1,-1,-1,-1,-1,-1,-1,-1,-1],"loss_changes":[1.6480017E2,1.8408856E2,2.4025645E2,1.3854639E2,7.177812E1,2.461884E1,2.4729218E1,2.6382962E2,2.3866808E2,4.80282E1,6.727283E1,1.0067612E1,0E0,0E0,0E0,2.8319363E2,2.0729903E2,1.7361388E2,6.462439E2,1.6611286E1,4.4996033E1,5.2867928E0,3.1082687E1,2.3815267E0,0E0,2.3047803E2,4.1095282E2,2.2450726E2,3.953273E1,0E0,0E0,8.745532E1,3.3211395E2,8.026592E0,9.230214E-1,1.3336761E1,0E0,0E0,0E0,0E0,0E0,0E0,3.115898E0,0E0,0E0,0E0,0E0,0E0,0E0,0E0,0E0,0E0,0E0,0E0,0E0,0E0,0E0,0E0,0E0,0E0,0E0,0E0,0E0],"parents":[2147483647,0,0,1,1,2,2,3,3,4,4,5,5,6,6,7,7,8,8,9,9,10,10,11,11,15,15,16,16,17,17,18,18,19,19,20,20,21,21,22,22,23,23,25,25,26,26,27,27,28,28,31,31,32,32,33,33,34,34,35,35,42,42],"right_children":[2,4,6,8,10,12,14,16,18,20,22,24,-1,-1,-1,26,28,30,32,34,36,38,40,42,-1,44,46,48,50,-1,-1,52,54,56,58,60,-1,-1,-1,-1,-1,-1,62,-1,-1,-1,-1,-1,-1,-1,-1,-1,-1,-1,-1,-1,-1,-1,-1,-1,-1,-1,-1],"split_conditions":[3.5497397E2,1.72E1,4.2E1,6.4E1,3.1E1,4E1,6.2E1,5.8E1,2.9E1,3.7930065E1,2.2E1,2.1E1,-9.031586E-1,-3.519697E0,-7.1796346E-1,5.9E1,1.8917252E1,8.5E1,3.4E1,3.640453E1,2.868723E2,2E1,5.9E1,1.0829959E1,4.5591033E-1,5.6E1,6.1E1,7.1E1,5.8E1,-2.372571E0,1.1569325E0,2.3356525E2,5.094333E0,2.49E1,1.4E1,3E1,1.3930964E-1,-1.1142434E0,-1.4227425E-1,1.140944E0,-4.223448E-1,1.2937203E-1,1.3104751E1,1.1005012E-2,-7.65027E-1,1.7646008E0,2.2255337E-1,-7.86426E-1,1.1310208E-2,1.4785771E0,-4.139824E-2,4.349623E0,5.477829E-1,-3.89141E-1,5.193658E-1,-9.9093115E-1,-2.5128758E-1,2.7573568E-1,-4.2412806E-2,-2.027968E0,-3.662281E-1,-4.5470956E-1,8.6422496E-2],"split_indices":[6,4,0,0,2,2,1,1,1,5,0,0,0,0,0,2,3,0,1,5,6,0,0,5,0,2,2,1,0,0,0,6,3,4,0,2,0,0,0,0,0,0,3,0,0,0,0,0,0,0,0,0,0,0,0,0,0,0,0,0,0,0,0],"split_type":[0,0,0,0,0,0,0,0,0,0,0,0,0,0,0,0,0,0,0,0,0,0,0,0,0,0,0,0,0,0,0,0,0,0,0,0,0,0,0,0,0,0,0,0,0,0,0,0,0,0,0,0,0,0,0,0,0,0,0,0,0,0,0],"sum_hessian":[2.659E3,2.647E3,1.2E1,2.623E3,2.4E1,9E0,3E0,2.448E3,1.75E2,1.7E1,7E0,7E0,2E0,2E0,1E0,2.307E3,1.41E2,5E0,1.7E2,9E0,8E0,3E0,4E0,4E0,3E0,2.201E3,1.06E2,1.34E2,7E0,4E0,1E0,4E0,1.66E2,7E0,2E0,7E0,1E0,2E0,1E0,3E0,1E0,1E0,3E0,2.167E3,3.4E1,1.8E1,8.8E1,8.3E1,5.1E1,5E0,2E0,3E0,1E0,5.2E1,1.14E2,4E0,3E0,1E0,1E0,6E0,1E0,2E0,1E0],"tree_param":{"num_deleted":"0","num_feature":"7","num_nodes":"63","size_leaf_vector":"1"}},{"base_weights":[5.7742246E-3,9.476133E-2,-5.916168E-1,3.5342926E-1,-2.7293268E-1,-9.95598E-1,2.60361E0,-5.3911406E-1,6.043869E-1,-3.565327E-1,2.4145627E0,4.518473E-1,-2.0057082E0,3.4742968E0,-1.2045879E0,-7.683745E-1,4.563721E0,1.1509011E0,-3.2511157E-1,-2.4071186E0,-2.3715112E-1,1.1719622E1,4.5696822E-1,2.3105247E0,-7.0672274E-1,-3.1689456E0,-3.934274E-1,9.8805475E-1,5.898785E0,1.3785628E0,-2.6895888E0,3.8179963E0,-9.8239064E-1,-3.2482338E-1,2.6400917E0,3.145948E0,7.440947E-1,1.2673006E0,-1.0697912E0,-3.5362542E0,2.5759618E0,-1.9152915E-1,-4.625993E0,6.1632447E0,4.377454E0,-3.650916E0,2.60485E0,8.0536944E-1,8.100093E0,-9.5859253E-1,2.840868E0,-2.0689588E0,-5.1346254E0,-1.0430585E0,1.17231045E1,-7.263145E-1,5.2478037E0,-8.753414E-1,6.929042E0,-9.740153E-1,9.797745E-2,1.8486519E0,-8.990835E-1,-1.5778537E-1,-8.789097E-1,-4.7980478E-1,5.722983E-1,5.237053E-1,3.1317737E0,7.6386735E-2,5.433263E-1,-3.0374068E-1,8.648949E-1,-1.2924784E0,-1.555216E-1,-3.374599E0,-7.285212E-1,-3.6090147E-1,1.1013238E0,-1.0137192E-1,5.377904E-1,-2.1487148E0,8.502743E-1,1.7614312E0,-1.5674401E-2,-1.8220202E0,-4.2823222E-1,-1.4373345E0,1.0099628E0,8.440349E-1,-6.2308264E-1,-7.430763E-1,2.8651593E0,-1.6893828E-1,-1.9859266E0,-9.0949535E-1,6.933684E-1,2.9430187E-1,-2.0566573E0,-4.967814E-2,-1.2640556E0,4.0489736E0,9.604031E-1,2.2486247E-1,-9.712777E-1,4.7075617E-1,1.7325485E0,2.9825938E-1,-6.92163E-1,2.377591E0,1.9029543E-1],"categories":[],"categories_nodes":[],"categories_segments":[],"categories_sizes":[],"default_left":[0,0,0,0,0,0,0,0,0,0,0,0,0,0,0,0,0,0,0,0,0,0,0,0,0,0,0,0,0,0,0,0,0,0,0,0,0,0,0,0,0,0,0,0,0,0,0,0,0,0,0,0,0,0,0,0,0,0,0,0,0,0,0,0,0,0,0,0,0,0,0,0,0,0,0,0,0,0,0,0,0,0,0,0,0,0,0,0,0,0,0,0,0,0,0,0,0,0,0,0,0,0,0,0,0,0,0,0,0,0,0],"id":17,"left_children":[1,3,5,7,9,11,13,15,17,19,21,23,25,27,29,31,33,35,37,39,41,43,45,47,49,51,53,55,57,-1,59,61,63,65,-1,67,69,71,73,75,77,79,81,-1,83,85,87,89,91,93,-1,95,97,99,101,103,105,107,109,-1,-1,-1,-1,-1,-1,-1,-1,-1,-1,-1,-1,-1,-1,-1,-1,-1,-1,-1,-1,-1,-1,-1,-1,-1,-1,-1,-1,-1,-1,-1,-1,-1,-1,-1,-1,-1,-1,-1,-1,-1,-1,-1,-1,-1,-1,-1,-1,-1,-1,-1,-1],"loss_changes":[1.4146193E2,2.2037271E2,4.4792218E2,3.0495303E2,2.1587456E2,4.4976468E2,1.3349924E2,3.533002E2,5.398533E2,2.2685037E2,5.2289496E2,2.751157E2,3.3821246E2,1.8706335E2,8.126086E1,2.854577E2,2.7209805E2,5.406181E2,4.685755E2,2.9606448E2,1.7511401E2,2.3402466E2,2.3009135E2,4.204722E2,2.1156218E2,2.1640991E2,6.1831616E2,1.2795887E2,1.1773071E2,0E0,1.2823154E1,2.2614825E2,2.428869E2,2.2968529E1,0E0,1.1357935E3,2.9043958E2,4.670252E2,4.7810553E2,3.3153967E2,4.5800438E1,2.5357584E2,1.9059865E2,0E0,2.6778374E1,3.9807594E1,1.1189815E2,2.373599E2,1.7706885E2,1.7089796E2,0E0,2.979641E2,3.9612744E2,2.0516782E2,1.724524E1,5.060841E1,6.3742065E-1,1.0324627E1,8.276947E1,0E0,0E0,0E0,0E0,0E0,0E0,0E0,0E0,0E0,0E0,0E0,0E0,0E0,0E0,0E0,0E0,0E0,0E0,0E0,0E0,0E0,0E0,0E0,0E0,0E0,0E0,0E0,0E0,0E0,0E0,0E0,0E0,0E0,0E0,0E0,0E0,0E0,0E0,0E0,0E0,0E0,0E0,0E0,0E0,0E0,0E0,0E0,0E0,0E0,0E0,0E0,0E0],"parents":[2147483647,0,0,1,1,2,2,3,3,4,4,5,5,6,6,7,7,8,8,9,9,10,10,11,11,12,12,13,13,14,14,15,15,16,16,17,17,18,18,19,19,20,20,21,21,22,22,23,23,24,24,25,25,26,26,27,27,28,28,30,30,31,31,32,32,33,33,35,35,36,36,37,37,38,38,39,39,40,40,41,41,42,42,44,44,45,45,46,46,47,47,48,48,49,49,51,51,52,52,53,53,54,54,55,55,56,56,57,57,58,58],"right_children":[2,4,6,8,10,12,14,16,18,20,22,24,26,28,30,32,34,36,38,40,42,44,46,48,50,52,54,56,58,-1,60,62,64,66,-1,68,70,72,74,76,78,80,82,-1,84,86,88,90,92,94,-1,96,98,100,102,104,106,108,110,-1,-1,-1,-1,-1,-1,-1,-1,-1,-1,-1,-1,-1,-1,-1,-1,-1,-1,-1,-1,-1,-1,-1,-1,-1,-1,-1,-1,-1,-1,-1,-1,-1,-1,-1,-1,-1,-1,-1,-1,-1,-1,-1,-1,-1,-1,-1,-1,-1,-1,-1,-1],"split_conditions":[3.0326138E2,1.0965167E1,1.8525583E1,1.0742E2,6.5E1,2.4E1,4.3E1,9.706833E0,1.7E0,1.1488083E1,2.8E1,3.215866E2,3.2944672E2,3.1E1,2.4E1,1.1966953E1,3E1,1.488665E2,2.8220417E1,2.6000001E0,6.2E1,6.6E1,6.4E1,2.9E1,6.2E1,3.9E1,7.2E1,1E-1,2.3E1,1.3785628E0,5.4E1,6.1736675E1,5E1,2.4696104E1,2.6400917E0,7.0000005E-1,3.010685E1,2.2319998E1,3.0911821E1,1.5655603E2,1.9469976E1,5E1,4E-1,6.1632447E0,7.5E1,1.9855558E1,1.1604751E1,2E-1,1.3551501E1,3.6E1,2.840868E0,4.3E1,4.1860003E0,2.7887802E1,9.5E1,3E1,1.9E1,4.2E1,5.9E1,-9.740153E-1,9.797745E-2,1.8486519E0,-8.990835E-1,-1.5778537E-1,-8.789097E-1,-4.7980478E-1,5.722983E-1,5.237053E-1,3.1317737E0,7.6386735E-2,5.433263E-1,-3.0374068E-1,8.648949E-1,-1.2924784E0,-1.555216E-1,-3.374599E0,-7.285212E-1,-3.6090147E-1,1.1013238E0,-1.0137192E-1,5.377904E-1,-2.1487148E0,8.502743E-1,1.7614312E0,-1.5674401E-2,-1.8220202E0,-4.2823222E-1,-1.4373345E0,1.0099628E0,8.440349E-1,-6.2308264E-1,-7.430763E-1,2.8651593E0,-1.6893828E-1,-1.9859266E0,-9.0949535E-1,6.933684E-1,2.9430187E-1,-2.0566573E0,-4.967814E-2,-1.2640556E0,4.0489736E0,9.604031E-1,2.2486247E-1,-9.712777E-1,4.7075617E-1,1.7325485E0,2.9825938E-1,-6.92163E-1,2.377591E0,1.9029543E-1],"split_indices":[6,3,3,6,0,1,2,3,4,3,2,6,6,0,1,5,0,6,5,4,0,0,1,0,2,0,0,4,1,0,1,6,0,5,0,4,5,5,5,6,5,0,4,0,0,5,3,4,5,0,0,1,3,5,0,1,2,0,0,0,0,0,0,0,0,0,0,0,0,0,0,0,0,0,0,0,0,0,0,0,0,0,0,0,0,0,0,0,0,0,0,0,0,0,0,0,0,0,0,0,0,0,0,0,0,0,0,0,0,0,0],"split_type":[0,0,0,0,0,0,0,0,0,0,0,0,0,0,0,0,0,0,0,0,0,0,0,0,0,0,0,0,0,0,0,0,0,0,0,0,0,0,0,0,0,0,0,0,0,0,0,0,0,0,0,0,0,0,0,0,0,0,0,0,0,0,0,0,0,0,0,0,0,0,0,0,0,0,0,0,0,0,0,0,0,0,0,0,0,0,0,0,0,0,0,0,0,0,0,0,0,0,0,0,0,0,0,0,0,0,0,0,0,0,0],"sum_hessian":[2.659E3,2.315E3,3.44E2,1.359E3,9.56E2,3.06E2,3.8E1,2.98E2,1.061E3,9.28E2,2.8E1,1.26E2,1.8E2,3.1E1,7E0,2.86E2,1.2E1,6.68E2,3.93E2,5E1,8.78E2,4E0,2.4E1,4.8E1,7.8E1,1.04E2,7.6E1,1.6E1,1.5E1,1E0,6E0,1.2E1,2.74E2,6E0,6E0,1.12E2,5.56E2,1.25E2,2.68E2,4.1E1,9E0,8.7E2,8E0,1E0,3E0,8E0,1.6E1,3.9E1,9E0,7.7E1,1E0,6.8E1,3.6E1,7.3E1,3E0,1.2E1,4E0,2E0,1.3E1,5E0,1E0,9E0,3E0,2.23E2,5.1E1,4E0,2E0,9.5E1,1.7E1,3.82E2,1.74E2,5.2E1,7.3E1,3.8E1,2.3E2,4E0,3.7E1,2E0,7E0,8.11E2,5.9E1,6E0,2E0,2E0,1E0,3E0,5E0,1E0,1.5E1,2.3E1,1.6E1,1E0,8E0,7.3E1,4E0,5.6E1,1.2E1,8E0,2.8E1,5.8E1,1.5E1,2E0,1E0,8E0,4E0,1E0,3E0,1E0,1E0,1.1E1,2E0],"tree_param":{"num_deleted":"0","num_feature":"7","num_nodes":"111","size_leaf_vector":"1"}},{"base_weights":[1.0026909E-2,-1.9674557E0,3.56167E-2,-3.8160086E0,1.0556824E-1,-4.289954E0,4.550145E-2,-4.659111E0,8.9888446E-2,-2.6552281E0,1.8528415E0,3.449776E-1,-5.607915E0,2.3019063E0,2.3771033E-2,-9.418161E-1,-1.9270732E0,3.1486908E-1,-4.3470573E0,-2.783977E-1,3.675274E0,-1.9162496E0,-3.7343732E-1,1.165852E0,3.0733063E0,-1.7060547E0,5.011456E-2,-5.923069E-2,-3.1536153E-1,-1.4656068E0,-3.2907945E-1,6.669486E-1,-2.7534243E-1,4.4021378E0,6.1429744E-3,2.0657742E0,-3.6252222E0,-3.4905505E-1,-4.730216E0,7.9880303E-1,-9.902697E-3,1.6831398E-2,2.832955E-1,4.0427256E-2,1.6305882E0,-1.0016605E0,8.555348E-1,3.628149E-1,-1.6919656E0,-7.9603475E-1,2.1161251E-1,-3.2506151E0,-7.2769326E-1,-4.8103568E-1,4.7987053E-1,-5.8149964E-1,7.7117626E-3],"categories":[],"categories_nodes":[],"categories_segments":[],"categories_sizes":[],"default_left":[0,0,0,0,0,0,0,0,0,0,0,0,0,0,0,0,0,0,0,0,0,0,0,0,0,0,0,0,0,0,0,0,0,0,0,0,0,0,0,0,0,0,0,0,0,0,0,0,0,0,0,0,0,0,0,0,0],"id":18,"left_children":[1,3,5,7,9,11,13,15,-1,17,19,-1,21,23,25,27,-1,-1,29,31,33,-1,-1,35,-1,37,39,-1,-1,-1,-1,41,-1,43,-1,45,47,49,51,53,55,-1,-1,-1,-1,-1,-1,-1,-1,-1,-1,-1,-1,-1,-1,-1,-1],"loss_changes":[1.3467502E2,1.3069406E2,1.125183E2,6.385428E1,8.692544E1,4.9465973E1,1.285088E2,9.2335785E1,0E0,4.8437637E1,4.3747623E1,0E0,9.056E0,2.1363289E2,1.1847561E2,2.8101683E-1,0E0,0E0,3.3887863E0,4.2389164E0,1.5849098E1,0E0,0E0,1.06655556E2,0E0,1.5839655E2,1.15039536E2,0E0,0E0,0E0,0E0,4.5530796E-1,0E0,2.1311897E1,0E0,9.448362E1,4.5781178E1,6.99067E1,1.4255481E2,3.6805695E2,1.628631E2,0E0,0E0,0E0,0E0,0E0,0E0,0E0,0E0,0E0,0E0,0E0,0E0,0E0,0E0,0E0,0E0],"parents":[2147483647,0,0,1,1,2,2,3,3,4,4,5,5,6,6,7,7,9,9,10,10,12,12,13,13,14,14,15,15,18,18,19,19,20,20,23,23,25,25,26,26,31,31,33,33,35,35,36,36,37,37,38,38,39,39,40,40],"right_children":[2,4,6,8,10,12,14,16,-1,18,20,-1,22,24,26,28,-1,-1,30,32,34,-1,-1,36,-1,38,40,-1,-1,-1,-1,42,-1,44,-1,46,48,50,52,54,56,-1,-1,-1,-1,-1,-1,-1,-1,-1,-1,-1,-1,-1,-1,-1,-1],"split_conditions":[6E0,6.1505837E0,2E0,2.827014E2,1E-1,2E0,6E0,8.8978645E1,8.9888446E-2,8.065167E0,8E0,3.449776E-1,3.890666E1,3.5E1,-2.1973333E0,-2.916667E0,-1.9270732E0,3.1486908E-1,5E0,6E0,5E0,-1.9162496E0,-3.7343732E-1,1.5E1,3.0733063E0,1.0742E2,1.4693333E0,-5.923069E-2,-3.1536153E-1,-1.4656068E0,-3.2907945E-1,4E0,-2.7534243E-1,6.200584E0,6.1429744E-3,6.0605553E1,3E0,2.0746122E1,1.7862224E2,1.7E1,1.8193332E0,1.6831398E-2,2.832955E-1,4.0427256E-2,1.6305882E0,-1.0016605E0,8.555348E-1,3.628149E-1,-1.6919656E0,-7.9603475E-1,2.1161251E-1,-3.2506151E0,-7.2769326E-1,-4.8103568E-1,4.7987053E-1,-5.8149964E-1,7.7117626E-3],"split_indices":[0,3,2,6,4,1,2,6,0,3,2,0,5,0,3,3,0,0,0,1,0,0,0,1,0,6,3,0,0,0,0,1,0,3,0,6,2,5,6,1,3,0,0,0,0,0,0,0,0,0,0,0,0,0,0,0,0],"split_type":[0,0,0,0,0,0,0,0,0,0,0,0,0,0,0,0,0,0,0,0,0,0,0,0,0,0,0,0,0,0,0,0,0,0,0,0,0,0,0,0,0,0,0,0,0,0,0,0,0,0,0,0,0,0,0,0,0],"sum_hessian":[2.659E3,3.3E1,2.626E3,1.7E1,1.6E1,5E0,2.621E3,1.4E1,3E0,6E0,1E1,1E0,4E0,2.4E1,2.597E3,5E0,9E0,2E0,4E0,5E0,5E0,3E0,1E0,2.2E1,2E0,3.8E1,2.559E3,1E0,4E0,3E0,1E0,2E0,3E0,4E0,1E0,1.9E1,